svm_type c_svc
kernel_type rbf
gamma 0.0909091
nr_class 2
total_sv 301
rho -0.45922
label 1 -1
nr_sv 158 143
SV
1 1:-0.13 2:0.95 3:0.05172 4:0 5:0 6:-0 7:-0 8:-0 9:-3.733441 10:0.002026 11:0.000305 
1 1:0.24 2:1.09 3:0.2861 4:0 5:0 6:0.166667 7:0.333333 8:0.444444 9:-1.886725 10:0.007261 11:0.000339 
0.1416332422331494 1:-1.18 2:1.2 3:0.54281 4:0.02868 5:0.04226 6:0.5 7:1.071429 8:1.090909 9:13.97293 10:0.205999 11:0.000398 
1 1:-1.16 2:0.95 3:0.27347 4:0.04971 5:-1.42032 6:0.5 7:0.166667 8:0.3125 9:-3.81327 10:0.000627 11:0.000253 
1 1:-0.56 2:0.83 3:0.38137 4:0.02968 5:-0.23182 6:0 7:0.357143 8:0.714286 9:-4.295045 10:0.004486 11:0.000355 
1 1:-0.04 2:0.65 3:0.4072 4:0.01267 5:0 6:0 7:0.333333 8:0.8 9:-12.06235 10:0.089546 11:0.000246 
1 1:-0.66 2:0.95 3:0.29587 4:0.01851 5:-1.1169 6:0.333333 7:0.333333 8:0.375 9:-2.846735 10:0.006235 11:0.000377 
1 1:-0.71 2:0.95 3:0.44703 4:0.01864 5:-0.71279 6:0.416667 7:0.666667 8:0.5 9:-3.880375 10:0.005394 11:0.000321 
1 1:0.17 2:1 3:0.06034 4:0 5:0 6:-0 7:-0 8:-0 9:-0.270687 10:0.057347 11:0.00048 
1 1:-0.72 2:0.79 3:0.40909 4:0 5:-1.42557 6:0.333333 7:0.666667 8:0.5 9:-5.045023 10:0.015809 11:0.000388 
1 1:-0.36 2:0.98 3:0.1442 4:0.0044 5:-0.00128 6:0 7:0.333333 8:0.1 9:-2.054399 10:0.02977 11:0.00039 
1 1:0.21 2:1.02 3:0.09866 4:0.0044 5:0.06914 6:0 7:0.166667 8:0.222222 9:-3.383123 10:0.004056 11:0.000308 
1 1:-0.32 2:1 3:0.0683 4:0.00879 5:0.00747 6:0 7:0 8:0.222222 9:-1.561422 10:0.023394 11:0.000314 
1 1:-0.26 2:1.05 3:0.12902 4:0.00879 5:-0.00257 6:0 7:0.166667 8:0.333333 9:-1.204216 10:0.039633 11:0.000367 
1 1:-0.28 2:1.04 3:0.15178 4:0.0044 5:0.00374 6:0 7:0.166667 8:0.333333 9:-1.988643 10:0.020167 11:0.00031 
1 1:-0.27 2:0.99 3:0.12143 4:0.01319 5:-0.00385 6:0.166667 7:0.166667 8:0.2 9:-1.161236 10:0.040383 11:0.000365 
1 1:-0.47 2:1.02 3:0.18214 4:0.00879 5:-0.00257 6:0.166667 7:0.166667 8:0.333333 9:-1.455544 10:0.036685 11:0.000367 
1 1:-0.22 2:1.05 3:0.17455 4:0 5:0.06539 6:0 7:0.333333 8:0.333333 9:-2.155961 10:0.019236 11:0.000315 
1 1:-0.71 2:0.77 3:0.3884 4:0 5:0 6:0.5 7:0.2 8:0.5 9:1.084435 10:0.06792 11:0.000343 
1 1:-1.27 2:0.87 3:0.31335 4:0.02455 5:-0.01174 6:0.333333 7:0.277778 8:0.409091 9:-12.030177 10:0.110493 11:0.000313 
1 1:-0.5 2:0.76 3:0.3491 4:0 5:0 6:0.5 7:0.5 8:0.416667 9:-3.275558 10:0.022542 11:0.000366 
0.3561053105910811 1:-2.25 2:0.87 3:0.22581 4:0.02455 5:-0.00506 6:0.357143 7:0.285714 8:0.142857 9:1.586982 10:0.048862 11:0.000309 
1 1:-1.1 2:0.92 3:0.37903 4:0.02455 5:-0.01174 6:0.444444 7:0.388889 8:0.590909 9:-8.694453 10:0.071914 11:0.000308 
1 1:-1.19 2:0.99 3:0.03858 4:0 5:0.14223 6:0 7:0 8:0.2 9:-1.892184 10:0.023674 11:0.000293 
1 1:-1.05 2:1.03 3:0.05402 4:0.00864 5:0.14803 6:0 7:0 8:0.2 9:-0.112932 10:0.042076 11:0.000277 
1 1:-0.78 2:1.04 3:0.07717 4:0.02187 5:0.10676 6:0 7:0 8:0.3 9:-0.904496 10:0.032637 11:0.000277 
0.007052366719779197 1:0.39 2:1.02 3:0.37288 4:0 5:-1.17381 6:-0 7:-0 8:-0 9:12.490931 10:0.207369 11:0.000441 
1 1:-1.63 2:0.97 3:0.05815 4:-0.01217 5:-0.15586 6:0.055556 7:0 8:0.045455 9:-0.197187 10:0.047698 11:0.000389 
1 1:-1.24 2:1 3:0.06622 4:0.00717 5:0.38505 6:0.0625 7:0 8:0.05 9:-1.491275 10:0.022271 11:0.000388 
1 1:-1.44 2:0.98 3:0.06022 4:0.02302 5:0.51557 6:0.125 7:0 8:0.045455 9:-0.997584 10:0.027939 11:0.000408 
1 1:-1.79 2:0.94 3:0.07381 4:0.0609 5:0.38505 6:0.125 7:0 8:0.045455 9:-1.749648 10:0.019241 11:0.000388 
1 1:-1.52 2:0.93 3:0.05312 4:0.00373 5:0.12641 6:0.1 7:0 8:0 9:-4.241468 10:0.008199 11:0.000388 
1 1:-1.18 2:0.96 3:0.04516 4:0.02302 5:-0.20674 6:0.055556 7:0 8:0 9:-1.980687 10:0.024635 11:0.000394 
0.4636158549442767 1:-1.72 2:0.94 3:0.05815 4:0.08299 5:-1.38564 6:0.1875 7:0 8:0 9:-1.948869 10:0.016874 11:0.000408 
1 1:-1.98 2:0.93 3:0.06071 4:-0.00513 5:0.41506 6:0.055556 7:0.055556 8:0.066667 9:-2.912017 10:0.007394 11:0.000388 
0.2222281726578561 1:-6.15 2:1.06 3:0.19963 4:0.10607 5:0 6:0.071429 7:0.142857 8:0.464286 9:2.893076 10:0.054235 11:0.000171 
0.06003613508751196 1:-6.18 2:1.04 3:0.2864 4:0.10607 5:-1.10232 6:0.071429 7:0.285714 8:0.625 9:6.916062 10:0.104716 11:0.000181 
0.5245765713426447 1:-6.11 2:1.04 3:0.22501 4:0.10607 5:0 6:0.071429 7:0.142857 8:0.5 9:-1.118775 10:0.001223 11:0.000138 
1 1:1.03 2:0.93 3:0.31897 4:0 5:0 6:-0 7:-0 8:-0 9:6.607225 10:0.139804 11:0.000481 
0.2449234991206991 1:-6.09 2:1.02 3:0.18999 4:0 5:-1.10232 6:0.071429 7:0.142857 8:0.375 9:5.687259 10:0.088596 11:0.00018 
1 1:0.86 2:1.1 3:0.28223 4:0 5:-0.17665 6:0.416667 7:0.416667 8:0.25 9:1.414836 10:0.079804 11:0.000596 
0.6018966395135779 1:1.09 2:0.84 3:0.32203 4:0 5:-2.74488 6:-0 7:-0 8:-0 9:2.144269 10:0.078435 11:0.000501 
1 1:1.1 2:1.09 3:0.33541 4:0 5:-0.17665 6:0.5 7:0.625 8:0.375 9:0.214947 10:0.070699 11:0.000508 
1 1:-0.2 2:1 3:0.05962 4:0 5:0 6:0 7:0 8:0.0625 9:-2.204939 10:0.010153 11:0.000282 
1 1:-0.55 2:1.01 3:0.07505 4:0.0059 5:0 6:0 7:0 8:0.0625 9:-1.347522 10:0.016118 11:0.000293 
1 1:-0.36 2:1 3:0.0926 4:0.0059 5:0 6:0 7:0 8:0.0625 9:-1.695236 10:0.016231 11:0.000282 
1 1:-0.83 2:1 3:0.08488 4:0.0059 5:0 6:0 7:0 8:0 9:-1.575361 10:0.013401 11:0.000293 
1 1:-0.46 2:0.99 3:0.15571 4:0 5:0.10642 6:0.0625 7:0.1875 8:0.166667 9:-2.21401 10:0.024037 11:0.000346 
1 1:-0.67 2:1 3:0.19989 4:0 5:0.10642 6:0.0625 7:0.3125 8:0.277778 9:-2.110201 10:0.015262 11:0.000378 
1 1:-0.59 2:1.05 3:0.11924 4:0 5:0.10642 6:0 7:0.285714 8:0.111111 9:0.11771 10:0.060065 11:0.000414 
1 1:-0.8 2:0.98 3:0.18658 4:0 5:0.15962 6:0.0625 7:0.1875 8:0.277778 9:-2.267585 10:0.020411 11:0.000342 
1 1:0.99 2:1 3:0.24968 4:0 5:-0.08711 6:0.2 7:0.3 8:0.5 9:-3.004767 10:0.00711 11:0.000373 
1 1:0.46 2:0.98 3:0.14569 4:0 5:-0.95951 6:0.125 7:0 8:0.25 9:-2.022704 10:0.021059 11:0.000398 
1 1:0.82 2:1.02 3:0.26383 4:0 5:-0.31025 6:0.1 7:0.6 8:0.5 9:-1.883595 10:0.020748 11:0.00037 
1 1:0.86 2:1.08 3:0.24148 4:0 5:-0.22314 6:0.3 7:0.5 8:0.5 9:-0.563955 10:0.037592 11:0.000369 
1 1:-0.41 2:1.02 3:0.19732 4:0 5:-0.00919 6:0.5 7:0.166667 8:0.3125 9:-0.354725 10:0.045168 11:0.00039 
1 1:-0.02 2:0.92 3:0.19242 4:0 5:-1.75093 6:0.2 7:0.3 8:0 9:-2.31421 10:0.000688 11:0.000349 
1 1:-0.35 2:1.02 3:0.10988 4:0 5:0 6:0.125 7:0 8:0.181818 9:-0.675475 10:0.032628 11:0.000487 
1 1:1.23 2:0.97 3:0.05055 4:0.00408 5:0 6:0.1 7:0 8:0 9:-1.630712 10:0.045055 11:0.000534 
1 1:-0.05 2:0.78 3:0.48743 4:0 5:-1.44769 6:1 7:1 8:0.357143 9:-4.06529 10:0.004557 11:0.000394 
0.06495049078058956 1:-0.8 2:1.13 3:0.6048 4:0.00193 5:-0.02319 6:0.785714 7:1.214286 8:1.208333 9:7.341123 10:0.143986 11:0.000439 
1 1:-0.61 2:0.98 3:0.31929 4:0.03728 5:0.05237 6:0.583333 7:0.25 8:0.5 9:-4.963022 10:0.013278 11:0.000328 
1 1:-0.01 2:0.92 3:0.42199 4:0.02087 5:-0.18404 6:0.416667 7:0.333333 8:0.6875 9:-2.897783 10:0.00498 11:0.000361 
1 1:0.33 2:0.83 3:0.39174 4:0.02593 5:0.00377 6:0.375 7:0.125 8:0.666667 9:-2.605647 10:0.022791 11:0.000397 
1 1:-0.44 2:0.89 3:0.32957 4:0.0234 5:0.05237 6:0.666667 7:0.333333 8:0.214286 9:-3.723738 10:0.00199 11:0.000426 
1 1:0.28 2:0.84 3:0.31389 4:0.06173 5:0.04057 6:0.428571 7:0.428571 8:0.285714 9:-3.325337 10:0.014789 11:0.000346 
1 1:-0.31 2:1.03 3:0.17744 4:0.00659 5:0.00562 6:0.166667 7:0.166667 8:0.333333 9:-1.176504 10:0.040204 11:0.000365 
1 1:-0.28 2:1.04 3:0.12848 4:0.00989 5:0.00842 6:0 7:0.166667 8:0.333333 9:0.995047 10:0.061386 11:0.000425 
1 1:-0.03 2:1.03 3:0.09083 4:0.00989 5:0.05746 6:0 7:0.166667 8:0.333333 9:-2.098138 10:0.017099 11:0.000314 
1 1:-0.04 2:0.96 3:0.0743 4:0.00659 5:0.00563 6:0 7:0.166667 8:0 9:-2.418459 10:0.025638 11:0.000365 
1 1:-0.3 2:1.01 3:0.15476 4:0.0033 5:0.0028 6:0 7:0.166667 8:0.333333 9:-2.389122 10:0.01547 11:0.00031 
1 1:-0.28 2:1.03 3:0.15062 4:0.00989 5:0.00842 6:0.166667 7:0.166667 8:0.4 9:-0.754446 10:0.034976 11:0.00031 
0.01799380650589252 1:-1.97 2:1.06 3:0.36975 4:0.02037 5:0.16255 6:-0 7:-0 8:-0 9:13.690358 10:0.189555 11:0.000341 
1 1:-0.18 2:1.03 3:0.18571 4:0.0033 5:0.05186 6:0 7:0.5 8:0.3 9:-1.191341 10:0.041756 11:0.000348 
1 1:-0.35 2:1.03 3:0.19756 4:0.00659 5:0.00562 6:0.166667 7:0.333333 8:0.3 9:-0.568735 10:0.047332 11:0.000365 
1 1:-1.34 2:0.88 3:0.36188 4:0 5:0 6:0.5625 7:0.6875 8:0.333333 9:-3.385 10:0.008211 11:0.00028 
1 1:-1.98 2:0.89 3:0.30396 4:0 5:0 6:0.444444 7:0.444444 8:0.3125 9:-3.62077 10:0.018234 11:0.000239 
1 1:-1.63 2:0.95 3:0.0743 4:0.03096 5:0.39255 6:0.125 7:0 8:0.045455 9:-3.785614 10:0.009542 11:0.000377 
1 1:-1.37 2:0.98 3:0.06859 4:0.02009 5:0.00548 6:0.111111 7:0 8:0.045455 9:-0.684284 10:0.039545 11:0.000379 
1 1:-1.58 2:0.93 3:0.05629 4:0.06508 5:-1.42043 6:0.055556 7:0 8:0 9:-1.632506 10:0.031131 11:0.0004 
0.1220304811295215 1:-6.12 2:1.03 3:0.29342 4:0.07955 5:-1.24011 6:0.071429 7:0.285714 8:0.666667 9:10.471549 10:0.152264 11:0.000396 
0.1214048318581171 1:-6.11 2:1.04 3:0.21944 4:0.07955 5:0 6:0.071429 7:0.142857 8:0.5 9:10.307993 10:0.156411 11:0.000169 
0.3995973823374293 1:-1.56 2:1.21 3:0.33613 4:0.01833 5:0 6:-0 7:-0 8:-0 9:17.369095 10:0.252504 11:0.000442 
0.3852797169838399 1:-6.14 2:1.05 3:0.2735 4:0.07955 5:-1.24011 6:0.071429 7:0.285714 8:0.666667 9:14.557556 10:0.211624 11:0.00023 
1 1:-0.49 2:1.01 3:0.09077 4:0.00442 5:0 6:0 7:0 8:0.0625 9:-1.941531 10:0.007595 11:0.000286 
1 1:-0.63 2:1.01 3:0.1947 4:0 5:0.11972 6:0.0625 7:0.3125 8:0.277778 9:-3.755681 10:0.003618 11:0.000335 
1 1:0.5 2:1.08 3:0.23932 4:0 5:0 6:-0 7:-0 8:-0 9:1.56451 10:0.057382 11:0.000426 
1 1:1.07 2:0.81 3:0.61823 4:0 5:-0.42609 6:1.166667 7:0.666667 8:0.857143 9:-6.472017 10:0.040458 11:0.000443 
0.2259558368401874 1:-0.86 2:0.87 3:0.58423 4:0 5:-0.85383 6:1.125 7:0.875 8:0.75 9:-6.318241 10:0.034935 11:0.000355 
1 1:-0.2 2:0.82 3:0.53373 4:0 5:-1.32645 6:0.833333 7:0.333333 8:0.785714 9:-7.869535 10:0.057287 11:0.000419 
1 1:-0.13 2:0.85 3:0.54338 4:0.01738 5:-0.38686 6:1.2 7:0.9 8:1.1 9:-9.28896 10:0.065384 11:0.000307 
1 1:-0.56 2:1 3:0.18852 4:0 5:0 6:-0 7:-0 8:-0 9:-1.285531 10:0.028023 11:0.000364 
1 1:-1.08 2:0.96 3:0.19672 4:0.0621 5:0 6:-0 7:-0 8:-0 9:0.850004 10:0.058331 11:0.00039 
0.3916827081744034 1:-1.18 2:1.22 3:0.70501 4:0.0042 5:-4.53709 6:1 7:1.083333 8:1.55 9:11.708998 10:0.183744 11:0.000347 
1 1:-1.09 2:0.91 3:0.51044 4:0.00136 5:-0.03513 6:0.857143 7:0.714286 8:1.125 9:-7.701787 10:0.060292 11:0.000294 
1 1:0.41 2:0.84 3:0.47324 4:0.01607 5:-0.03568 6:0.857143 7:0.571429 8:1.071429 9:-9.975436 10:0.071893 11:0.000258 
1 1:-0.08 2:0.85 3:0.41712 4:0.00947 5:-0.81029 6:0.928571 7:0.571429 8:0.625 9:-7.897718 10:0.050967 11:0.000336 
1 1:-0.29 2:0.9 3:0.52271 4:0.00458 5:0 6:0.857143 7:0.928571 8:1.181818 9:-5.496056 10:0.016073 11:0.000395 
1 1:-0.26 2:0.96 3:0.42693 4:0.02484 5:0 6:0.857143 7:0.928571 8:0.818182 9:-7.089265 10:0.049816 11:0.000333 
1 1:-0.35 2:0.97 3:0.13223 4:0 5:0 6:-0 7:-0 8:-0 9:-1.524635 10:0.027186 11:0.000333 
1 1:0.32 2:0.89 3:0.43905 4:0 5:-0.10599 6:0.5 7:0.666667 8:0.25 9:-4.256638 10:0.00094 11:0.000451 
1 1:-1.66 2:0.94 3:0.07573 4:0.05433 5:-1.00791 6:0.111111 7:0 8:0.045455 9:-2.415498 10:0.015743 11:0.000387 
0.02521774693501326 1:-6.12 2:1.04 3:0.28581 4:0.06364 5:-1.32279 6:0.071429 7:0.285714 8:0.666667 9:7.976508 10:0.122801 11:0.000181 
1 1:1.03 2:1 3:0.32231 4:0 5:0 6:-0 7:-0 8:-0 9:2.198768 10:0.078329 11:0.000422 
0.198206485404526 1:-0.58 2:1.03 3:0.04918 4:0 5:0 6:-0 7:-0 8:-0 9:2.605704 10:0.089811 11:0.000397 
1 1:0.37 2:0.71 3:0.65742 4:0.00647 5:-0.52956 6:1.285714 7:1 8:1.166667 9:-14.777178 10:0.138209 11:0.000425 
1 1:0.02 2:0.79 3:0.6051 4:0 5:-0.34754 6:1.333333 7:0.75 8:1.214286 9:-7.824899 10:0.046728 11:0.000425 
1 1:-0.21 2:0.75 3:0.64484 4:0.00443 5:-0.86939 6:1.071429 7:1 8:1.25 9:-9.677768 10:0.066489 11:0.000365 
0.3930440537334417 1:-1.17 2:1.07 3:0.60984 4:0.01066 5:-4.69035 6:0.875 7:1.6875 8:1.375 9:7.246326 10:0.1431 11:0.000443 
0.1058893584750211 1:-0.73 2:1.16 3:0.64939 4:-0.03649 5:-1.11268 6:0.571429 7:1.5 8:1.944444 9:9.935626 10:0.170365 11:0.000455 
1 1:-0.21 2:0.9 3:0.49796 4:0.00297 5:-0.03874 6:0.75 7:0.916667 8:0.785714 9:-6.627349 10:0.020968 11:0.000357 
1 1:-0.48 2:0.84 3:0.53038 4:0.0187 5:-0.0194 6:0.5 7:0.666667 8:0.857143 9:-8.03582 10:0.047515 11:0.000344 
1 1:-0.39 2:0.73 3:0.41325 4:0.03175 5:-0.36054 6:0 7:0.4 8:0.875 9:-7.17937 10:0.048301 11:0.000345 
1 1:-0.67 2:0.94 3:0.42614 4:0.03799 5:0.03305 6:0.642857 7:0.928571 8:0.8 9:-6.519087 10:0.034788 11:0.000331 
1 1:-0 2:0.85 3:0.48831 4:0.01304 5:-0.90926 6:0.5 7:0.6 8:1.125 9:-8.859096 10:0.065046 11:0.000301 
1 1:-0.15 2:1.06 3:0.32231 4:0 5:0 6:-0 7:-0 8:-0 9:2.501075 10:0.068112 11:0.000397 
0.7495564472130534 1:-0.52 2:0.83 3:0.46669 4:0.01122 5:-0.70597 6:0.5 7:0.5 8:1 9:-3.899837 10:0.001339 11:0.000399 
0.7273304183499475 1:-0.06 2:0.97 3:0.43767 4:0.01672 5:-0.05979 6:1 7:0.875 8:0.6875 9:-4.025207 10:0.014719 11:0.000304 
1 1:-0.66 2:0.94 3:0.32515 4:0.03799 5:0.02974 6:0.625 7:0.375 8:0.357143 9:-4.947576 10:0.020174 11:0.000359 
1 1:-0.15 2:0.95 3:0.42967 4:0.03799 5:0.02974 6:0.928571 7:0.714286 8:0.625 9:-5.144569 10:0.022821 11:0.000409 
1 1:-0.49 2:0.83 3:0.41209 4:0.03107 5:-1.42032 6:0.4375 7:0.6875 8:0.9375 9:-7.085933 10:0.037274 11:0.000348 
1 1:-0.26 2:0.94 3:0.44513 4:0.03523 5:0.00252 6:0.8125 7:0.9375 8:0.8 9:-9.549006 10:0.085725 11:0.00023 
0.8812668692860399 1:-1.02 2:0.98 3:0.2314 4:0.01558 5:-1.06918 6:-0 7:-0 8:-0 9:2.169685 10:0.069126 11:0.000331 
1 1:0.28 2:1.05 3:0.10924 4:0 5:0.2649 6:-0 7:-0 8:-0 9:-0.796608 10:0.035869 11:0.000402 
1 1:-0.07 2:1.01 3:0.17018 4:0.00659 5:0.03077 6:0 7:0.5 8:0.4 9:-2.087858 10:0.029515 11:0.000365 
0.2082157648581931 1:-0.18 2:1.03 3:0.16784 4:0.0044 5:0.03643 6:0 7:0.333333 8:0.444444 9:-1.391047 10:0.022489 11:0.000337 
1 1:-0.11 2:1.01 3:0.16769 4:0.00659 5:0.03831 6:0.166667 7:0.333333 8:0.4 9:-2.13001 10:0.018752 11:0.000308 
1 1:-0.21 2:1.03 3:0.20684 4:0.0044 5:0.03644 6:0.166667 7:0.333333 8:0.555556 9:-2.30104 10:0.016503 11:0.00031 
1 1:-1.18 2:0.87 3:0.37212 4:0 5:0 6:0.642857 7:0.714286 8:0.75 9:-5.011249 10:0.025619 11:0.000263 
1 1:-0.12 2:1.01 3:0.05882 4:0 5:0 6:-0 7:-0 8:-0 9:-2.804404 10:0.0061 11:0.000355 
1 1:-0.09 2:0.97 3:0.26087 4:0 5:0 6:-0 7:-0 8:-0 9:2.30286 10:0.082283 11:0.000423 
1 1:-0.83 2:0.98 3:0.08403 4:0 5:0 6:-0 7:-0 8:-0 9:0.382449 10:0.047645 11:0.000397 
1 1:0.02 2:0.99 3:0.025 4:-0.01974 5:-0.00385 6:-0 7:-0 8:-0 9:1.040897 10:0.06905 11:0.000465 
0.0375984741785321 1:-0.46 2:1.02 3:0.13223 4:0.01319 5:0.01123 6:-0 7:-0 8:-0 9:6.09342 10:0.134213 11:0.000439 
0.2208029091792377 1:-2.2 2:0.86 3:0.2459 4:0.03683 5:-0.00759 6:-0 7:-0 8:-0 9:7.50629 10:0.122511 11:0.000359 
1 1:-1.99 2:0.99 3:0.06557 4:0.03683 5:-0.01511 6:-0 7:-0 8:-0 9:2.108399 10:0.052832 11:0.00029 
1 1:-0.73 2:1.04 3:0.05882 4:0.04577 5:0.0179 6:-0 7:-0 8:-0 9:0.893848 10:0.067173 11:0.000405 
1 1:-1.38 2:0.98 3:0.04202 4:0 5:0.14223 6:-0 7:-0 8:-0 9:0.802454 10:0.056927 11:0.000334 
1 1:-1.86 2:0.98 3:0.04918 4:-0.02392 5:0.52861 6:-0 7:-0 8:-0 9:-2.081696 10:0.011635 11:0.000343 
1 1:-1.28 2:1.01 3:0.04959 4:0.04019 5:0.37004 6:-0 7:-0 8:-0 9:-2.564252 10:0.008416 11:0.000331 
1 1:-1.56 2:0.99 3:0.04959 4:-0.05886 5:0.41506 6:-0 7:-0 8:-0 9:-2.918557 10:0.001918 11:0.000327 
1 1:0.07 2:0.9 3:0.21739 4:0 5:0 6:-0 7:-0 8:-0 9:0.534197 10:0.056177 11:0.000424 
1 1:-0.89 2:0.99 3:0.04132 4:0.04019 5:0.37004 6:-0 7:-0 8:-0 9:-2.739644 10:0.012662 11:0.000384 
1 1:-2.38 2:0.92 3:0.05785 4:0.02173 5:0.41506 6:-0 7:-0 8:-0 9:-2.624044 10:0.003134 11:0.000366 
0.1456047746014525 1:-6.06 2:1.01 3:0.12174 4:0 5:0 6:-0 7:-0 8:-0 9:9.673991 10:0.147759 11:0.000201 
0.3593747893400134 1:-6.08 2:1.05 3:0.18966 4:0 5:-1.00046 6:-0 7:-0 8:-0 9:19.287424 10:0.265193 11:0.000283 
0.4680446919459764 1:-6.16 2:1.06 3:0.2087 4:0.1591 5:0 6:-0 7:-0 8:-0 9:23.399366 10:0.318728 11:0.000331 
0.3174588318694664 1:0.54 2:1.01 3:0.36752 4:0 5:-0.02171 6:-0 7:-0 8:-0 9:12.809773 10:0.212114 11:0.000505 
0.005306058786014018 1:0.66 2:1.15 3:0.26364 4:0 5:-0.25828 6:-0 7:-0 8:-0 9:5.731894 10:0.136472 11:0.000453 
1 1:0.17 2:1 3:0.12844 4:0 5:0.00141 6:-0 7:-0 8:-0 9:-1.354951 10:0.040291 11:0.000523 
0.5848456577434773 1:-0.68 2:0.78 3:0.43996 4:0 5:-4.8745 6:0.5 7:0.625 8:0.5 9:-7.254622 10:0.0573 11:0.000346 
1 1:0.67 2:1.01 3:0.20976 4:0 5:0 6:0.1 7:0.3 8:0.25 9:-2.734954 10:0.017801 11:0.000342 
1 1:-0.17 2:0.84 3:0.26712 4:0 5:0 6:0.6 7:0.5 8:0.35 9:-5.424062 10:0.023714 11:0.000408 
1 1:0.39 2:0.86 3:0.47866 4:0.00506 5:-0.70751 6:0.666667 7:0.666667 8:0.428571 9:-2.734972 10:0.016462 11:0.000525 
1 1:1.16 2:1 3:0.47586 4:0.01378 5:0.00402 6:0.9 7:0.4 8:0.642857 9:-6.559666 10:0.049813 11:0.000335 
0.3214490452894437 1:-0.09 2:0.84 3:0.35043 4:0 5:0 6:-0 7:-0 8:-0 9:4.790329 10:0.109733 11:0.00044 
1 1:-0.27 2:0.98 3:0.25256 4:0.01073 5:0.03231 6:0.666667 7:0.166667 8:0.583333 9:-2.89357 10:0.011152 11:0.000344 
1 1:0.76 2:1.02 3:0.28857 4:0 5:0 6:0.583333 7:0.416667 8:0.333333 9:-4.788677 10:0.012485 11:0.000395 
-1 1:-2.2 2:1.01 3:0.00917 4:0 5:0 6:-0 7:-0 8:-0 9:-1.220988 10:0.011286 11:0.000312 
-1 1:-0.64 2:0.64 3:0.45587 4:-0.01126 5:-0.63267 6:0.571429 7:0.214286 8:0.555556 9:-9.091066 10:0.06774 11:0.000373 
-1 1:-0.95 2:0.69 3:0.28696 4:0.03147 5:-0.14544 6:-0 7:-0 8:-0 9:4.395959 10:0.104924 11:0.000564 
-1 1:-1.17 2:0.63 3:0.40777 4:0.0045 5:0.0705 6:0.285714 7:0.571429 8:0.5 9:-5.916908 10:0.020896 11:0.000531 
-1 1:-1.17 2:0.63 3:0.40777 4:0.0045 5:0.0705 6:0.285714 7:0.571429 8:0.5 9:-5.916908 10:0.020896 11:0.000531 
-0.8964477833979255 1:-0.04 2:0.2 3:0.51094 4:-0.01249 5:-0.54249 6:0.666667 7:0.666667 8:0.6 9:-7.546816 10:0.041292 11:0.000498 
-1 1:-0.68 2:0.68 3:0.33929 4:0 5:0 6:-0 7:-0 8:-0 9:-0.141248 10:0.04781 11:0.000498 
-0.792875324955523 1:0.13 2:0.69 3:0.34838 4:-0.01804 5:-0.98117 6:0.357143 7:0.214286 8:0.291667 9:-8.12201 10:0.037549 11:0.000478 
-0.761285856748622 1:0.21 2:0.43 3:0.46388 4:0 5:0 6:0.625 7:0.625 8:0.5 9:-4.438733 10:0.014305 11:0.000407 
-0.7615149244915964 1:0.21 2:0.43 3:0.46388 4:0 5:0 6:0.625 7:0.625 8:0.5 9:-4.438733 10:0.014305 11:0.000407 
-1 1:-0.66 2:0.95 3:0.05639 4:0 5:0 6:0 7:0.083333 8:0.0625 9:-3.787827 10:0.001484 11:0.000361 
-1 1:0.05 2:0.93 3:0.10803 4:0 5:-0.12674 6:0.166667 7:0 8:0.142857 9:-3.301851 10:0.011221 11:0.000506 
-1 1:-0.12 2:0.73 3:0.07379 4:0 5:0 6:0.125 7:0.125 8:0 9:-1.767378 10:0.021609 11:0.000576 
-1 1:-1.53 2:0.76 3:0.2151 4:0.05371 5:-0.06512 6:0.166667 7:0.222222 8:0.090909 9:-3.626839 10:0.006357 11:0.000357 
-1 1:1.11 2:0.37 3:0.37769 4:0 5:-0.05334 6:0.5 7:0.25 8:0.7 9:-2.633652 10:0.048318 11:0.000693 
-1 1:0.23 2:0.76 3:0.25439 4:0 5:0 6:-0 7:-0 8:-0 9:1.470716 10:0.075516 11:0.000568 
-1 1:-2.4 2:0.92 3:0.05055 4:0 5:0 6:0 7:0 8:0.166667 9:-1.781659 10:0.019603 11:0.000486 
-1 1:0.49 2:0.93 3:0.07346 4:0 5:0 6:0.375 7:0 8:0 9:-2.480563 10:0.004134 11:0.000515 
-1 1:-2.31 2:0.93 3:0.04964 4:0 5:0 6:0 7:0.071429 8:0 9:-2.148391 10:0.00739 11:0.000408 
-1 1:0.16 2:1.01 3:0.01749 4:-0.01575 5:0 6:0.125 7:0 8:0 9:-0.730745 10:0.031921 11:0.000653 
-1 1:0.36 2:0.97 3:0.02417 4:0 5:0 6:0.083333 7:0 8:0 9:-1.980011 10:0.038082 11:0.000585 
-1 1:0.04 2:0.89 3:0.05791 4:0 5:0 6:0 7:0.1 8:0 9:-2.221542 10:0.012796 11:0.000539 
-1 1:-1.41 2:0.95 3:0.05844 4:0 5:0.30906 6:0.125 7:0 8:0.107143 9:-2.947885 10:0.009461 11:0.000384 
-1 1:-0.75 2:0.94 3:0.05639 4:-0.03578 5:0 6:0 7:0.055556 8:0.083333 9:-3.059091 10:0.009139 11:0.000418 
-1 1:0.58 2:0.97 3:0.05739 4:0 5:0 6:0.05 7:0.1 8:0 9:-1.883814 10:0.030761 11:0.000619 
-1 1:-0.99 2:0.97 3:0.03924 4:0 5:0 6:0.2 7:0 8:0.041667 9:-3.021578 10:0.012581 11:0.000422 
-1 1:0.39 2:0.89 3:0.07871 4:0 5:0 6:0 7:0 8:0 9:-2.031972 10:0.037276 11:0.000546 
-1 1:-0.42 2:0.97 3:0.04291 4:0 5:0 6:0.0625 7:0 8:0 9:-1.756725 10:0.0223 11:0.00052 
-1 1:0.79 2:0.98 3:0.03826 4:0 5:0 6:0 7:0.1 8:0.142857 9:-2.052722 10:0.029397 11:0.000544 
-1 1:-0.85 2:0.85 3:0.10853 4:0 5:0 6:0 7:0 8:0 9:-1.817575 10:0.016593 11:0.000493 
-1 1:0.09 2:0.94 3:0.08708 4:0 5:0 6:0 7:0.214286 8:0.0625 9:-2.209785 10:0.021854 11:0.000353 
-0.9354733662240062 1:0.35 2:0.89 3:0.13137 4:0 5:-0.13674 6:0.25 7:0.5 8:0.166667 9:-5.370084 10:0.014614 11:0.000413 
-1 1:-0.37 2:0.73 3:0.24299 4:0.08441 5:0.01008 6:0.083333 7:0.083333 8:0.25 9:-0.507689 10:0.043126 11:0.000603 
-1 1:-1.92 2:0.83 3:0.24587 4:-0.00449 5:-0.0045 6:0.2 7:0.05 8:0.25 9:-4.491094 10:0.014487 11:0.000434 
-1 1:0.46 2:0.74 3:0.24432 4:0 5:-0.16755 6:0.5 7:0.375 8:0.3 9:-0.462815 10:0.057293 11:0.000634 
-1 1:-0.56 2:0.67 3:0.21905 4:0 5:0 6:-0 7:-0 8:-0 9:-0.991203 10:0.060085 11:0.000601 
-1 1:-0.81 2:0.79 3:0.17302 4:0 5:0 6:0.1 7:0 8:0.125 9:-2.506228 10:0.015967 11:0.00046 
-1 1:-1.13 2:0.95 3:0.08183 4:0 5:0 6:0 7:0.125 8:0 9:-1.044783 10:0.020192 11:0.00053 
-1 1:-0.96 2:0.89 3:0.13993 4:0 5:-0.4988 6:0.333333 7:0.166667 8:0.055556 9:-2.860404 10:0.009739 11:0.000529 
-0.9429352423014393 1:-0.33 2:0.52 3:0.42241 4:0 5:0 6:-0 7:-0 8:-0 9:-0.613653 10:0.048972 11:0.000484 
-1 1:-3.17 2:0.91 3:0.05149 4:-0.01173 5:0.47119 6:0.125 7:0 8:0 9:-3.56271 10:0.018847 11:0.000384 
-0.3635840712068335 1:-1.42 2:0.62 3:0.18906 4:0 5:0 6:0.25 7:0 8:0 9:-3.383804 10:0.017133 11:0.000565 
-1 1:-0.78 2:0.74 3:0.24061 4:0.18764 5:-0.60364 6:0.125 7:0.375 8:0 9:-3.229761 10:0.019301 11:0.000722 
-1 1:-0.53 2:0.97 3:0.13119 4:0 5:0 6:0.083333 7:0 8:0.1 9:-2.715585 10:0.014643 11:0.000434 
-1 1:-0.04 2:0.84 3:0.16696 4:-0.0224 5:0.01756 6:0 7:0.2 8:0.2 9:-2.620117 10:0.021916 11:0.000632 
-1 1:-1.43 2:0.93 3:0.07202 4:0 5:0 6:0 7:0.166667 8:0 9:-1.171875 10:0.035065 11:0.000563 
-1 1:0.22 2:0.69 3:0.27679 4:0 5:0 6:-0 7:-0 8:-0 9:-0.471845 10:0.045405 11:0.000463 
-1 1:-0.26 2:0.36 3:0.54568 4:-0.01148 5:-0.50007 6:0.75 7:0.75 8:0.25 9:-6.051574 10:0.020455 11:0.00062 
-1 1:0.21 2:0.41 3:0.56258 4:0.00905 5:0.0217 6:0.5 7:0.75 8:0.4 9:-2.697371 10:0.02511 11:0.001064 
-1 1:0.13 2:0.67 3:0.49851 4:0.00989 5:0.07067 6:0.6 7:0.6 8:0.625 9:-8.338639 10:0.072418 11:0.000356 
-1 1:-0.52 2:1 3:0.18095 4:-0.05098 5:0.0501 6:-0 7:-0 8:-0 9:-2.694204 10:0.007193 11:0.000412 
-0.5734235997148355 1:-1.7 2:0.52 3:0.31494 4:0 5:-0.12757 6:0.4 7:0.5 8:0.318182 9:-5.592278 10:0.01944 11:0.000492 
-0.9056486253200077 1:-0.09 2:0.39 3:0.49353 4:0 5:-1.57112 6:0.214286 7:0.428571 8:0.833333 9:-10.130886 10:0.065054 11:0.000462 
-1 1:-0.5 2:0.64 3:0.35345 4:0 5:-0.08321 6:-0 7:-0 8:-0 9:0.995575 10:0.052157 11:0.000408 
-1 1:0.27 2:0.69 3:0.29204 4:0 5:0 6:-0 7:-0 8:-0 9:0.640891 10:0.06499 11:0.000564 
-1 1:0.08 2:0.62 3:0.51353 4:0.09297 5:-0.02331 6:0.8 7:0.4 8:0.45 9:-4.549397 10:0.003446 11:0.000485 
-1 1:0.08 2:0.62 3:0.51353 4:0.09297 5:-0.02331 6:0.8 7:0.4 8:0.45 9:-4.549397 10:0.003446 11:0.000485 
-1 1:-0.26 2:0.98 3:0.05116 4:0.02866 5:0.19076 6:0.142857 7:0.071429 8:0 9:-2.812012 10:0.010916 11:0.000504 
-0.493057284011445 1:0.51 2:0.74 3:0.23669 4:0 5:0 6:0.5 7:0 8:0 9:-1.525388 10:0.016882 11:0.000619 
-1 1:0.47 2:0.7 3:0.33621 4:0 5:0 6:-0 7:-0 8:-0 9:-0.021016 10:0.049632 11:0.000518 
-1 1:-0.64 2:0.88 3:0.141 4:0 5:0 6:0 7:0 8:0.375 9:-3.77052 10:0.00355 11:0.000365 
-1 1:-0.05 2:0.62 3:0.38607 4:0.08693 5:-0.60033 6:0.541667 7:0.291667 8:0.454545 9:-4.260514 10:0.018821 11:0.000523 
-1 1:-0.52 2:0.65 3:0.34783 4:-0.03104 5:0 6:-0 7:-0 8:-0 9:-0.435669 10:0.041973 11:0.000488 
-1 1:-0.66 2:0.47 3:0.48738 4:0.00159 5:-0.48165 6:0.625 7:0.875 8:0.642857 9:-5.213371 10:0.002058 11:0.000492 
-1 1:-1.3 2:0.94 3:0.10313 4:-0.14068 5:0 6:0.1875 7:0.0625 8:0.15 9:-1.116478 10:0.026249 11:0.000296 
-0.8384455550772666 1:-1.26 2:0.82 3:0.15822 4:0 5:0 6:0.0625 7:0.0625 8:0.4375 9:-7.902514 10:0.057089 11:0.000367 
-1 1:0.3 2:0.93 3:0.0905 4:0 5:0 6:0.1 7:0 8:0.055556 9:-1.790417 10:0.032881 11:0.000514 
-1 1:-1.56 2:0.98 3:0.0838 4:0.01338 5:-0.12325 6:0.1 7:0.15 8:0.1875 9:-3.82144 10:0.018657 11:0.000295 
-1 1:-0.77 2:0.96 3:0.05588 4:0.05838 5:0.38876 6:0 7:0.125 8:0 9:-3.471664 10:0.004019 11:0.000436 
-1 1:0.36 2:0.78 3:0.11991 4:-0.05583 5:-2.94413 6:0.125 7:0 8:0.05 9:-2.887746 10:0.032199 11:0.000505 
-1 1:-1.13 2:0.95 3:0.1045 4:0 5:0 6:0.166667 7:0.333333 8:0.125 9:0.944827 10:0.068672 11:0.000524 
-1 1:0.23 2:0.94 3:0.0588 4:0.02363 5:1.4569 6:0.2 7:0 8:0.045455 9:-2.134412 10:0.031142 11:0.000571 
-1 1:-0.55 2:0.85 3:0.23625 4:0 5:0 6:0.333333 7:0.25 8:0.375 9:-3.786086 10:0.001 11:0.000435 
-1 1:-0.19 2:0.73 3:0.3047 4:0 5:0 6:0.3 7:0.3 8:0.25 9:-3.552264 10:0.012614 11:0.000656 
-1 1:-0.33 2:0.85 3:0.31716 4:-0.00491 5:-0.02383 6:0.1875 7:0.25 8:0.555556 9:-3.264705 10:0.009758 11:0.000536 
-1 1:0.78 2:0.61 3:0.2289 4:-0.02597 5:-3.93846 6:0.833333 7:0.5 8:0.357143 9:-3.494388 10:0.020461 11:0.000868 
-0.5762521401421844 1:2.09 2:0.61 3:0.31034 4:0 5:0 6:-0 7:-0 8:-0 9:0.058149 10:0.075769 11:0.000546 
-1 1:0.31 2:0.19 3:0.62455 4:-0.0098 5:-0.51299 6:0.75 7:0.375 8:0.833333 9:-6.740126 10:0.027502 11:0.000468 
-0.2076023490464703 1:-0.5 2:0.34 3:0.63735 4:0 5:-0.0544 6:0.166667 7:0.833333 8:0.7 9:-17.475538 10:0.153988 11:0.000511 
-1 1:0.27 2:0.51 3:0.55529 4:0.00316 5:0.00372 6:1 7:0.75 8:0.4 9:-8.463675 10:0.049373 11:0.00044 
-1 1:-0.61 2:0.77 3:0.2931 4:-0.04784 5:0 6:-0 7:-0 8:-0 9:-0.381421 10:0.039242 11:0.000523 
-1 1:-0.62 2:0.46 3:0.48362 4:0.00566 5:-0.29913 6:0.5 7:0.5 8:0.366667 9:-3.47876 10:0.001041 11:0.000624 
-0.8297048995927705 1:-0.53 2:0.23 3:0.64555 4:0.00547 5:0 6:0.5 7:0.75 8:1.375 9:-13.6531 10:0.128655 11:0.000524 
-0.9639267227227993 1:0.05 2:0.46 3:0.52989 4:0 5:0 6:0.9375 7:0.4375 8:1 9:-11.815186 10:0.083143 11:0.000474 
-0.411823252516718 1:-0.18 2:0.39 3:0.49933 4:0 5:0.06674 6:0.875 7:0.5 8:0.5 9:-6.997147 10:0.025427 11:0.00054 
-1 1:-0.13 2:0.93 3:0.23529 4:0 5:-1.06363 6:-0 7:-0 8:-0 9:-4.113625 10:0.006743 11:0.000401 
-0.5633630154477811 1:-0.06 2:0.16 3:0.68859 4:0.01381 5:0.16338 6:1.166667 7:1.5 8:0.9375 9:-13.752008 10:0.11176 11:0.000391 
-1 1:0.21 2:0.62 3:0.38613 4:0.03618 5:0 6:0.666667 7:0.583333 8:0.571429 9:-8.073308 10:0.054491 11:0.000501 
-1 1:0.55 2:0.61 3:0.3658 4:0.03091 5:-2.14634 6:1 7:0 8:0.166667 9:-9.726804 10:0.066642 11:0.000443 
-1 1:0.29 2:0.92 3:0.24034 4:0.00785 5:0.31712 6:0.428571 7:0.428571 8:0.363636 9:-7.464666 10:0.053158 11:0.000443 
-1 1:-0.02 2:0.38 3:0.39448 4:0 5:0.00317 6:0.75 7:1.25 8:1.5 9:-6.337131 10:0.009127 11:0.000682 
-1 1:-0.67 2:0.92 3:0.11017 4:0 5:0 6:-0 7:-0 8:-0 9:-1.972628 10:0.029977 11:0.000435 
-1 1:-0.8 2:0.5 3:0.31657 4:0 5:-1.14104 6:0.7 7:0.5 8:0.277778 9:-8.006986 10:0.046939 11:0.000396 
-1 1:0.16 2:0.67 3:0.38577 4:0 5:-0.757 6:1 7:0.625 8:0.666667 9:-2.802928 10:0.020885 11:0.000586 
-1 1:0.05 2:0.95 3:0.12349 4:-0.01165 5:-0.01389 6:0.166667 7:0.166667 8:0 9:-2.706113 10:0.010157 11:0.000421 
-1 1:0.05 2:0.95 3:0.12349 4:-0.01165 5:-0.01389 6:0.166667 7:0.166667 8:0 9:-2.706113 10:0.010157 11:0.000421 
-1 1:-0.17 2:0.77 3:0.34513 4:0 5:-0.0197 6:-0 7:-0 8:-0 9:-0.191571 10:0.02882 11:0.000312 
-0.3686389485283458 1:-0.93 2:0.33 3:0.59878 4:-0.00293 5:0.09899 6:0.583333 7:0.916667 8:0.916667 9:-16.585562 10:0.152812 11:0.000463 
-1 1:-0.84 2:0.17 3:0.58547 4:0 5:0 6:0.75 7:0 8:1.25 9:-6.61187 10:0.026915 11:0.000521 
-1 1:-0.42 2:0.88 3:0.05983 4:0 5:0 6:-0 7:-0 8:-0 9:-0.246623 10:0.056246 11:0.00049 
-0.2430077815046062 1:-0.69 2:0.33 3:0.54105 4:0.01194 5:0.03649 6:0.125 7:0.625 8:0 9:-14.172343 10:0.118581 11:0.00049 
-0.1222233466858556 1:-0.49 2:0.48 3:0.56254 4:0.00671 5:-0.3764 6:0.583333 7:0.5 8:0.833333 9:-12.889095 10:0.1032 11:0.00038 
-1 1:-0.6 2:0.54 3:0.24138 4:-0.05126 5:0.01244 6:-0 7:-0 8:-0 9:0.638263 10:0.064142 11:0.000647 
-1 1:-0.6 2:0.54 3:0.24138 4:-0.05126 5:0.01244 6:-0 7:-0 8:-0 9:0.638263 10:0.064142 11:0.000647 
-1 1:-0.6 2:0.54 3:0.24138 4:-0.05126 5:0.01244 6:-0 7:-0 8:-0 9:0.638263 10:0.064142 11:0.000647 
-1 1:1.39 2:0.24 3:0.6127 4:-0.0005 5:0.00168 6:0.5 7:1.5 8:1 9:-7.68925 10:0.030193 11:0.000809 
-0.7097730324909264 1:-0.48 2:0.5 3:0.48505 4:0.00876 5:-0.0678 6:0.4 7:1.1 8:0.285714 9:-10.639648 10:0.064557 11:0.000416 
-1 1:-0.37 2:0.31 3:0.58651 4:0.00254 5:0 6:1 7:0.4 8:1.125 9:-10.186105 10:0.067956 11:0.00051 
-1 1:0.45 2:0.38 3:0.44901 4:-0.0125 5:-0.02183 6:0.7 7:0.5 8:1 9:-9.153067 10:0.05603 11:0.000574 
-1 1:-1.42 2:0.65 3:0.36156 4:-0.00321 5:0 6:0.666667 7:0.333333 8:0.25 9:-3.902271 10:0.011275 11:0.000466 
-1 1:-2.22 2:0.87 3:0.21622 4:0.00473 5:0.05806 6:-0 7:-0 8:-0 9:1.263921 10:0.053244 11:0.000323 
-1 1:-0.16 2:0.55 3:0.4451 4:0 5:0 6:0.5 7:0.5 8:0.6 9:-4.175269 10:0.018603 11:0.00053 
-1 1:-0.16 2:0.55 3:0.4451 4:0 5:0 6:0.5 7:0.5 8:0.6 9:-4.175269 10:0.018603 11:0.00053 
-0.963611351941391 1:0.78 2:0.43 3:0.55463 4:-0.01045 5:-0.09559 6:0.625 7:0.125 8:0.75 9:-17.750229 10:0.181558 11:0.000449 
-1 1:0.5 2:0.94 3:0.07921 4:-0.02306 5:-0.09372 6:-0 7:-0 8:-0 9:-0.14555 10:0.05539 11:0.000656 
-1 1:-1.07 2:0.88 3:0.17117 4:0.02583 5:0.26177 6:0 7:0.1 8:0 9:-2.958087 10:0.016811 11:0.000356 
-0.09917618733504358 1:0.95 2:0.83 3:0.19867 4:0 5:-0.27236 6:0.1875 7:0.4375 8:0.3 9:-6.858825 10:0.026237 11:0.000487 
-1 1:0.67 2:0.7 3:0.14964 4:0 5:0 6:0.055556 7:0.277778 8:1 9:-5.890966 10:0.015487 11:0.000491 
-0.7763807626050139 1:1.47 2:0.57 3:0.47665 4:0 5:0 6:0.3 7:0.3 8:0 9:-14.040723 10:0.137687 11:0.000543 
-1 1:0.2 2:1.02 3:0.03604 4:0 5:0 6:-0 7:-0 8:-0 9:-1.120569 10:0.045071 11:0.000555 
-1 1:0.55 2:0.82 3:0.24779 4:0 5:-0.2196 6:-0 7:-0 8:-0 9:2.263994 10:0.078496 11:0.000641 
-1 1:0.18 2:0.91 3:0.02752 4:0 5:0.02215 6:-0 7:-0 8:-0 9:-2.286082 10:0.031555 11:0.000485 
-1 1:-1.16 2:0.72 3:0.14159 4:0 5:-0.03726 6:-0 7:-0 8:-0 9:1.119059 10:0.072666 11:0.000493 
-1 1:1.25 2:0.98 3:0.08571 4:0 5:0 6:-0 7:-0 8:-0 9:-1.288237 10:0.031153 11:0.000539 
-1 1:1.26 2:0.96 3:0.20833 4:0 5:0 6:-0 7:-0 8:-0 9:5.438404 10:0.121882 11:0.000687 
-1 1:-1.37 2:1 3:0.02857 4:0 5:0 6:-0 7:-0 8:-0 9:-1.107498 10:0.015404 11:0.00029 
-1 1:0.12 2:1 3:0.00901 4:0 5:0 6:-0 7:-0 8:-0 9:-1.051401 10:0.027662 11:0.000597 
-1 1:-0.23 2:0.8 3:0.08772 4:0 5:0 6:-0 7:-0 8:-0 9:-0.809797 10:0.045074 11:0.000494 
-1 1:-0.63 2:0.9 3:0.0431 4:0 5:0 6:-0 7:-0 8:-0 9:-2.608945 10:0.019204 11:0.00053 
-1 1:-0.33 2:0.94 3:0.05882 4:0 5:0 6:-0 7:-0 8:-0 9:-1.656268 10:0.023658 11:0.000352 
-1 1:-2.11 2:0.99 3:0.01709 4:0 5:0 6:-0 7:-0 8:-0 9:-2.53411 10:0.001712 11:0.000274 
-1 1:-1.15 2:1.03 3:0.01835 4:0 5:0 6:-0 7:-0 8:-0 9:0.190371 10:0.048713 11:0.000431 
-1 1:-0.62 2:0.9 3:0.14423 4:0 5:-0.63888 6:-0 7:-0 8:-0 9:-0.058038 10:0.051653 11:0.000466 
-1 1:0.25 2:1 3:0.0991 4:0.01663 5:-0.11373 6:-0 7:-0 8:-0 9:-1.901766 10:0.024191 11:0.000472 
-1 1:-0.25 2:0.84 3:0.2087 4:-0.06869 5:0.02951 6:-0 7:-0 8:-0 9:-0.08597 10:0.040879 11:0.000487 
-1 1:-1 2:0.66 3:0.18182 4:0 5:0.26878 6:-0 7:-0 8:-0 9:0.96057 10:0.067527 11:0.000556 
-1 1:0.61 2:0.78 3:0.20561 4:-0.00509 5:-0.1022 6:-0 7:-0 8:-0 9:2.182053 10:0.088122 11:0.000599 
-1 1:-1.16 2:0.45 3:0.2451 4:0 5:0 6:-0 7:-0 8:-0 9:-2.013102 10:0.035234 11:0.0006 
-1 1:-0.77 2:0.47 3:0.35 4:0 5:-0.21855 6:-0 7:-0 8:-0 9:1.378686 10:0.073268 11:0.000688 
-1 1:-2.06 2:0.61 3:0.23777 4:0 5:-0.34025 6:0.25 7:0.166667 8:0.333333 9:-9.391012 10:0.086771 11:0.000368 
-1 1:-0.6 2:0.32 3:0.50782 4:0 5:-0.17051 6:0.416667 7:0.333333 8:0.35 9:-1.448462 10:0.039229 11:0.000573 
-1 1:-0.36 2:0.82 3:0.32071 4:0 5:0 6:0 7:0.375 8:0.125 9:-2.474417 10:0.003443 11:0.000545 
-1 1:-0.36 2:0.82 3:0.32071 4:0 5:0 6:0 7:0.375 8:0.125 9:-2.474417 10:0.003443 11:0.000545 
