svm_type c_svc
kernel_type rbf
gamma 8
nr_class 2
total_sv 1042
rho 0.226088
label 1 -1
nr_sv 484 558
SV
0.3095404559037677 1:0.122334 2:0.875 3:0.314005 4:0.237911 5:0.496717 6:0.576238 7:-0.586297 8:-0.804589 
0.3402745520989036 1:0.0123457 2:0.75 3:0.151487 4:0.192661 5:-0.596101 6:0.44543 7:-0.452716 8:-0.823834 
0.1615730393184032 1:0.0639731 2:0.671875 3:0.16329 4:0.187329 5:-0.0735031 6:0.603621 7:-0.510873 8:-0.801628 
0.4615501596404635 1:0.239057 2:0.46875 3:0.147569 4:0.156136 5:0.483853 6:0.645437 7:-0.400415 8:-0.720207 
0.1509424939125152 1:0.126824 2:0.484375 3:-0.34552 4:0.297873 5:0.0514912 6:0.519032 7:-0.405821 8:-0.76758 
2 1:0.378227 2:0.015625 3:-0.0180589 4:0.192262 5:0.483853 6:0.402007 7:-0.382098 8:-0.752776 
0.6544518055029793 1:0.315376 2:0.375 3:-0.20428 4:0.156136 5:0.0187182 6:0.482235 7:-0.113536 8:-0.696521 
0.5109153009527168 1:0.144781 2:0.34375 3:0.023544 4:0.20227 5:-0.414231 6:0.436752 7:-0.397913 8:-0.763138 
0.1407741829728493 1:0.225589 2:0.234375 3:-0.013431 4:0.156136 5:0.049893 6:0.342092 7:-0.115287 8:-0.678756 
1.770239994994425 1:0.306397 2:0.53125 3:-0.662059 4:0.168682 5:0.483463 6:0.456519 7:-0.246515 8:-0.689119 
2 1:0.434343 2:0.59375 3:-0.773572 4:0.168682 5:0.504899 6:0.355336 7:-0.211431 8:-0.712805 
2 1:0.315376 2:0.5625 3:-0.847913 4:0.181199 5:0.486126 6:0.403112 7:-0.427091 8:-0.766099 
2 1:0.326599 2:0.546875 3:-0.717815 4:0.193744 5:0.482681 6:0.383306 7:-0.113386 8:-0.706884 
2 1:0.189675 2:0.25 3:-0.182463 4:0.156136 5:0.483853 6:0.451246 7:-0.248017 8:-0.751295 
2 1:0.227834 2:0.203125 3:-0.0640939 4:0.156136 5:0.483853 6:0.401205 7:-0.239108 8:-0.736491 
2 1:0.102132 2:0.359375 3:-0.247867 4:0.226135 5:0.480279 6:0.567605 7:-0.342759 8:-0.761658 
2 1:0.274972 2:0.1875 3:-0.160327 4:0.156136 5:0.483853 6:0.370247 7:-0.0634369 8:-0.687639 
2 1:0.326599 2:0.3125 3:-0.135522 4:0.226135 5:0.482312 6:0.359591 7:-0.0508746 8:-0.698001 
0.2720548083538647 1:0.0505051 2:0.359375 3:-0.120634 4:0.226135 5:0.482312 6:0.629525 7:-0.542254 8:-0.834197 
1.473044737298173 1:-0.117845 2:0.359375 3:-0.462223 4:0.226135 5:0.482312 6:0.786622 7:-0.687746 8:-0.866765 
2 1:0.12009 2:0.546875 3:-0.920688 4:0.156136 5:0.527149 6:0.316876 7:-0.49746 8:-0.813472 
1.158746640121615 1:0.0886644 2:0.59375 3:-0.807314 4:0.180771 5:0.528915 6:0.307896 7:-0.537749 8:-0.834197 
2 1:0.0213244 2:0.515625 3:-0.872767 4:0.121436 5:0.436407 6:0.596342 7:-0.15928 8:-0.665433 
0.0257700583943548 1:0.108866 2:0.5625 3:-0.853006 4:0.17658 5:0.601066 6:0.536344 7:-0.185756 8:-0.6906 
0.4706605924646742 1:0.0639731 2:0.53125 3:-0.867698 4:0.221772 5:0.640798 6:0.580311 7:-0.195165 8:-0.678756 
1.529537394110096 1:-0.0145903 2:0.46875 3:-0.834421 4:0.329779 5:0.601066 6:0.608575 7:-0.36428 8:-0.735011 
2 1:0.0460157 2:0.453125 3:-0.885084 4:0.166771 5:0.522333 6:0.53242 7:-0.259528 8:-0.703923 
0.6600840711202434 1:-0.0415264 2:0.453125 3:-0.922989 4:0.292456 5:-0.0950463 6:0.592418 7:-0.233102 8:-0.678756 
2 1:0.122334 2:0.5 3:-0.904575 4:0.221772 5:0.420919 6:0.504156 7:-0.0904132 8:-0.646188 
2 1:-0.0572391 2:0.453125 3:-0.866499 4:0.141509 5:0.610201 6:0.624606 7:-0.328395 8:-0.723168 
0.1494257137471241 1:-0.993266 2:0.65625 3:-0.526329 4:0.458571 5:0.483853 6:0.854836 7:-0.904707 8:-0.973353 
0.0648982565645022 1:-0.993266 2:0.578125 3:-0.400174 4:0.458571 5:0.148294 6:0.864647 7:-1 8:-0.997039 
0.1045716041555974 1:-0.973064 2:0.5625 3:-0.382641 4:0.156136 5:0.148294 6:0.882822 7:-0.987638 8:-0.992598 
0.3124582387083024 1:-1 2:0.625 3:-0.313858 4:0.458571 5:0.148294 6:0.835783 7:-0.911063 8:-0.977794 
0.5138315835018983 1:-0.984287 2:0.625 3:-0.464182 4:0.458571 5:0.483853 6:0.883699 7:-0.993644 8:-0.994078 
0.0198412435775894 1:-0.979798 2:0.59375 3:-0.549934 4:0.156136 5:0.148294 6:0.853959 7:-0.898701 8:-0.973353 
0.7804072977788287 1:-0.970819 2:0.5625 3:-0.702315 4:0.156136 5:0.483853 6:0.897221 7:-0.966117 8:-0.985196 
0.308958730334314 1:0.62514 2:0.6875 3:-0.205039 4:0.156136 5:0.431436 6:0.256129 7:0.283351 8:-0.453738 
0.7185764484450172 1:0.375982 2:0.640625 3:-0.443197 4:0.156136 5:0.484139 6:0.42473 7:0.126999 8:-0.53812 
2 1:0.342312 2:0.5625 3:-0.869168 4:0.156136 5:0.483853 6:0.613749 7:-0.405771 8:-0.718727 
2 1:0.263749 2:0.578125 3:-0.831385 4:0.172958 5:0.483853 6:0.684394 7:-0.474788 8:-0.718727 
1.725412447406488 1:0.306397 2:0.5625 3:-0.78841 4:0.172958 5:0.483853 6:0.615947 7:-0.412878 8:-0.717246 
2 1:0.200898 2:0.5625 3:-0.807314 4:0.172958 5:0.483853 6:0.630672 7:-0.525637 8:-0.810511 
0.5872850348153835 1:0.283951 2:0.546875 3:-0.633875 4:0.156136 5:0.516248 6:0.23327 7:-0.141012 8:-0.69356 
2 1:0.609428 2:0.5625 3:-0.403773 4:0.156136 5:0.457335 6:0.248105 7:0.0620855 8:-0.548483 
2 1:0.49046 2:0.53125 3:-0.658411 4:0.156136 5:0.191767 6:0.336904 7:-0.0952679 8:-0.589933 
1.833204306258132 1:0.382716 2:0.4375 3:-0.543984 4:0.156136 5:-0.0491502 6:0.6406 7:-0.461975 8:-0.718727 
2 1:0.6633 2:0.515625 3:-0.891377 4:0.167769 5:0.483853 6:0.141556 7:0.204074 8:-0.468542 
0.7642381722148451 1:0.375982 2:0.21875 3:0.178398 4:0.156136 5:0.0431594 6:0.559201 7:-0.46703 8:-0.739452 
0.7853558849373866 1:0.62514 2:0.703125 3:0.295616 4:0.185447 5:-0.0359449 6:0.225304 7:-0.00197693 8:-0.563286 
0.3539139733284484 1:0.0886644 2:0.78125 3:0.247646 4:0.250513 5:-0.796891 6:0.605273 7:-0.328645 8:-0.705403 
0.1227890088140512 1:0.158249 2:0.78125 3:-0.0707788 4:0.182083 5:0.483853 6:0.690615 7:-0.423288 8:-0.72909 
0.3263007296549955 1:0.138047 2:0.8125 3:0.129449 4:0.233234 5:-0.381768 6:0.540289 7:-0.480343 8:-0.789785 
0.04686991210249299 1:0.328844 2:0.796875 3:0.231681 4:0.156136 5:0.486586 6:0.621926 7:-0.298316 8:-0.650629 
0.5503533612539097 1:0.18743 2:0.859375 3:0.164906 4:0.170706 5:0.481551 6:0.379925 7:-0.550211 8:-0.834197 
2 1:0.461279 2:0.296875 3:-0.0559154 4:0.23007 5:0.485 6:0.379161 7:-0.0496234 8:-0.643227 
0.4735906956749911 1:0.28844 2:0.390625 3:-0.208149 4:0.222856 5:0.499795 6:0.558373 7:-0.203974 8:-0.718727 
2 1:0.450056 2:0.3125 3:-0.246544 4:0.332145 5:0.496202 6:0.399512 7:-0.00513 8:-0.659511 
0.3243295071979126 1:0.259259 2:0.796875 3:-0.00143247 4:0.156136 5:0.158382 6:0.351591 7:-0.308776 8:-0.780903 
1.100741478450449 1:0.380471 2:0.609375 3:-0.792745 4:0.184335 5:0.501344 6:0.350366 7:-0.290458 8:-0.73205 
2 1:0.378227 2:0.5 3:-0.833221 4:0.174926 5:0.485566 6:0.414243 7:-0.187458 8:-0.709845 
0.152862221393651 1:-0.0123457 2:0.46875 3:-0.824675 4:0.341697 5:0.216369 6:0.608462 7:-0.291559 8:-0.703923 
2 1:0.0796857 2:0.53125 3:-0.847203 4:0.213418 5:0.485521 6:0.554288 7:-0.157679 8:-0.669874 
0.3970790809016265 1:0.0325477 2:0.453125 3:-0.877322 4:0.341697 5:0.0514577 6:0.551345 7:-0.213033 8:-0.680237 
0.2806307229383322 1:-0.986532 2:0.609375 3:-0.296669 4:0.382955 5:0.106349 6:0.867902 7:-0.976877 8:-0.991118 
0.4647024451690542 1:-0.975309 2:0.578125 3:-0.421918 4:0.156136 5:0.106349 6:0.878043 7:-0.956257 8:-0.985196 
0.6013351714007243 1:0.578002 2:0.921875 3:-0.104154 4:0.156136 5:0.444541 6:0.268107 7:0.26103 8:-0.481865 
0.3201309456281524 1:0.627385 2:0.265625 3:0.498684 4:0.156136 5:0.354146 6:0.346361 7:-0.0249493 8:-0.551443 
0.09215883440290357 1:0.427609 2:0.640625 3:0.399953 4:0.180058 5:0.484586 6:0.405129 7:-0.434198 8:-0.718727 
0.5758810954765646 1:0.169473 2:0.3125 3:0.599202 4:0.15146 5:0.327702 6:0.582909 7:-0.455219 8:-0.73205 
0.6180513344605565 1:0.589226 2:0.71875 3:0.468051 4:0.222057 5:0.484586 6:0.295468 7:-0.038963 8:-0.618061 
0.03638277278748112 1:0.196409 2:0.65625 3:0.463447 4:0.162608 5:-0.210586 6:0.603915 7:-0.352319 8:-0.711325 
0.5265500377102713 1:0.274972 2:0.890625 3:0.370741 4:0.2013 5:-0.217426 6:0.450752 7:-0.428142 8:-0.772021 
0.4088888627635766 1:0.18743 2:0.921875 3:0.651775 4:0.183679 5:0.135786 6:0.578094 7:-0.408223 8:-0.754256 
0.6614599670526065 1:0.209877 2:0.796875 3:0.740686 4:0.190522 5:-0.119402 6:0.494777 7:-0.334701 8:-0.714286 
0.5498499081824711 1:0.234568 2:0.90625 3:0.510609 4:0.179117 5:0.510571 6:0.530881 7:-0.272741 8:-0.721688 
0.9895095587029663 1:0.122334 2:0.90625 3:0.711179 4:0.168111 5:-0.897289 6:0.491599 7:-0.502965 8:-0.810511 
0.1761680050412707 1:0.479237 2:0.3125 3:0.143651 4:0.201956 5:0.472991 6:0.458913 7:-0.171642 8:-0.660992 
0.2130525648393242 1:0.459035 2:0.390625 3:0.0599312 4:0.156136 5:0.451588 6:0.421401 7:-0.0523761 8:-0.549963 
0.8066636689491603 1:0.52413 2:0.53125 3:0.017961 4:0.156136 5:0.451761 6:0.307716 7:0.206376 8:-0.512953 
1.660113264466058 1:0.0145903 2:0.46875 3:-0.82972 4:0.311046 5:0.177033 6:0.582013 7:-0.242261 8:-0.69208 
0.7693517592488259 1:0.414141 2:0.671875 3:0.870588 4:0.156136 5:0.375123 6:0.345369 7:-0.161683 8:-0.681717 
0.3287861015084042 1:0.384961 2:0.234375 3:0.411364 4:0.130902 5:-0.0468824 6:0.474723 7:-0.18981 8:-0.659511 
0.4946356726097757 1:0.384961 2:0.25 3:0.812995 4:0.151716 5:0.453302 6:0.390714 7:-0.18946 8:-0.683198 
0.9414572769533457 1:0.470258 2:0.109375 3:0.594647 4:0.174584 5:0.322648 6:0.432621 7:-0.0053302 8:-0.595855 
0.2041106116848851 1:0.42312 2:0.71875 3:0.473414 4:0.152828 5:0.0904954 6:0.449256 7:-0.0528766 8:-0.623982 
0.5937266802021474 1:0.124579 2:0.671875 3:0.47814 4:0.186531 5:-0.943943 6:0.492061 7:-0.346813 8:-0.695041 
0.01875735059792656 1:0.223345 2:0.8125 3:0.574984 4:0.0520928 5:0.14514 6:0.498749 7:-0.390255 8:-0.789785 
2 1:0.299663 2:0.140625 3:-0.00324449 4:0.246664 5:0.3741 6:0.417116 7:-0.243562 8:-0.717246 
0.3308034805835773 1:0.129068 2:0.515625 3:0.285356 4:0.187928 5:-0.451235 6:0.4026 7:-0.294262 8:-0.766099 
0.02510399698871799 1:0.306397 2:0.75 3:0.437418 4:0.156136 5:0.166717 6:0.304652 7:-0.136558 8:-0.702443 
0.116711294395072 1:0.299663 2:0.796875 3:0.190323 4:0.156136 5:0.0582278 6:0.332421 7:-0.246215 8:-0.742413 
1.134175028291697 1:0.234568 2:0.21875 3:0.0621595 4:0.156136 5:-1 6:0.442601 7:-0.340957 8:-0.752776 
0.2702529081499483 1:0.537598 2:0.578125 3:-0.501524 4:0.156136 5:0.483853 6:0.316105 7:-0.176397 8:-0.684678 
2 1:0.349046 2:0.3125 3:-0.361069 4:0.156136 5:0.483853 6:0.56466 7:-0.259378 8:-0.643227 
0.6763146742638581 1:0.537598 2:0.484375 3:0.0172509 4:0.156136 5:-0.118386 6:0.436523 7:-0.0596832 8:-0.557365 
0.9059441585975009 1:0.326599 2:0.53125 3:-0.396721 4:0.18673 5:0.493688 6:0.456115 7:-0.385301 8:-0.73057 
0.6144093195403414 1:0.481481 2:0.265625 3:0.321008 4:0.192404 5:0.452206 6:0.490411 7:-0.32334 8:-0.699482 
0.8259368288117003 1:0.0572391 2:0.265625 3:-0.139415 4:0.156136 5:0.483853 6:0.447646 7:-0.218989 8:-0.717246 
0.01514389164367748 1:-0.364759 2:0.078125 3:-0.136599 4:0.29813 5:0.188948 6:0.393582 7:-0.392057 8:-0.911177 
0.4690102119638054 1:-0.542088 2:0.578125 3:-0.667569 4:0.154824 5:0.146355 6:0.215779 7:-0.396111 8:-0.949667 
0.2852052000192222 1:-0.488215 2:0.53125 3:-0.434504 4:0.218465 5:-0.042989 6:0.329877 7:-0.389355 8:-0.936343 
0.3171593285475234 1:-0.555556 2:0.40625 3:-0.391604 4:0.32516 5:0.404307 6:0.161248 7:-0.248818 8:-0.917098 
2 1:0.108866 2:-0.34375 3:0.181875 4:0.114821 5:0.520242 6:0.110276 7:0.00127624 8:-0.80607 
1.091753031197653 1:0.0617284 2:0.078125 3:-0.320421 4:0.187329 5:0.0998865 6:-0.0265764 7:0.0783013 8:-0.819393 
0.332244795255722 1:-0.0976431 2:-0.125 3:-0.0419335 4:0.163806 5:0.481618 6:0.212202 7:-0.279047 8:-0.902295 
0.5821478604696306 1:0.010101 2:0.203125 3:-0.389155 4:0.177834 5:0.484991 6:0.183542 7:-0.192663 8:-0.863805 
2 1:-0.0796857 2:-0.03125 3:-0.117377 4:0.180372 5:0.494696 6:0.424478 7:-0.227797 8:-0.853442 
0.3234353280329035 1:-0.25477 2:0.5625 3:-0.979847 4:-0.256301 5:0.467828 6:0.320361 7:-0.411626 8:-0.911177 
0.4881834788321316 1:-0.185185 2:0.484375 3:-0.83949 4:-0.265311 5:0.464318 6:0.300638 7:-0.558119 8:-0.96003 
0.3289196915063146 1:-0.52862 2:0.234375 3:-0.479952 4:0.1459 5:0.762419 6:0.483224 7:-0.447161 8:-0.820873 
1.305731290718791 1:0.111111 2:0.59375 3:-0.991723 4:0.163179 5:0.483853 6:0.0925217 7:-0.125497 8:-0.863805 
0.4698457192064567 1:-0.043771 2:0.53125 3:-0.921471 4:0.155138 5:0.482787 6:0.221581 7:-0.234404 8:-0.900814 
0.7709006246771348 1:-0.043771 2:0.5625 3:-0.819264 4:0.112141 5:0.413728 6:0.0402791 7:-0.0011261 8:-0.837158 
2 1:0.463524 2:0.3125 3:-0.777734 4:-0.101591 5:0.478699 6:-0.072445 7:0.429093 8:-0.588453 
0.1249064785307192 1:0.0213244 2:0.21875 3:0.134591 4:0.126454 5:0.488477 6:0.409743 7:-0.272941 8:-0.776462 
1.567227760982154 1:-0.00785634 2:0.21875 3:-0.165175 4:0.185875 5:0.499944 6:0.385208 7:-0.269488 8:-0.785344 
0.1411739712041631 1:-0.602694 2:0.59375 3:-0.288955 4:0.169366 5:0.317811 6:0.243035 7:-0.429594 8:-0.948187 
0.5141517157487269 1:-0.573513 2:0.296875 3:-0.300929 4:0.00259466 5:0.30691 6:0.177131 7:-0.310328 8:-0.92154 
0.01022123463540278 1:-0.331089 2:0.375 3:-0.124699 4:0.349994 5:0.410511 6:0.303304 7:-0.18926 8:-0.851962 
0.1417296354714137 1:-0.450056 2:0.15625 3:-0.247499 4:0.236114 5:0.376639 6:0.222821 7:-0.398514 8:-0.917098 
0.4818771989801766 1:-0.521886 2:0.5 3:-0.190127 4:0.416429 5:0.492626 6:0.377394 7:-0.31233 8:-0.903775 
0.02482014156358213 1:-0.147026 2:-0.140625 3:0.220809 4:0.299783 5:0.598585 6:0.171043 7:-0.170441 8:-0.854922 
0.4632283639693446 1:-0.205387 2:0.5 3:-0.104693 4:0.451158 5:0.311084 6:0.141652 7:-0.249718 8:-0.896373 
2 1:0.0707071 2:0.140625 3:-0.264297 4:0.140425 5:0.50503 6:0.204459 7:-0.0384125 8:-0.816432 
0.7023690527975389 1:0.0976431 2:0.3125 3:-0.44856 4:0.163179 5:0.463448 6:0.179208 7:-0.0875103 8:-0.856403 
1.092266298008782 1:-0.0774411 2:-0.015625 3:-0.202664 4:0.10333 5:0.499725 6:0.373377 7:-0.24101 8:-0.872687 
2 1:-0.0774411 2:0.390625 3:-0.731797 4:0.157875 5:0.487992 6:0.328161 7:-0.206176 8:-0.880089 
2 1:0.0953984 2:0.203125 3:-0.348972 4:0.155623 5:0.479463 6:0.154811 7:-0.0341583 8:-0.837158 
0.01651829206368555 1:-0.250281 2:0.1875 3:-0.430758 4:0.242387 5:0.482754 6:0.226882 7:-0.237907 8:-0.909697 
0.3131970926965458 1:-0.360269 2:0.53125 3:-0.916721 4:-0.282505 5:0.457856 6:0.314405 7:-0.487901 8:-0.940785 
0.3560095070567794 1:-0.407407 2:0.125 3:-0.195098 4:0.148466 5:0.607255 6:0.537299 7:-0.277045 8:-0.754256 
0.8055814219199269 1:0.158249 2:0.578125 3:-0.940326 4:0.162808 5:0.483853 6:0.00456522 7:-0.0798028 8:-0.856403 
2 1:-0.102132 2:0.09375 3:0.0940167 4:0.184649 5:0.483853 6:0.490213 7:-0.41508 8:-0.780903 
0.2826325190105035 1:-0.113356 2:0.109375 3:0.196518 4:0.222713 5:0.487846 6:0.491554 7:-0.314932 8:-0.758697 
0.2104992468283381 1:-0.335578 2:0.125 3:0.0871849 4:-0.00142564 5:0.36312 6:0.100299 7:-0.294612 8:-0.912657 
0.4710321889035761 1:-0.0415264 2:0.21875 3:-0.316454 4:0.200103 5:0.439271 6:0.292521 7:-0.0918646 8:-0.837158 
2 1:-0.0213244 2:-0.328125 3:0.355633 4:0.221288 5:0.476455 6:0.322517 7:-0.0864593 8:-0.828275 
1.387010792856422 1:0.200898 2:0.125 3:-0.208296 4:0.0700274 5:0.349632 6:0.113782 7:0.0168414 8:-0.831236 
0.9315713381695708 1:-0.0684624 2:0.359375 3:-0.486073 4:0.148552 5:0.374913 6:0.438248 7:-0.208128 8:-0.757217 
0.01825267189696419 1:-0.42312 2:0.1875 3:-0.0953634 4:0.148865 5:-0.0426267 6:0.399306 7:-0.396762 8:-0.835677 
0.08704647590774207 1:-0.239057 2:-0.203125 3:0.24412 4:0.138772 5:0.452227 6:0.389023 7:-0.295563 8:-0.890452 
0.004025836465215829 1:-0.230079 2:-0.359375 3:0.54276 4:0.0532048 5:0.577222 6:0.188782 7:-0.192463 8:-0.868246 
0.6942914008908968 1:-0.230079 2:-0.234375 3:0.532133 4:0.303661 5:0.12942 6:0.177302 7:-0.182103 8:-0.880089 
0.09088588909756715 1:-0.281706 2:-0.265625 3:0.295591 4:0.0780109 5:0.463719 6:0.20583 7:-0.23055 8:-0.888971 
0.314361028102041 1:-0.393939 3:0.117328 4:0.223369 5:0.637842 6:0.221265 7:-0.297015 8:-0.912657 
0.09673462786692685 1:-0.274972 2:0.09375 3:0.370961 4:0.201129 5:0.450583 6:0.16265 7:-0.154776 8:-0.866765 
1.062750624756556 1:0.010101 2:-0.6875 3:0.806114 4:0.125827 5:0.445899 6:0.13042 7:-0.15923 8:-0.859363 
0.239245822556271 1:-0.468013 2:0.15625 3:0.378356 4:0.191321 5:0.480677 6:0.241944 7:-0.319486 8:-0.92302 
0.419919545723366 1:0.0707071 2:-0.40625 3:0.654517 4:0.22143 5:0.459804 6:0.126268 7:-0.0936163 8:-0.854922 
0.2256580344413412 1:-0.209877 2:-0.21875 3:0.698716 4:0.14282 5:0.48367 6:0.263367 7:-0.248567 8:-0.888971 
0.1213911554002248 1:-0.0684624 2:-0.375 3:0.807241 4:0.266252 5:0.380633 6:0.154698 7:-0.193564 8:-0.871207 
0.3834327933607934 1:-0.427609 2:0.390625 3:0.323996 4:0.126739 5:0.437972 6:0.246497 7:-0.346763 8:-0.911177 
0.4281956903412019 1:-0.200898 2:-0.625 3:0.612841 4:0.181113 5:0.481667 6:0.208016 7:-0.214384 8:-0.88453 
0.5102820839408038 1:-0.0774411 2:0.453125 3:-0.726459 4:-0.260635 5:0.454175 6:0.185375 7:-0.371237 8:-0.915618 
1.540218142695388 1:-0.0729517 2:0.25 3:-0.612131 4:0.156136 5:0.483853 6:0.727744 7:-0.0622857 8:-0.221318 
1.965723827907977 1:0.326599 2:0.703125 3:-0.407422 4:0.156136 5:0.483853 6:0.798053 7:-0.280098 8:-0.246484 
2 1:0.18743 2:0.265625 3:-0.567687 4:0.156136 5:0.590333 6:0.667121 7:-0.175546 8:-0.450777 
1.516045908861815 1:0.0415264 2:0.28125 3:-0.536002 4:0.156136 5:0.483853 6:0.642271 7:-0.0633368 8:-0.407846 
0.270435363741968 1:0.0145903 2:0.5625 3:-0.158931 4:0.119041 5:0.409229 6:0.755863 7:-0.339856 8:-0.471503 
2 1:-0.2211 2:0.515625 3:-0.861136 4:0.143932 5:0.483853 6:0.788574 7:-0.407973 8:-0.486306 
2 1:-0.158249 2:0.40625 3:-0.539185 4:0.132755 5:0.483853 6:0.825034 7:-0.567328 8:-0.468542 
1.164148989645503 1:-0.241302 2:0.78125 3:-0.231167 4:0.156136 5:0.483853 6:0.871214 7:-0.818873 8:-0.634345 
0.2502907857524027 1:-0.0505051 2:0.421875 3:-0.0801082 4:0.0172787 5:0.485664 6:0.833989 7:-0.62003 8:-0.489267 
0.7082404744049736 1:0.162738 2:0.625 3:-0.576405 4:0.156136 5:0.483853 6:0.581417 7:-0.169791 8:-0.437454 
2 1:-0.113356 2:0.265625 3:-0.354384 4:0.132755 5:0.459865 6:0.820567 7:-0.439103 8:-0.357513 
1.690623559196022 1:0.0572391 2:0.3125 3:-0.423755 4:0.156136 5:0.483853 6:0.732496 7:-0.0125873 8:-0.173945 
0.2075693378517055 1:-0.378227 2:0.78125 3:-0.371622 4:0.133297 5:0.46707 6:0.848071 7:-0.417182 8:-0.515914 
1.84444181396773 1:0.277217 2:0.5625 3:-0.900388 4:0.156136 5:0.483853 6:0.56171 7:0.515127 8:0.00518135 
0.2257590434168679 1:-0.0819304 2:0.421875 3:-0.337488 4:0.156136 5:0.483853 6:0.763423 7:-0.34316 8:-0.441895 
1.353545143352212 1:0.164983 2:0.40625 3:-0.561272 4:0.102674 5:0.483853 6:0.684841 7:-0.0162408 8:-0.122132 
2 1:0.0796857 2:0.578125 3:-0.861136 4:0.156136 5:0.483853 6:0.567153 7:0.0732965 8:-0.332346 
2 1:0.185185 2:0.578125 3:-0.754447 4:0.167684 5:0.483335 6:0.743787 7:-0.0404645 8:-0.122132 
2 1:0.196409 2:0.40625 3:-0.455342 4:0.109204 5:0.483853 6:0.737535 7:0.0312555 8:-0.0495929 
1.574775071658459 1:0.162738 2:0.390625 3:-0.603389 4:0.167997 5:0.481685 6:0.779772 7:-0.0195941 8:-0.119171 
2 1:0.263749 2:0.453125 3:-0.502675 4:0.156136 5:0.483853 6:0.728027 7:-0.0767999 8:-0.117691 
2 1:0.263749 2:0.625 3:-0.66561 4:0.167684 5:0.483335 6:0.735223 7:-0.01539 8:-0.0940044 
0.7226008415161065 1:0.151515 2:0.65625 3:-0.515457 4:0.156136 5:0.483853 6:0.687506 7:-0.196216 8:-0.321984 
2 1:0.236813 2:0.609375 3:-0.772053 4:0.156136 5:0.483853 6:0.795229 7:-0.383299 8:-0.401925 
2 1:0.232323 2:0.359375 3:-0.780403 4:0.156136 5:0.483853 6:0.834828 7:-0.21003 8:-0.284974 
2 1:0.037037 2:0.234375 3:-0.579123 4:0.156136 5:0.483853 6:0.712155 7:-0.208028 8:-0.435973 
0.7704104310188558 1:-0.0460157 2:0.546875 3:-0.682971 4:0.1597 5:0.483853 6:0.69096 7:-0.386902 8:-0.523316 
2 1:0.162738 2:0.625 3:-0.576405 4:0.156136 5:0.483853 6:0.581417 7:-0.169791 8:-0.437454 
2 1:-0.030303 2:0.46875 3:-0.741078 4:0.249772 5:0.48925 6:0.721567 7:-0.276895 8:-0.504071 
0.7566529467370902 1:0.310887 2:0.703125 3:-0.620138 4:0.156136 5:0.483853 6:0.530003 7:0.560471 8:-0.0170244 
2 1:0.147026 2:0.59375 3:-0.830332 4:0.156136 5:0.483853 6:0.530934 7:0.027652 8:-0.305699 
0.06602235000898599 1:-0.0841751 2:0.65625 3:-0.553118 4:-0.0152828 5:0.460388 6:0.892741 7:-0.618979 8:-0.381199 
2 1:0.200898 2:0.515625 3:-0.800997 4:0.156136 5:0.481505 6:0.735257 7:-0.273342 8:-0.437454 
2 1:0.409652 2:0.53125 3:-0.516682 4:0.12212 5:0.49732 6:0.553811 7:0.0870098 8:-0.301258 
1.996353036595282 1:0.0998878 2:0.546875 3:-0.772053 4:0.156136 5:0.483853 6:0.686603 7:0.114937 8:-0.178386 
0.2042341185053296 1:-0.225589 2:0.109375 3:-0.0257478 4:0.156136 5:0.483853 6:0.784395 7:-0.461125 8:-0.524796 
0.6924189556342006 1:0.142536 2:0.734375 3:-0.131139 4:0.156136 5:0.483853 6:0.706521 7:-0.0700933 8:-0.361954 
0.2209271119096441 1:0.0527497 2:0.703125 3:-0.052977 4:0.156136 5:0.483853 6:0.710502 7:-0.131003 8:-0.398964 
2 1:-0.263749 2:0.4375 3:-0.832829 4:0.156136 5:0.483853 6:0.807208 7:-0.290608 8:-0.319023 
0.7594987116316473 1:0.0145903 2:0.4375 3:0.291649 4:0.156136 5:0.483853 6:0.726062 7:-0.221541 8:-0.428571 
1.520873456735742 1:-0.0998878 2:0.34375 3:-0.28587 4:0.156136 5:0.483853 6:0.92921 7:-0.636996 8:-0.507032 
2 1:-0.023569 2:0.53125 3:-0.827246 4:0.218237 5:0.502458 6:0.765409 7:-0.21068 8:-0.314582 
2 1:0.268238 2:0.546875 3:-0.567687 4:0.177492 5:0.474397 6:0.717202 7:0.224494 8:0.11621 
1.184941998414543 1:0.124579 2:0.40625 3:-0.558505 4:0.164804 5:0.483466 6:0.749034 7:-0.102225 8:-0.179867 
0.7891372424132531 1:-0.0392817 2:0.578125 3:-0.438349 4:0.156136 5:0.483853 6:0.795278 7:-0.646255 8:-0.532198 
0.1496506801432355 1:-0.232323 2:0.875 3:0.256119 4:0.142421 5:0.473783 6:0.845831 7:-0.452716 8:-0.467061 
2 1:0.209877 2:0.234375 3:-0.45522 4:0.35852 5:0.483853 6:0.750921 7:-0.246716 8:-0.298298 
0.5545379036880216 1:0.135802 2:0.578125 3:-0.604173 4:0.0774122 5:0.136601 6:0.698722 7:-0.0486224 8:-0.170984 
1.04553006947097 1:0.194164 2:0.609375 3:-0.254674 4:0.156136 5:0.483853 6:0.709658 7:-0.0273517 8:-0.119171 
2 1:0.164983 2:0.453125 3:-0.51034 4:0.163065 5:0.483542 6:0.72269 7:-0.104627 8:-0.185788 
1.937948408803036 1:0.182941 2:0.484375 3:-0.557721 4:0.163236 5:0.482553 6:0.719927 7:-0.0723956 8:-0.170984 
1.188205344740959 1:0.0841751 2:0.484375 3:-0.66561 4:0.0249202 5:-0.0948972 6:0.74443 7:0.0200445 8:-0.117691 
1.794043041348936 1:0.0976431 2:0.5 3:-0.424416 4:0.156136 5:0.483853 6:0.538978 7:-0.0229974 8:-0.181347 
2 1:-0.0123457 2:0.53125 3:-0.697957 4:0.156136 5:0.483853 6:0.872675 7:-0.524336 8:-0.437454 
0.4003790186325058 1:-0.043771 2:0.46875 3:-0.761793 4:0.156136 5:0.483853 6:0.878378 7:-0.429994 8:-0.243523 
1.375285494402249 1:-0.349046 2:0.375 3:-0.518787 4:0.156136 5:0.501107 6:0.768596 7:-0.21073 8:-0.19171 
2 1:-0.0594837 2:0.21875 3:-0.438128 4:0.156136 5:0.483853 6:0.747951 7:-0.142364 8:-0.237602 
2 1:-0.0549944 2:0.25 3:-0.402623 4:0.156136 5:0.483853 6:0.730993 7:-0.182503 8:-0.27017 
2 1:-0.0819304 2:0.09375 3:-0.421355 4:0.156136 5:0.483853 6:0.718415 7:-0.147519 8:-0.289415 
0.7780657964104767 1:0.0841751 2:0.890625 3:-0.461146 4:0.156136 5:0.479542 6:0.808424 7:0.0569305 8:0.0777202 
2 1:0.230079 2:0.234375 3:-0.581743 4:0.156136 5:0.547739 6:0.728141 7:-0.126348 8:-0.335307 
1.465315765707102 1:-0.00112233 2:0.515625 3:-0.397603 4:0.508155 5:0.51952 6:0.723492 7:-0.00673156 8:-0.141377 
1.248060730074558 1:0.113356 2:0.46875 3:-0.124527 4:0.156136 5:0.483853 6:0.50993 7:0.247917 8:0.00370096 
0.7212241478951398 1:-0.129068 2:0.78125 3:0.2725 4:0.156136 5:0.483853 6:0.848716 7:-0.82518 8:-0.623982 
0.09522544728085082 1:0.0258137 2:0.5 3:-0.594329 4:0.156136 5:0.483853 6:0.812923 7:0.0150397 8:0.042191 
2 1:0.173962 2:0.4375 3:-0.238733 4:0.13843 5:0.483594 6:0.727347 7:0.0503241 8:-0.0658771 
2 1:0.214366 2:0.453125 3:-0.183662 4:0.13843 5:0.483594 6:0.723065 7:0.0628363 8:-0.0510733 
1.854541211821467 1:0.0145903 2:0.65625 3:-0.424783 4:0.156136 5:0.483853 6:0.895132 7:-0.295213 8:-0.117691 
2 1:0.0998878 2:-0.1875 3:0.467267 4:0.156136 5:0.483853 6:0.854749 7:-0.3846 8:-0.236121 
0.06467459076640682 1:-0.0594837 2:-0.09375 3:0.295542 4:0.156136 5:0.483853 6:0.88585 7:-0.612772 8:-0.42265 
1.156822210811515 1:-0.230079 2:0.46875 3:-0.197473 4:0.156136 5:-0.0189679 6:0.841743 7:-0.537449 8:-0.523316 
0.4121384375361919 1:0.243547 2:0.703125 3:0.00694198 4:0.156136 5:0.483853 6:0.848237 7:-0.290608 8:-0.119171 
2 1:0.113356 2:-0.015625 3:0.0597598 4:0.156136 5:0.483853 6:0.849585 7:-0.385251 8:-0.250925 
0.09281292619417868 1:-0.162738 2:0.453125 3:-0.197473 4:0.156136 5:0.203094 6:0.869445 7:-0.376042 8:-0.434493 
0.3428810016598043 1:0.030303 2:0.765625 3:0.149308 4:0.156136 5:0.278625 6:0.851764 7:-0.68254 8:-0.397483 
2 1:-0.0662177 2:-0.15625 3:0.426399 4:0.156136 5:0.483853 6:0.888592 7:-0.619079 8:-0.418209 
1.092557684208225 1:0.230079 2:0.65625 3:0.348556 4:0.156136 5:0.483853 6:0.850788 7:-0.286004 8:-0.113249 
2 1:0.108866 3:0.0316001 4:0.156136 5:0.483853 6:0.852198 7:-0.389204 8:-0.242043 
0.1255603546447502 1:-0.144781 2:0.71875 3:0.590411 4:0.156136 5:0.126145 6:0.863761 7:-0.578139 8:-0.470022 
1.001751167401793 1:-0.164983 2:0.5625 3:-0.832952 4:0.133041 5:0.479953 6:0.502612 7:-0.509672 8:-0.607698 
2 1:-0.142536 2:0.5625 3:-0.860034 4:0.133041 5:0.479953 6:0.525844 7:-0.458972 8:-0.603257 
1.551809868293968 1:-0.252525 2:0.578125 3:-0.91295 4:0.156136 5:0.483853 6:0.875544 7:-0.253472 8:-0.247964 
0.007097172232477419 1:0.0190797 2:0.28125 3:0.0046892 4:0.156136 5:0.483853 6:0.90708 7:-0.411376 8:-0.108808 
0.02341850759517794 1:0.0190797 2:0.96875 3:-0.0321143 4:0.156136 5:0.483853 6:0.874485 7:-0.505618 8:-0.213916 
2 1:0.0617284 2:0.328125 3:-0.256657 4:0.156136 5:0.39284 6:0.871783 7:-0.254723 8:-0.237602 
0.2128488279331635 1:-0.00561167 2:0.71875 3:0.779669 4:0.156136 5:0.0061004 6:0.85282 7:-0.370436 8:-0.296817 
1.052905985248617 1:0.0751964 3:0.372528 4:0.156136 5:0.483853 6:0.867474 7:-0.399865 8:-0.265729 
1.247228715661049 1:0.0639731 2:0.34375 3:-0.223037 4:0.156136 5:0.39284 6:0.869823 7:-0.25177 8:-0.243523 
0.04371564442336421 1:-0.111111 2:0.546875 3:0.0722235 4:0.156136 5:0.164413 6:0.836027 7:-0.566377 8:-0.450777 
0.3305258894134769 1:-0.117845 2:0.65625 3:0.708706 4:0.156136 5:0.0061004 6:0.878302 7:-0.54821 8:-0.435973 
0.06270852635389866 1:-0.010101 2:0.625 3:0.673274 4:0.156136 5:0.39284 6:0.875135 7:-0.470634 8:-0.336788 
0.403407553407198 1:0.108866 2:0.6875 3:0.664875 4:0.156136 5:0.39284 6:0.849949 7:-0.298416 8:-0.206514 
1.340706024283168 1:0.00785634 2:0.421875 3:-0.190935 4:0.156136 5:0.483853 6:0.855007 7:-0.428993 8:-0.170984 
0.09180002280293538 1:-0.133558 2:0.75 3:-0.109174 4:0.156136 5:0.194278 6:0.873996 7:-0.361978 8:-0.202073 
0.2366540110624343 1:-0.037037 2:0.65625 3:0.75168 4:0.156136 5:0.152887 6:0.866261 7:-0.566277 8:-0.390081 
0.08577994685035749 1:0.1156 2:0.28125 3:0.539601 4:0.156136 5:0.483853 6:0.8594 7:-0.454318 8:-0.256847 
2 1:-0.00561167 2:0.1875 3:-0.0863279 4:0.156136 5:0.485691 6:0.865188 7:-0.265634 8:-0.287935 
0.2857125191487763 1:0.00785634 2:0.75 3:0.744726 4:0.156136 5:-0.0659263 6:0.864953 7:-0.387903 8:-0.302739 
2 1:0.111111 2:0.28125 3:0.256878 4:0.156136 5:0.483853 6:0.857869 7:-0.457071 8:-0.259808 
2 1:0.113356 2:-0.09375 3:0.342997 4:0.156136 5:0.483853 6:0.856224 7:-0.453267 8:-0.262768 
2 1:0.00112233 2:0.1875 3:-0.0973958 4:0.156136 5:0.485691 6:0.865265 7:-0.267035 8:-0.290896 
1.661837323716148 1:-0.00112233 2:0.1875 3:-0.118454 4:0.156136 5:0.485691 6:0.866833 7:-0.269388 8:-0.284974 
2 1:-0.133558 2:0.53125 3:-0.507181 4:0.156136 5:0.483853 6:0.920186 7:-0.407923 8:-0.162102 
0.6710849977100092 1:0.016835 2:0.75 3:0.396378 4:0.156136 5:-0.113944 6:0.870591 7:-0.402267 8:-0.317543 
0.108066856610458 1:-0.162738 2:0.828125 3:-0.242259 4:0.156136 5:0.194278 6:0.872226 7:-0.399615 8:-0.283494 
0.176079866335533 1:-0.200898 2:0.78125 3:-0.200436 4:0.156136 5:0.484544 6:0.947412 7:-0.530442 8:-0.205033 
0.540261356290154 1:0.0145903 2:0.6875 3:-0.0866707 4:0.156136 5:0.483853 6:0.881157 7:-0.298516 8:-0.0318283 
2 1:0.023569 2:0.359375 3:-0.242431 4:0.156136 5:0.483853 6:0.849837 7:-0.429244 8:-0.190229 
0.551346244516672 1:-0.003367 2:1 3:0.0937228 4:0.156136 5:0.483853 6:0.89428 7:-0.277345 8:-0.0643967 
1.440382734489393 1:-0.162738 2:-0.09375 3:0.0478103 4:0.156136 5:0.485003 6:0.855996 7:-0.450064 8:-0.253886 
0.01511782868302916 1:-0.297419 2:0.734375 3:-0.37172 4:0.156136 5:0.483853 6:0.934895 7:-0.521634 8:-0.329386 
2 1:0.037037 2:0.3125 3:-0.27703 4:0.156136 5:0.483853 6:0.84781 7:-0.202172 8:-0.0732791 
0.5570918620176523 1:0.122334 2:0.1875 3:-0.161012 4:0.313954 5:0.457889 6:-0.321008 7:-0.183154 8:-0.946706 
0.6672923611185705 1:-0.0392817 2:0.5625 3:-0.904012 4:0.301466 5:0.198957 6:0.0505162 7:-0.460274 8:-0.992598 
0.7449494616944392 1:0.0572391 2:0.46875 3:-0.538499 4:0.22411 5:-0.00164382 6:-0.0749508 7:-0.43635 8:-0.992598 
0.1201523458032031 1:-0.113356 2:0.53125 3:0.0011876 4:0.199418 5:0.666633 6:0.126779 7:-0.407272 8:-0.965951 
0.4234624873783583 1:-0.223345 2:0.421875 3:-0.101485 4:0.135977 5:0.729488 6:0.33344 7:-0.612522 8:-0.983716 
0.6616544986289125 1:0.15376 2:0.21875 3:-0.273896 4:0.328724 5:0.507855 6:0.11783 7:-0.219889 8:-0.903775 
1.487325374844651 1:0.178451 2:0.15625 3:-0.33286 4:-0.0184763 5:0.461503 6:0.184483 7:-0.401867 8:-0.939304 
0.3470548306625452 1:0.0549944 2:0.34375 3:-0.272916 4:0.0835139 5:0.87973 6:0.0849397 7:-0.393859 8:-0.930422 
0.3608902801117733 1:0.144781 2:0.5 3:-0.836527 4:-0.0292541 5:0.573377 6:0.0472017 7:-0.445559 8:-0.957069 
0.3396034457516465 1:0.0931538 2:0.15625 3:3.673e-05 4:-0.121293 5:0.0662277 6:0.0535487 7:-0.156578 8:-0.92154 
0.4955726630926052 1:0.239057 2:0.5 3:-0.819313 4:0.0995096 5:0.357845 6:-0.119729 7:-0.262931 8:-0.970392 
0.6120877238158278 1:0.203143 2:0.328125 3:-0.366725 4:-0.212677 5:0.308801 6:0.0367124 7:-0.206476 8:-0.934863 
0.4909349568191155 1:0.295174 2:0.5 3:-0.940889 4:0.115904 5:0.268905 6:-0.73079 7:-0.0073822 8:-0.988157 
1.135180735367312 1:-0.400673 2:0.484375 3:-0.706527 4:0.100222 5:-0.319656 6:-0.105751 7:-0.244413 8:-0.985196 
0.678009912579646 1:0.12009 2:0.0625 3:-0.00961103 4:0.013287 5:0.441646 6:0.287033 7:-0.248417 8:-0.896373 
0.1406179871463336 1:0.236813 2:0.53125 3:-0.377303 4:0.0444799 5:0.309942 6:-0.0396835 7:-0.385651 8:-0.96299 
0.4235489317948098 1:-0.0774411 2:0.421875 3:0.0864993 4:0.108234 5:0.0920661 6:0.144515 7:-0.441756 8:-0.971873 
0.2686445487350566 1:-0.371493 2:0.4375 3:-0.341724 4:0.101363 5:0.196729 6:0.384348 7:-0.6415 8:-0.99852 
0.6557198179490915 1:0.308642 2:0.140625 3:0.180993 4:-0.23352 5:0.399555 6:0.0951446 7:-0.117339 8:-0.866765 
0.02730123509064577 1:-0.14927 2:0.40625 3:-0.245589 4:0.241161 5:0.519995 6:0.172487 7:-0.557018 8:-1 
0.1027721030576057 1:0.241302 2:0.328125 3:-0.404508 4:0.250171 5:0.196026 6:-0.128406 7:-0.205425 8:-0.936343 
0.3015614706507952 1:0.0639731 2:0.484375 3:-0.35409 4:0.331575 5:0.434952 6:0.156201 7:-0.467431 8:-0.971873 
0.6696348468215193 1:0.0392817 2:0.421875 3:-0.15707 4:0.0961166 5:1 6:0.239588 7:-0.341858 8:-0.906736 
0.1078656345431256 1:-0.328844 2:0.359375 3:0.0469288 4:-0.0141423 5:0.312259 6:0.243348 7:-0.501013 8:-0.973353 
0.1904594299522171 1:-0.218855 2:0.515625 3:-0.510584 4:0.158674 5:0.1657 6:0.264399 7:-0.572783 8:-0.99852 
0.1863175281538896 1:0.207632 2:0.53125 3:-0.222596 4:0.156136 5:0.325352 6:-0.136911 7:-0.157178 8:-0.937824 
0.007132932951803466 1:0.214366 2:0.140625 3:-0.205921 4:0.121379 5:0.67845 6:-0.129646 7:-0.113235 8:-0.940785 
0.02337881233275146 1:0.337823 2:0.484375 3:-0.787015 4:0.0670906 5:-0.497079 6:-0.933426 7:0.0309051 8:-0.989637 
0.913850941438634 1:0.335578 2:0.46875 3:-0.739976 4:0.0778114 5:0.0172632 6:-1 7:0.00267761 8:-0.995559 
0.6759274320611397 1:0.265993 2:0.53125 3:-0.997209 4:0.0958314 5:0.189858 6:-0.540772 7:-0.0114362 8:-0.977794 
0.8855615337511903 1:0.310887 2:0.484375 3:-0.784713 4:0.0769845 5:-0.578342 6:-0.873205 7:0.0345587 8:-0.985196 
1.566039711218364 1:0.0617284 2:-0.046875 3:0.0881399 4:0.236285 5:0.0472568 6:0.119184 7:-0.13856 8:-0.893412 
0.1263471860598822 1:0.00785634 2:0.15625 3:0.169803 4:0.282989 5:0.485168 6:0.212492 7:-0.296965 8:-0.903775 
0.7050973210974613 1:-0.0796857 2:0.453125 3:-0.55062 4:0.00752737 5:0.549304 6:0.278375 7:-0.567428 8:-0.989637 
1.355259376862426 1:0.0976431 2:0.0625 3:0.0975183 4:-0.132128 5:0.530443 6:0.288516 7:-0.303721 8:-0.88601 
0.2083279782492228 1:0.239057 2:0.125 3:0.0306941 4:0.32764 5:0.503487 6:-0.179543 7:-0.137859 8:-0.906736 
0.01197101133514987 1:-0.106622 2:0.515625 3:-0.336092 4:-0.0998802 5:0.281087 6:0.121121 7:-0.470634 8:-0.982235 
0.05052043798748242 1:-0.0707071 2:0.296875 3:0.284695 4:-0.0107208 5:0.314369 6:0.17796 7:-0.18976 8:-0.912657 
0.1675988082132407 1:0.178451 2:0.125 3:0.338516 4:0.0243499 5:0.280682 6:-0.113298 7:-0.101023 8:-0.936343 
0.2548454376385718 1:0.250281 2:0.328125 3:0.201587 4:0.128992 5:0.441892 6:-0.118398 7:-0.0876605 8:-0.927461 
0.02907849163494933 1:0.277217 2:0.515625 3:-0.95492 4:0.0917541 5:0.0461366 6:-0.613466 7:-0.0415155 8:-0.985196 
0.574490561405965 1:0.290685 2:0.484375 3:-0.845318 4:0.0945198 5:-0.337632 6:-0.695444 7:0.0113361 8:-0.983716 
0.5860616007170509 1:0.198653 2:-0.109375 3:0.193408 4:-0.147297 5:0.555079 6:0.177656 7:-0.125648 8:-0.863805 
0.2152798502112911 1:0.135802 2:0.015625 3:0.106823 4:0.0715671 5:0.659845 6:0.174465 7:-0.27139 8:-0.902295 
0.5043264093935023 1:0.0639731 2:-0.0625 3:0.296277 4:0.258582 5:0.434386 6:0.162771 7:-0.314231 8:-0.925981 
0.5909558228090324 1:0.0639731 2:0.1875 3:0.278475 4:0.108463 5:0.78788 6:-0.0274421 7:-0.238107 8:-0.930422 
0.1282882646519783 1:0.283951 2:0.09375 3:0.277936 4:0.138258 5:0.478242 6:-0.145515 7:-0.0798028 8:-0.934863 
0.6831330595458381 1:0.135802 2:-0.28125 3:-0.0679873 4:0.163464 5:0.499024 6:0.0154171 7:-0.338005 8:-0.958549 
0.29760921850172 1:0.0280584 2:0.125 3:0.478752 4:-0.0459911 5:0.466732 6:0.103089 7:-0.166287 8:-0.9245 
1.858983667849199 1:-0.12009 2:0.09375 3:-0.228522 4:0.0892735 5:0.46132 6:0.621195 7:-0.426941 8:-0.709845 
0.8689243816597866 1:-0.0931538 2:0.15625 3:-0.319172 4:0.156136 5:0.288783 6:0.514162 7:-0.181902 8:-0.650629 
2 1:0.15376 2:-0.078125 3:0.241182 4:0.109261 5:0.411019 6:0.601102 7:-0.116188 8:-0.542561 
2 1:0.0258137 2:0.015625 3:0.0101987 4:0.111827 5:0.418794 6:0.566976 7:-0.0789019 8:-0.532198 
0.7524105610460309 1:0.037037 2:0.21875 3:-0.134052 4:-0.192775 5:0.451506 6:0.446386 7:-0.115888 8:-0.598816 
0.7430128940799293 1:-0.122334 2:0.171875 3:-0.115565 4:0.150376 5:-0.0664804 6:0.654614 7:-0.357624 8:-0.665433 
2 1:-0.0909091 2:0.234375 3:-0.429901 4:0.156136 5:0.483853 6:0.592147 7:-0.24146 8:-0.668394 
2 1:0.236813 2:-0.015625 3:-0.0560623 4:0.123147 5:0.483853 6:0.510388 7:0.259978 8:-0.348631 
2 1:-0.016835 2:-0.140625 3:-0.0138227 4:0.110173 5:0.472927 6:0.504689 7:-0.122795 8:-0.591414 
0.4871634728443217 1:-0.45679 2:0.515625 3:-0.273406 4:0.117758 5:-0.405805 6:0.593851 7:-0.550862 8:-0.823834 
0.4836449167274111 1:-0.351291 2:-0.203125 3:0.0402194 4:-0.0171647 5:0.355196 6:0.668567 7:-0.484848 8:-0.779423 
0.3738124947673677 1:-0.571268 2:0.53125 3:-0.471724 4:-0.00359261 5:0.437329 6:0.66041 7:-0.724581 8:-0.862324 
0.07819789551795817 1:-0.310887 2:0.203125 3:-0.063041 4:0.196339 5:0.802921 6:0.554916 7:-0.485598 8:-0.828275 
0.736697166693083 1:-0.425365 2:0.1875 3:-0.323457 4:0.154653 5:-0.419719 6:0.641622 7:-0.530092 8:-0.791266 
2 1:0.191919 2:0.390625 3:-0.704372 4:0.0853387 5:0.483853 6:0.320957 7:-0.134506 8:-0.621021 
1.405415254569555 1:0.205387 2:0.4375 3:-0.612963 4:0.0411439 5:0.483853 6:0.32007 7:-0.115287 8:-0.606218 
1.125828265288278 1:0.200898 2:0.0625 3:-0.29733 4:0.0491275 5:0.136644 6:0.374386 7:-0.223042 8:-0.628423 
2 1:0.259259 2:0.359375 3:-0.581424 4:0.0853387 5:0.483853 6:0.341287 7:-0.142314 8:-0.609178 
2 1:0.272727 2:0.359375 3:-0.568153 4:0.0411439 5:0.483853 6:0.340399 7:-0.123095 8:-0.595855 
2 1:0.279461 2:0.328125 3:-0.6911 4:0.0477874 5:0.483853 6:0.338329 7:-0.128901 8:-0.594375 
0.4211582639203906 1:-0.00561167 2:0.484375 3:-0.421894 4:0.0824019 5:0.136644 6:0.366363 7:-0.373089 8:-0.749815 
0.5124578077513572 1:-0.445567 2:0.546875 3:-0.801731 4:0.156136 5:0.428638 6:0.591949 7:-0.65116 8:-0.737972 
0.1284585316076386 1:-0.218855 2:0.609375 3:-0.113067 4:-0.0818031 5:0.426258 6:0.621966 7:-0.418984 8:-0.6906 
0.6314771890314809 1:0.113356 2:-0.046875 3:0.274631 4:0.163093 5:0.118264 6:0.467174 7:-0.0385125 8:-0.598816 
1.48265592212897 1:0.151515 2:-0.09375 3:0.179794 4:0.00809763 5:0.409278 6:0.515228 7:-0.0900128 8:-0.560326 
0.5424507819577584 1:-0.164983 2:0.03125 3:-0.0449453 4:0.238737 5:0.310308 6:0.678497 7:-0.352619 8:-0.665433 
0.6758802968769361 1:-0.151515 2:-0.015625 3:-0.167771 4:-0.223797 5:-0.0931651 6:0.547376 7:-0.274493 8:-0.689119 
1.605581638263612 1:0.0886644 2:-0.140625 3:0.235109 4:0.116218 5:-0.173189 6:0.479469 7:0.0176922 8:-0.560326 
0.3003424053432503 1:-0.160494 2:0.0625 3:0.196934 4:0.0952042 5:-0.272116 6:0.604103 7:-0.244563 8:-0.658031 
0.6586013548229374 1:-0.043771 2:0.375 3:-0.0827773 4:0.293881 5:0.0841393 6:0.67161 7:-0.321689 8:-0.644708 
2 1:0.0505051 2:-0.234375 3:0.317654 4:0.156136 5:0.483853 6:0.56897 7:-0.0491729 8:-0.524796 
2 1:0.0931538 2:-0.015625 3:0.124233 4:0.118841 5:0.483372 6:0.617684 7:-0.144716 8:-0.557365 
0.5011209566953974 1:-0.450056 2:0.765625 3:0.00870502 4:0.184563 5:0.242074 6:0.552269 7:-0.512224 8:-0.822354 
0.648513124322065 1:-0.337823 2:0.5 3:0.0576784 4:0.185419 5:0.861679 6:0.618338 7:-0.586997 8:-0.822354 
0.6534407072839995 1:-0.582492 2:0.359375 3:0.311703 4:0.234603 5:0.424288 6:0.58413 7:-0.720878 8:-0.857883 
2 1:0.169473 2:0.125 3:-0.242137 4:0.111399 5:0.223444 6:0.364179 7:-0.229299 8:-0.647668 
2 1:0.173962 2:0.046875 3:-0.34858 4:0.0477304 5:0.223444 6:0.362627 7:-0.233653 8:-0.646188 
0.08421917085276358 1:0.0684624 2:0.546875 3:-0.402353 4:0.0726791 5:0.223444 6:0.371856 7:-0.352068 8:-0.72909 
0.4918694090120596 1:-0.0213244 2:-0.15625 3:0.156727 4:-0.15491 5:0.718617 6:0.537152 7:-0.167789 8:-0.61362 
2 1:0.0325477 2:0.21875 3:-0.130796 4:0.0786667 5:0.42227 6:0.581073 7:-0.111183 8:-0.57809 
2 1:0.104377 2:-0.171875 3:0.140052 4:-0.0119469 5:0.372359 6:0.42836 7:-0.0774005 8:-0.603257 
1.103302719675667 1:-0.0392817 2:-0.34375 3:0.165004 4:-0.11522 5:0.0745929 6:0.494919 7:-0.171692 8:-0.622502 
0.05983515336516972 1:-0.156004 2:0.1875 3:-0.359673 4:0.105355 5:0.450912 6:0.593137 7:-0.280849 8:-0.686158 
2 1:0.0841751 2:-0.15625 3:0.128861 4:0.115648 5:0.482516 6:0.568295 7:-0.102725 8:-0.581051 
0.09218244509637477 1:-0.205387 2:0.3125 3:-0.0459493 4:-0.0462192 5:0.00251139 6:0.584414 7:-0.256275 8:-0.644708 
0.4007921255036792 1:0.1156 2:-0.03125 3:0.348923 4:0.19249 5:0.416027 6:0.485666 7:-0.00988464 8:-0.53812 
2 1:-0.124579 2:0.140625 3:-0.09529 4:0.271898 5:0.352752 6:0.619984 7:-0.244063 8:-0.634345 
2 1:-0.0460157 2:0.015625 3:-0.199187 4:0.147183 5:0.47398 6:0.571067 7:-0.124947 8:-0.588453 
0.008006028870041726 1:-0.207632 2:0.078125 3:0.122176 4:-0.160955 5:-0.0637955 6:0.517425 7:-0.28205 8:-0.687639 
1.153321458419131 1:0.111111 2:-0.1875 3:0.464353 4:0.156136 5:0.154976 6:0.529483 7:-0.0657891 8:-0.542561 
1.111402261957785 1:-0.003367 2:-0.265625 3:0.574617 4:0.0907276 5:0.379318 6:0.557293 7:-0.157078 8:-0.598816 
0.2274425951917981 1:0.0123457 2:-0.125 3:0.0886051 4:0.126026 5:0.332021 6:0.551891 7:-0.106179 8:-0.560326 
2 1:0.12009 2:0.140625 3:0.0439169 4:0.0985401 5:0.422575 6:0.481742 7:-0.0490228 8:-0.567728 
0.9935301630948573 1:-0.0258137 2:-0.109375 3:0.155968 4:0.130788 5:0.147356 6:0.535468 7:-0.256225 8:-0.646188 
1.0252022027457 1:-0.144781 3:0.215936 4:0.125884 5:0.461868 6:0.593803 7:-0.43595 8:-0.73057 
0.727499836775746 1:-0.438833 2:0.265625 3:0.236235 4:0.228159 5:-0.0675275 6:0.571911 7:-0.518481 8:-0.813472 
0.2086983180350575 1:-0.402918 2:0.078125 3:0.490162 4:0.156136 5:0.454169 6:0.62017 7:-0.580841 8:-0.828275 
2 1:0.0617284 2:0.546875 3:-0.785668 4:0.0504391 5:0.483853 6:0.404201 7:-0.27229 8:-0.699482 
2 1:0.14927 2:0.46875 3:-0.649742 4:0.071339 5:0.483853 6:0.384319 7:-0.200621 8:-0.65507 
0.3154159087894743 1:-0.225589 2:0.28125 3:-0.393562 4:0.102674 5:0.160842 6:0.594882 7:-0.481494 8:-0.772021 
0.5118752999503928 1:-0.198653 2:0.28125 3:-0.467635 4:0.155138 5:0.459341 6:0.492367 7:-0.420685 8:-0.783864 
1.065616571168746 1:-0.239057 2:0.21875 3:-0.56994 4:0.173614 5:0.435189 6:0.491924 7:-0.395911 8:-0.797187 
0.955366520238717 1:-0.0819304 2:-0.046875 3:-0.0881644 4:0.160755 5:-0.0917709 6:0.537267 7:-0.164986 8:-0.671355 
2 1:0.194164 2:0.28125 3:-0.144729 4:0.156136 5:0.483853 6:0.407472 7:0.167138 8:-0.495189 
0.4782471416408824 1:0.0976431 2:0.125 3:0.14872 4:0.161496 5:0.411019 6:0.465806 7:-0.058432 8:-0.57661 
2 1:0.1156 2:-0.203125 3:0.041958 4:0.148552 5:0.481618 6:0.508697 7:0.103075 8:-0.478905 
0.3682174149521871 1:-0.454545 2:-0.09375 3:0.0495733 4:0.0500399 5:0.0824041 6:0.701764 7:-0.445259 8:-0.714286 
1.786517818669243 1:-0.151515 2:0.125 3:-0.386192 4:0.00792655 5:0.508394 6:0.594448 7:-0.276144 8:-0.643227 
0.07556936342242161 1:-0.0707071 2:0.375 3:-0.219682 4:0.113253 5:0.429865 6:0.60184 7:-0.0908135 8:-0.560326 
0.5856683984254406 1:0.0123457 2:0.140625 3:-0.211406 4:0.156136 5:0.296253 6:0.51209 7:-0.173995 8:-0.638786 
0.4872373210736812 1:0.586981 2:0.125 3:-0.480515 4:0.17869 5:0.490492 6:-0.00660293 7:0.21063 8:-0.698001 
2 1:0.173962 2:0.5 3:-0.800997 4:0.156136 5:0.483853 6:0.84479 7:-0.411176 8:-0.203553 
1.539415097100582 1:0.0707071 2:0.5625 3:-0.908077 4:0.156136 5:0.483853 6:0.814314 7:-0.300618 8:-0.2302 
2 1:0.122334 2:0.484375 3:-0.836698 4:0.156136 5:0.483853 6:0.827608 7:-0.392408 8:-0.206514 
2 1:0.126824 2:0.515625 3:-0.836698 4:0.156136 5:0.483853 6:0.813695 7:-0.372438 8:-0.205033 
2 1:0.126824 2:0.5 3:-0.8724 4:0.156136 5:0.483853 6:0.83443 7:-0.363129 8:-0.159141 
2 1:0.142536 2:0.515625 3:-0.836698 4:0.156136 5:0.483853 6:0.78701 7:-0.34316 8:-0.233161 
2 1:0.176207 2:0.53125 3:-0.800997 4:0.156136 5:0.483853 6:0.830876 7:-0.391156 8:-0.202073 
0.09885162398624546 1:0.158249 2:0.515625 3:-0.941428 4:0.156136 5:0.483853 6:0.892209 7:-0.431145 8:-0.129534 
2 1:0.178451 2:0.515625 3:-0.836698 4:0.156136 5:0.483853 6:0.851611 7:-0.381847 8:-0.156181 
1.266983311917351 1:-0.0998878 2:0.265625 3:-0.271668 4:0.156136 5:0.404733 6:0.516392 7:0.0463702 8:-0.34715 
2 1:0.0527497 2:0.171875 3:-0.00677057 4:0.156136 5:0.509724 6:0.534492 7:0.10768 8:-0.215396 
2 1:0.0549944 2:0.078125 3:-0.0698973 4:0.156136 5:0.509116 6:0.439388 7:0.0326068 8:-0.34715 
0.3349223435152727 1:-0.196409 2:0.484375 3:-0.103003 4:0.156136 5:0.534991 6:0.578771 7:-0.0932659 8:-0.313101 
2 1:-0.147026 2:0.328125 3:-0.662769 4:0.151317 5:0.516251 6:0.456296 7:-0.239559 8:-0.740933 
0.5168983807186056 1:-0.530864 2:0.28125 3:-0.485559 4:0.156136 5:0.63457 6:0.680018 7:-0.540102 8:-0.644708 
0.3335088880792059 1:-0.672278 2:0.609375 3:-0.162849 4:0.156136 5:0.63748 6:0.73541 7:-0.474388 8:-0.581051 
0.20371529666164 1:-0.0392817 2:0.453125 3:-0.157462 4:0.156136 5:0.483853 6:0.805152 7:-0.0935662 8:-0.163583 
0.1349072894680297 1:-0.239057 2:0.609375 3:-0.165077 4:0.156136 5:-0.475037 6:0.655332 7:-0.391957 8:-0.502591 
0.9817525556320214 1:-0.126824 2:0.46875 3:-0.32473 4:0.156136 5:-0.156623 6:0.691121 7:-0.314882 8:-0.515914 
0.1682407546340102 1:-0.196409 2:0.8125 3:-0.222082 4:0.156136 5:0.466468 6:0.606847 7:-0.215385 8:-0.397483 
1.571304080590398 1:-0.259259 2:0.5 3:-0.740931 4:0.156136 5:-0.155636 6:0.646071 7:-0.515778 8:-0.626943 
0.1499411264141256 1:-0.209877 2:0.25 3:-0.107117 4:0.156136 5:0.560378 6:0.650113 7:-0.428743 8:-0.588453 
0.1173700363090288 1:-0.151515 2:0.890625 3:0.0634573 4:0.156136 5:0.480492 6:0.583054 7:-0.321839 8:-0.49815 
0.1701480090568534 1:-0.539843 2:0.15625 3:0.140321 4:0.156136 5:0.344956 6:0.668415 7:-0.317985 8:-0.527757 
0.6808821034111631 1:-0.126824 2:0.546875 3:0.0775861 4:0.156136 5:-0.790976 6:0.656256 7:-0.211781 8:-0.418209 
0.2727661387216997 1:-0.52862 2:0.8125 3:0.114683 4:0.156136 5:0.517892 6:0.57877 7:-0.413228 8:-0.619541 
0.6962593988906681 1:-0.411897 2:0.796875 3:0.393954 4:0.156136 5:0.50563 6:0.614058 7:-0.211631 8:-0.477424 
2 1:0.472503 2:0.296875 3:-0.536491 4:0.171105 5:0.486343 6:0.0407575 7:0.0559295 8:-0.752776 
2 1:0.59596 2:0.296875 3:-0.633042 4:0.294423 5:0.484568 6:0.105747 7:0.346913 8:-0.607698 
2 1:0.517396 2:0.203125 3:-0.430758 4:0.156136 5:0.488833 6:0.145139 7:0.218938 8:-0.674315 
0.4757693751300007 1:0.566779 2:0.140625 3:-0.564063 4:0.17869 5:0.484726 6:0.0680015 7:0.260629 8:-0.658031 
2 1:0.546577 2:0.09375 3:-0.362905 4:0.252566 5:0.48433 6:0.182885 7:0.305223 8:-0.623982 
2 1:0.434343 2:0.34375 3:-0.723153 4:0.245695 5:0.483853 6:0.176497 7:0.111033 8:-0.709845 
2 1:0.450056 2:0.28125 3:-0.522681 4:0.171105 5:0.486343 6:0.146961 7:0.103876 8:-0.718727 
0.1398918389509582 1:0.52413 2:0.171875 3:-0.430758 4:0.156136 5:0.488833 6:0.0649105 7:0.151873 8:-0.699482 
0.08292916199302004 1:0.521886 2:0.109375 3:-0.37461 4:0.252566 5:0.48433 6:0.187798 7:0.298916 8:-0.626943 
2 1:0.560045 2:0.15625 3:-0.560929 4:0.164519 5:0.488912 6:0.0520588 7:0.243813 8:-0.669874 
2 1:0.582492 2:0.203125 3:-0.519253 4:0.187101 5:0.488912 6:0.0471455 7:0.250119 8:-0.666913 
0.2162826844070396 1:0.126824 2:0.515625 3:-0.803959 4:0.156136 5:0.483853 6:0.821909 7:-0.366833 8:-0.218357 
0.2153560676995943 1:-0.236813 2:0.71875 3:0.0794961 4:0.156136 5:-0.313376 6:0.605444 7:-0.35387 8:-0.526277 
0.06819692072251071 1:-0.122334 2:0.796875 3:0.12225 4:0.156136 5:-0.432888 6:0.611734 7:-0.365231 8:-0.549963 
2 1:-0.169473 2:0.265625 3:0.0117414 4:0.156136 5:0.470516 6:0.670325 7:-0.35422 8:-0.495189 
0.3927511857267996 1:-0.268238 2:0.65625 3:0.178814 4:0.156136 5:-0.689424 6:0.691503 7:-0.299817 8:-0.444856 
0.2097910695153429 1:-0.405163 2:0.34375 3:0.755917 4:0.16469 5:0.543919 6:0.641449 7:-0.376142 8:-0.57661 
0.3319642156490236 1:-0.465769 2:0.40625 3:0.624227 4:0.156136 5:0.555541 6:0.602939 7:-0.215285 8:-0.509993 
0.01205217669986166 1:-0.548822 2:0.140625 3:0.445964 4:0.156136 5:0.538577 6:0.664469 7:-0.500413 8:-0.6151 
0.7130321115839604 1:-0.306397 3:0.111451 4:0.156136 5:0.480592 6:0.5972 7:-0.154626 8:-0.446336 
2 1:0.569024 2:0.0625 3:-0.39775 4:0.233263 5:0.484425 6:0.103023 7:0.279548 8:-0.641747 
2 1:0.510662 2:0.0625 3:-0.347576 4:0.233263 5:0.484236 6:0.168663 7:0.24116 8:-0.656551 
0.1018939549439592 1:-0.618406 2:0.171875 3:-0.0542748 4:0.156136 5:0.538677 6:0.596686 7:-0.460674 8:-0.635825 
0.2267780306526915 1:-0.111111 2:0.40625 3:0.0666895 4:0.156136 5:0.530059 6:0.563366 7:0.0193939 8:-0.290896 
0.07553644241282943 1:-0.436588 2:0.4375 3:0.22387 4:0.176893 5:0.432364 6:0.64767 7:-0.181902 8:-0.458179 
0.2093574159813421 1:-0.227834 2:0.625 3:0.0561847 4:0.156136 5:-0.694803 6:0.63912 7:-0.451265 8:-0.57661 
0.343407525709253 1:-0.517396 2:0.484375 3:0.622636 4:0.156136 5:0.521027 6:0.648687 7:-0.452516 8:-0.619541 
0.5703750658601427 1:-0.434343 2:0.109375 3:0.712012 4:0.156136 5:0.472492 6:0.656429 7:-0.340307 8:-0.523316 
0.04441721361323693 1:-0.52413 2:0.09375 3:0.593962 4:0.156136 5:0.482802 6:0.64873 7:-0.3845 8:-0.564767 
2 1:0.517396 2:-0.015625 3:-0.432349 4:0.156136 5:0.488833 6:0.0793182 7:0.172894 8:-0.699482 
2 1:0.535354 2:0.078125 3:-0.356196 4:0.220404 5:0.48433 6:0.104482 7:0.2304 8:-0.665433 
2 1:0.494949 2:0.015625 3:-0.385825 4:0.209768 5:0.484824 6:0.116326 7:0.164936 8:-0.687639 
2 1:0.492705 2:0.03125 3:-0.385825 4:0.209768 5:0.484824 6:0.169811 7:0.209629 8:-0.671355 
1.19718453993331 1:0.476992 2:0.265625 3:-0.524028 4:0.176095 5:0.487174 6:0.0236348 7:0.0712445 8:-0.745374 
2 1:0.535354 2:0.03125 3:-0.515457 4:0.17869 5:0.484629 6:0.16281 7:0.288606 8:-0.641747 
2 1:0.468013 2:0.125 3:-0.469104 4:0.156136 5:0.487174 6:0.137432 7:0.121143 8:-0.711325 
2 1:0.622896 2:0.546875 3:-0.952251 4:0.189895 5:0.451953 6:0.0321518 7:0.330147 8:-0.631384 
0.1503937251692589 1:0.483726 2:0.09375 3:-0.373655 4:0.2847 5:0.484172 6:0.215567 7:0.250219 8:-0.632865 
0.1997307174105338 1:0.497194 2:0.140625 3:-0.484824 4:0.156136 5:0.487174 6:-0.00417322 7:0.0571808 8:-0.755736 
2 1:0.45679 2:0.296875 3:-0.709245 4:0.275547 5:0.483853 6:0.198069 7:0.153124 8:-0.684678 
1.327248979821161 1:0.445567 2:0.203125 3:-0.508405 4:0.176095 5:0.487174 6:0.165239 7:0.135207 8:-0.700962 
1.603949555171436 1:0.573513 2:0.234375 3:-0.593545 4:0.310419 5:0.484489 6:0.213138 7:0.403669 8:-0.57513 
0.4851902266248753 1:-0.162738 2:0.484375 3:-0.0505038 4:0.156136 5:-0.181042 6:0.599703 7:-0.320037 8:-0.508512 
2 1:0.447811 2:0.28125 3:-0.702854 4:0.156136 5:0.483853 6:0.176812 7:0.130702 8:-0.699482 
0.9940980932044144 1:0.515152 2:0.078125 3:-0.36937 4:0.2847 5:0.484172 6:0.209016 7:0.258627 8:-0.628423 
2 1:0.425365 2:0.296875 3:-0.709245 4:0.26303 5:0.483853 6:0.20462 7:0.144716 8:-0.689119 
2 1:0.526375 2:0.0625 3:-0.51198 4:0.156136 5:0.490492 6:0.141553 7:0.266185 8:-0.656551 
2 1:0.409652 2:0.515625 3:-0.935429 4:0.156136 5:0.483853 6:0.126485 7:0.0156402 8:-0.76758 
0.1192053707826205 1:-0.750842 2:0.546875 3:-0.33477 4:0.591754 5:0.339985 6:0.751559 7:-0.504767 8:-0.591414 
0.1683120123099396 1:-0.806958 2:0.515625 3:-0.445523 4:0.0281421 5:0.483853 6:0.736617 7:-0.490203 8:-0.634345 
0.01403689064432324 1:-0.784512 2:0.625 3:-0.512176 4:0.156136 5:0.20286 6:0.68162 7:-0.396612 8:-0.552924 
0.5410977567551237 1:-0.69248 2:0.4375 3:-0.0785901 4:0.591754 5:0.411917 6:0.792471 7:-0.536949 8:-0.612139 
0.08451036052930112 1:-0.804714 2:0.484375 3:-0.475495 4:0.0281421 5:0.483853 6:0.712717 7:-0.511924 8:-0.634345 
0.4719861129821233 1:-0.845118 2:0.53125 3:-0.350368 4:0.591754 5:0.399001 6:0.814616 7:-0.639849 8:-0.631384 
0.1512174293885975 1:-0.892256 2:0.625 3:-0.512176 4:0.373945 5:-0.0781302 6:0.726854 7:-0.52859 8:-0.674315 
0.01006075155027885 1:-0.838384 2:0.609375 3:-0.277838 4:0.591754 5:0.381449 6:0.818003 7:-0.562924 8:-0.609178 
0.700762757775714 1:-0.820426 2:0.421875 3:-0.075064 4:0.0862797 5:0.130927 6:0.824308 7:-0.56953 8:-0.566247 
0.2219324040161419 1:-0.479237 2:0.46875 3:-0.492783 4:0.156136 5:0.561246 6:0.782784 7:-0.677235 8:-0.680237 
0.4090637323687618 1:-0.874299 2:0.609375 3:-0.526427 4:0.156136 5:-0.148379 6:0.687561 7:-0.482545 8:-0.629904 
0.4326049333951589 1:-0.894501 2:0.609375 3:-0.536442 4:0.319486 5:-0.148379 6:0.710923 7:-0.535397 8:-0.674315 
0.2514536186791568 1:-0.903479 2:0.640625 3:-0.193898 4:0.156136 5:0.0446328 6:0.742342 7:-0.541453 8:-0.597335 
0.9464616988744009 1:-0.934905 2:0.5625 3:-0.925218 4:0.156136 5:0.483853 6:0.698784 7:-0.52864 8:-0.677276 
0.1354165050053476 1:-0.800224 2:0.546875 3:-0.453016 4:0.156136 5:0.359771 6:0.721086 7:-0.405921 8:-0.507032 
0.5638351878690488 1:-0.784512 2:0.5625 3:0.203178 4:0.373945 5:0.390225 6:0.787933 7:-0.537149 8:-0.579571 
0.05999549596296463 1:-0.842873 2:0.53125 3:0.0452637 4:0.265055 5:0.117835 6:0.769704 7:-0.551813 8:-0.621021 
0.2721155602070529 1:-0.952862 2:0.5625 3:-0.68537 4:0.156136 5:0.20286 6:0.76215 7:-0.516228 8:-0.631384 
0.1240814859191826 1:-0.905724 2:0.578125 3:-0.254454 4:0.373945 5:0.440465 6:0.849912 7:-0.627537 8:-0.588453 
0.1772322286112857 1:-0.829405 2:0.5 3:-0.105036 4:0.0862797 5:0.411917 6:0.772695 7:-0.576437 8:-0.610659 
0.4866825803090584 1:-0.739618 2:0.59375 3:-0.60094 4:0.373945 5:0.483853 6:0.68579 7:-0.418233 8:-0.549963 
0.02310505455494808 1:-0.753086 2:0.4375 3:-0.133881 4:0.373945 5:0.130927 6:0.7924 7:-0.504967 8:-0.586973 
-1.229010672079027 1:0.1156 2:-0.25 3:0.301982 4:0.156136 5:0.462562 6:0.449993 7:-0.171092 8:-0.660992 
-0.8503528569299713 1:0.243547 3:0.101118 4:0.124031 5:0.291261 6:0.491966 7:-0.287806 8:-0.681717 
-0.02143924658168126 1:0.49046 2:-0.578125 3:-0.389375 4:0.156136 5:0.483853 6:0.280277 7:0.171442 8:-0.464101 
-0.1316078337298581 1:0.124579 2:-0.015625 3:-0.0166632 4:0.168967 5:0.505313 6:0.530286 7:-0.126999 8:-0.662472 
-2 1:0.124579 2:-0.015625 3:-0.0166632 4:0.168967 5:0.505313 6:0.530286 7:-0.126999 8:-0.662472 
-0.320698225870008 1:0.481481 2:0.359375 3:-0.899849 4:0.499772 5:0.48241 6:0.32334 7:0.0723455 8:-0.440415 
-2 1:-0.151515 2:0.4375 3:-0.891377 4:0.156136 5:0.483853 6:0.707158 7:-0.33335 8:-0.612139 
-2 1:-0.129068 2:0.453125 3:-0.893605 4:0.156136 5:0.483853 6:0.72501 7:-0.371487 8:-0.634345 
-2 1:0.0707071 2:0.484375 3:-0.872057 4:0.156136 5:0.577934 6:0.437965 7:-0.134156 8:-0.581051 
-2 1:0.407407 2:0.46875 3:-0.801927 4:0.156136 5:0.483853 6:0.425786 7:-0.206076 8:-0.677276 
-2 1:-0.043771 2:0.296875 3:-0.413103 4:0.143334 5:0.482483 6:0.530123 7:-0.247967 8:-0.643227 
-0.4012031563188776 1:0.744108 2:-0.96875 3:-0.1151 4:0.156136 5:0.483853 6:0.254787 7:0.663972 8:-0.203553 
-1.97252701106268 1:0.133558 2:0.484375 3:-0.814783 4:0.156136 5:0.483853 6:0.707668 7:-0.434849 8:-0.560326 
-2 1:-0.324355 2:0.421875 3:-0.889075 4:0.12269 5:0.627288 6:0.742673 7:-0.426791 8:-0.649149 
-0.5437545957140812 1:0.212121 2:0.15625 3:-0.425983 4:0.69115 5:0.300098 6:0.65265 7:-0.143765 8:-0.406366 
-1.758740012660678 1:0.0662177 2:0.453125 3:-0.838804 4:0.156136 5:0.483853 6:0.695473 7:-0.318085 8:-0.505551 
-0.2880224390106181 1:0.560045 2:-0.921875 3:0.0524138 4:0.156136 5:0.399868 6:0.457577 7:0.6928 8:-0.145818 
-0.2864293541144787 1:0.643098 2:-0.28125 3:0.518371 4:0.156136 5:0.483853 6:0.460313 7:0.167038 8:-0.453738 
-0.8341426752404583 1:0.416386 2:0.046875 3:0.205529 4:0.184335 5:0.505365 6:0.488307 7:-0.00663147 8:-0.547002 
-0.1206817283912818 1:0.272727 2:-0.921875 3:-0.00250989 4:0.149407 5:0.487676 6:0.360309 7:0.159681 8:-0.400444 
-0.04765487620686347 1:0.447811 2:-0.625 3:0.0550094 4:0.215471 5:0.493594 6:0.450146 7:0.41563 8:-0.390081 
-0.069397328910745 1:0.367003 2:-0.390625 3:0.193335 4:0.156136 5:0.00558595 6:0.430966 7:0.0661895 8:-0.552924 
-1.487355767774727 1:0.277217 2:0.28125 3:-0.713261 4:-0.0707972 5:0.491265 6:0.308934 7:-0.129601 8:-0.735011 
-0.5239542114479293 1:0.243547 2:0.375 3:-0.669895 4:0.156136 5:0.483853 6:0.560975 7:-0.0960687 8:-0.564767 
-0.3161361556821677 1:0.373737 2:-0.03125 3:-0.0697993 4:0.403997 5:0.301105 6:0.305209 7:0.5386 8:-0.323464 
-1.049632742826743 1:0.0953984 2:0.46875 3:-0.762626 4:-0.244982 5:0.483853 6:0.475604 7:-0.464728 8:-0.828275 
-2 1:0.037037 2:0.53125 3:-0.809959 4:0.194286 5:0.446334 6:0.6336 7:-0.561573 8:-0.748335 
-1.147055854096645 1:0.214366 2:0.5 3:-0.878326 4:0.322594 5:0.602195 6:0.548366 7:-0.171142 8:-0.5396 
-0.6742494264983229 1:0.468013 2:0.21875 3:-0.721537 4:-0.00305087 5:-0.412374 6:0.368562 7:0.183954 8:-0.410807 
-2 1:0.133558 2:0.484375 3:-0.759271 4:0.156136 5:0.483853 6:0.635816 7:-0.417782 8:-0.656551 
-0.2825969557309556 1:0.438833 2:0.46875 3:-0.871175 4:0.223512 5:0.927349 6:0.257896 7:0.24071 8:-0.502591 
-0.178828251889736 1:0.494949 2:-0.1875 3:-0.31878 4:0.0475308 5:0.48009 6:0.302893 7:0.729536 8:-0.227239 
-0.7452894237891069 1:0.564534 2:-0.046875 3:-0.454657 4:0.0820883 5:-0.715059 6:0.466612 7:0.459773 8:-0.11621 
-0.09042900189631392 1:0.268238 2:-0.640625 3:0.565581 4:0.171732 5:0.483853 6:0.668674 7:-0.270339 8:-0.521836 
-0.4476775686985838 1:0.189675 2:-0.46875 3:0.309622 4:0.0511234 5:0.455874 6:0.566869 7:0.0669403 8:-0.375278 
-0.2105247875623619 1:0.515152 2:-0.84375 3:0.759688 4:0.279283 5:0.538698 6:0.506508 7:-0.0439178 8:-0.518875 
-1.018307644361332 1:0.452301 2:0.4375 3:-0.426644 4:0.178518 5:0.580387 6:0.380526 7:0.185806 8:-0.483346 
-0.03119981465589896 1:0.259259 2:-0.4375 3:-0.124845 4:0.135265 5:0.091783 6:0.455394 7:0.212983 8:-0.376758 
-0.1777360555280384 1:0.405163 2:0.484375 3:-0.712771 4:0.122919 5:0.479624 6:0.516425 7:0.118741 8:-0.49963 
-0.466304969005099 1:0.353535 2:-0.75 3:1 4:0.143904 5:0.437366 6:0.584072 7:0.03591 8:-0.452258 
-0.002351158050387089 1:0.380471 2:-0.59375 3:0.904012 4:0.167541 5:0.484775 6:0.47824 7:-0.184054 8:-0.586973 
-0.2606744695033327 1:0.701459 2:-0.625 3:0.485143 4:0.15471 5:0.484364 6:0.0723271 7:0.424289 8:-0.400444 
-0.1009449411765192 1:0.69248 2:-0.84375 3:0.36031 4:0.178518 5:0.483853 6:0.381213 7:0.464528 8:-0.233161 
-1.957186190091263 1:0.0684624 2:0.015625 3:-0.129816 4:0.146983 5:0.483853 6:0.446341 7:0.0304046 8:-0.425611 
-0.4007629479468396 1:0.317621 2:0.046875 3:-0.47383 4:0.113139 5:0.162397 6:0.641179 7:-0.254423 8:-0.569208 
-0.774653633009904 1:-0.0751964 2:-0.046875 3:-0.432937 4:0.156136 5:0.380277 6:0.447717 7:-0.227697 8:-0.581051 
-0.05697889259201681 1:0.173962 3:0.00520342 4:0.156136 5:0.483853 6:0.271084 7:0.411426 8:-0.521836 
-2 1:0.0774411 2:0.1875 3:-0.0010162 4:0.156136 5:0.486881 6:0.339043 7:-0.15893 8:-0.742413 
-0.4287075260776889 1:0.488215 2:0.078125 3:-0.342238 4:0.329522 5:0.483853 6:0.351766 7:0.354521 8:-0.477424 
-0.545366760012081 1:0.485971 2:0.078125 3:-0.100653 4:0.203353 5:-0.408882 6:0.303196 7:0.101074 8:-0.663953 
-2 1:0.468013 2:0.03125 3:-0.418735 4:0.156136 5:0.483853 6:0.156607 7:0.42584 8:-0.564767 
-0.8609248119157809 1:0.382716 2:0.203125 3:-0.698446 4:0.14781 5:0.479146 6:0.235349 7:0.247867 8:-0.609178 
-0.7271839098843706 1:0.459035 2:0.203125 3:-0.516975 4:-0.00607322 5:0.473131 6:0.179514 7:0.135307 8:-0.672835 
-2 1:0.232323 2:0.484375 3:-0.810742 4:0.156136 5:0.458863 6:0.46665 7:-0.47659 8:-0.832717 
-1.638833912264493 1:0.526375 2:-0.03125 3:-0.42089 4:0.0895301 5:0.479344 6:-0.00109654 7:0.351818 8:-0.61362 
-0.1430852931557978 1:0.268238 2:-0.703125 3:-0.116055 4:0.156136 5:0.484735 6:0.259957 7:-0.017442 8:-0.680237 
-0.5378463994112548 1:0.387205 2:0.078125 3:-0.434872 4:0.200901 5:0.501107 6:0.280014 7:-0.723631 8:-0.877128 
-2 1:0.481481 2:0.125 3:-0.550449 4:0.172844 5:0.48844 6:0.214046 7:0.10793 8:-0.65507 
-0.6294029629521535 1:0.492705 2:0.296875 3:-0.49173 4:0.211337 5:0.488044 6:0.124258 7:-0.197918 8:-0.780903 
-1.012924130343572 1:0.317621 2:0.015625 3:-0.359134 4:0.156136 5:-0.0880631 6:0.324041 7:-0.105228 8:-0.727609 
-0.5473371442007062 1:0.923681 2:-0.234375 3:-0.565435 4:0.156136 5:0.483853 6:0.0582237 7:0.810565 8:-0.410807 
-0.4955874623804294 1:0.56229 2:0.34375 3:-0.966625 4:0.156136 5:0.483853 6:0.432693 7:0.654964 8:-0.339748 
-2 1:0.463524 2:0.5625 3:-0.843383 4:0.156136 5:0.483853 6:0.0528372 7:0.0516754 8:-0.746854 
-1.837669732817814 1:0.023569 2:0.390625 3:-0.87933 4:0.115163 5:0.451917 6:0.39147 7:-0.202122 8:-0.782383 
-1.720477372900558 1:0.382716 2:0.546875 3:-0.902739 4:0.156136 5:0.483853 6:0.238283 7:-0.160181 8:-0.780903 
-2 1:0.106622 2:0.578125 3:-0.839735 4:0.191663 5:0.491789 6:0.38342 7:-0.139511 8:-0.739452 
-0.7017232501781938 1:0.492705 2:-0.09375 3:-0.48191 4:0.176123 5:0.478577 6:0.244201 7:0.256175 8:-0.584012 
-2 1:-0.239057 2:0.140625 3:0.00216707 4:0.238082 5:0.483853 6:0.560204 7:-0.184955 8:-0.601776 
-2 1:0.1156 2:-0.15625 3:-0.0466104 4:0.128849 5:0.493929 6:0.510641 7:0.0567303 8:-0.446336 
-2 1:0.1156 2:-0.15625 3:-0.0466104 4:0.128849 5:0.493929 6:0.510641 7:0.0567303 8:-0.446336 
-2 1:-0.0684624 2:0.140625 3:-0.186699 4:0.187671 5:0.485752 6:0.643639 7:-0.196216 8:-0.65359 
-0.227425331817575 1:0.741863 2:-0.140625 3:-0.183711 4:0.0309649 5:0.026429 6:0.150541 7:0.329096 8:-0.548483 
-2 1:0.0639731 2:-0.078125 3:0.0296167 4:0.156136 5:-0.079086 6:0.336357 7:-0.0484222 8:-0.721688 
-1.137947149846497 1:0.218855 2:0.015625 3:-0.192257 4:0.18117 5:0.264777 6:0.121654 7:0.0997723 8:-0.727609 
-2 1:0.530864 2:0.21875 3:-0.53201 4:0.173671 5:0.480641 6:0.0643782 7:0.134006 8:-0.663953 
-2 1:0.546577 2:0.234375 3:-0.288368 4:0.199475 5:0.483853 6:0.210993 7:0.0436175 8:-0.671355 
-2 1:0.56229 2:0.15625 3:-0.340328 4:0.156136 5:0.480614 6:0.147917 7:0.234904 8:-0.598816 
-2 1:0.270483 2:0.1875 3:-0.184495 4:0.0392906 5:0.47181 6:0.341443 7:-0.258877 8:-0.789785 
-0.203797673273655 1:0.52862 2:0.140625 3:-0.550792 4:-0.19115 5:0.304171 6:0.360518 7:0.560021 8:-0.390081 
-0.8051368055701813 1:0.515152 2:0.03125 3:-0.337145 4:0.333714 5:0.483853 6:0.339656 7:0.118641 8:-0.607698 
-2 1:0.690236 2:0.234375 3:-0.571067 4:0.156136 5:0.472203 6:0.0789868 7:0.34331 8:-0.65211 
-2 1:0.416386 2:0.109375 3:-0.345422 4:0.156136 5:0.473536 6:0.235156 7:0.278497 8:-0.612139 
-0.6627208715099918 1:0.499439 2:0.0625 3:-0.481225 4:0.232892 5:0.483853 6:0.224717 7:0.253172 8:-0.512953 
-2 1:0.331089 2:0.1875 3:-0.108023 4:0.17139 5:0.482897 6:0.433376 7:-0.184805 8:-0.727609 
-2 1:0.0751964 2:0.3125 3:-0.503802 4:0.156136 5:0.483853 6:0.455187 7:-0.280849 8:-0.746854 
-2 1:-0.0886644 2:0.140625 3:-0.26655 4:0.156136 5:0.486187 6:0.408506 7:-0.505718 8:-0.865285 
-2 1:0.640853 2:0.09375 3:-0.334329 4:0.151773 5:0.451883 6:0.0190013 7:0.201421 8:-0.69208 
-2 1:0.427609 2:0.265625 3:-0.667054 4:0.156136 5:0.483853 6:0.242311 7:0.145066 8:-0.625463 
-0.2579961256920117 1:0.0213244 2:0.34375 3:-0.758267 4:0.156136 5:0.483853 6:0.40426 7:0.0936163 8:-0.668394 
-1.692643311571776 1:0.402918 2:0.5 3:-0.866327 4:0.105725 5:0.477697 6:0.424449 7:-0.264633 8:-0.758697 
-2 1:0.0145903 2:0.390625 3:-0.850778 4:0.145672 5:0.463201 6:0.407092 7:-0.238708 8:-0.742413 
-0.7621860955472223 1:0.6633 2:0.53125 3:-0.901637 4:0.156136 5:0.483853 6:0.0982201 7:0.570531 8:-0.481865 
-1.046986875633325 1:0.459035 2:0.53125 3:-1 4:0.265311 5:0.550546 6:0.0292798 7:0.372038 8:-0.581051 
-1.085173180810059 1:0.52413 2:0.453125 3:-0.61862 4:0.257613 5:0.55977 6:0.201168 7:0.303871 8:-0.487787 
-0.7707580091094611 1:0.400673 2:0.046875 3:-0.189294 4:0.569942 5:0.459347 6:0.204169 7:0.0817547 8:-0.641747 
-0.9951559020398519 1:0.218855 2:0.328125 3:-0.460264 4:0.165117 5:0.285684 6:0.519294 7:-0.335602 8:-0.720207 
-0.01452017764731353 1:0.252525 2:0.234375 3:-0.373287 4:-0.0445084 5:0.485728 6:0.468977 7:0.0263006 8:-0.631384 
-0.4944509894896462 1:0.461279 2:0.34375 3:-0.774355 4:0.156136 5:0.483853 6:0.183517 7:0.059483 8:-0.663953 
-1.109695848129667 1:0.113356 2:0.375 3:-0.756039 4:0.156136 5:-0.00326633 6:0.475881 7:-0.430395 8:-0.73057 
-0.9549950552164984 1:0.023569 2:0.53125 3:-0.816521 4:0.183822 5:0.453521 6:0.722673 7:-0.568129 8:-0.831236 
-1.978105699005021 1:0.560045 2:0.125 3:-0.699989 4:0.339701 5:0.400873 6:-0.134728 7:0.0786016 8:-0.754256 
-2 1:0.349046 2:0.53125 3:-0.87622 4:0.134409 5:0.506434 6:0.232548 7:-0.228798 8:-0.749815 
-0.5050506551019264 1:0.544332 2:0.5625 3:-0.917113 4:0.0281991 5:0.446154 6:0.348111 7:0.30242 8:-0.409326 
-0.200163141765205 1:0.896745 2:-0.4375 3:-0.0276822 4:0.171162 5:0.481834 6:0.213525 7:0.264133 8:-0.527757 
-0.05921063360121793 1:0.358025 2:-0.734375 3:-0.233762 4:0.156136 5:0.483853 6:0.444293 7:0.105978 8:-0.481865 
-0.1710064816014704 1:0.194164 2:-0.390625 3:0.298064 4:0.14915 5:0.418014 6:0.241763 7:-0.0848577 8:-0.709845 
-2 1:0.102132 2:0.046875 3:0.0959756 4:0.163435 5:0.483411 6:0.415415 7:-0.315232 8:-0.754256 
-1.678079253392707 1:0.171717 2:0.328125 3:-0.439965 4:0.193602 5:0.483853 6:0.249121 7:0.0511248 8:-0.686158 
-0.4737404670620258 1:0.652076 2:-0.6875 3:-0.295836 4:0.156136 5:0.483853 6:-0.0118253 7:0.626586 8:-0.428571 
-0.1926683689054067 1:0.506173 2:-0.546875 3:0.232048 4:0.19671 5:0.481862 6:0.0546526 7:0.0391131 8:-0.662472 
-0.2113984766041823 1:0.746352 2:0.046875 3:-0.577409 4:0.221031 5:0.501396 6:0.0544219 7:0.349165 8:-0.57809 
-0.1145912855432955 1:0.930415 2:0.4375 3:-0.8104 4:0.156136 5:0.483853 6:-0.101916 7:0.321789 8:-0.733531 
-0.06215505358497332 1:0.537598 2:0.5625 3:-0.94133 4:0.156136 5:0.483853 6:0.361872 7:0.13851 8:-0.557365 
-2 1:0.358025 2:0.328125 3:-0.732311 4:0.156136 5:0.483853 6:-0.0817157 7:0.355572 8:-0.680237 
-0.4159218235529712 1:0.777778 2:0.484375 3:-0.953769 4:0.156136 5:0.452809 6:0.209125 7:0.146268 8:-0.669874 
-0.3828140857569779 1:0.0549944 2:0.4375 3:-0.82803 4:0.156136 5:0.452565 6:0.296075 7:-0.0142889 8:-0.662472 
-0.2794241068022679 1:0.694725 2:-0.375 3:0.243532 4:0.149122 5:0.185526 6:0.209155 7:0.177348 8:-0.628423 
-2 1:0.00112233 2:0.46875 3:-0.69683 4:0.147554 5:0.426154 6:0.280626 7:-0.338555 8:-0.826795 
-1.398421715264849 1:0.602694 2:0.3125 3:-0.823133 4:0.174498 5:0.486452 6:0.0927492 7:0.268437 8:-0.65359 
-0.02761040282938216 1:0.582492 2:-0.875 3:0.367827 4:0.156136 5:0.317087 6:0.21635 7:0.502815 8:-0.475944 
-0.04503386591558704 1:0.604938 2:-0.875 3:0.591023 4:0.153228 5:0.482909 6:0.202837 7:0.274242 8:-0.598816 
-0.5023368541890233 1:0.299663 2:-0.859375 3:0.8104 4:0.0436531 5:0.479986 6:0.40127 7:-0.156077 8:-0.696521 
-0.1124805228305926 1:0.436588 2:-0.96875 3:0.418906 4:0.154197 5:0.512144 6:0.177849 7:0.511474 8:-0.400444 
-0.07120102102732413 1:0.56229 2:-0.984375 3:0.355682 4:0.156136 5:0.485292 6:0.236064 7:0.572383 8:-0.419689 
-0.08864434634380951 1:0.544332 2:-0.984375 3:0.543397 4:0.156136 5:0.483853 6:0.376869 7:0.229249 8:-0.46114 
-0.8087594888123445 1:0.286195 2:-0.375 3:0.66654 4:0.0451357 5:0.447731 6:0.32369 7:-0.2311 8:-0.745374 
-0.06640922130077027 1:0.315376 2:-0.75 3:0.661667 4:0.0739621 5:0.480394 6:0.248502 7:-0.0828057 8:-0.678756 
-0.1566633376344818 1:0.506173 2:-0.84375 3:0.54107 4:0.173871 5:0.482811 6:0.102099 7:0.214784 8:-0.610659 
-0.09792108124615487 1:0.56229 2:-0.421875 3:0.262828 4:0.119354 5:0.504619 6:0.020259 7:0.183154 8:-0.621021 
-0.3619550134416571 1:0.494949 2:-0.953125 3:0.642886 4:0.152486 5:0.489636 6:0.26433 7:0.48755 8:-0.381199 
-0.02812335036744851 1:0.586981 2:-0.828125 3:0.414278 4:0.111799 5:0.48237 6:0.32736 7:0.0291034 8:-0.628423 
-1.334499136810943 1:-0.037037 2:-0.53125 3:0.34552 4:0.221202 5:0.453737 6:0.289253 7:-0.0119867 8:-0.658031 
-0.1342260070538283 1:0.268238 2:-0.796875 3:0.0587558 4:0.156136 5:0.483853 6:0.130002 7:0.178899 8:-0.61362 
-0.1169621162311414 1:0.248036 2:-0.3125 3:0.36173 4:0.156136 5:0.424072 6:0.475749 7:0.042016 8:-0.490748 
-0.1319693893631819 1:0.640853 2:-0.765625 3:-0.2296 4:0.156136 5:0.541712 6:0.328771 7:0.365231 8:-0.372317 
-0.7063161118274478 1:0.349046 2:0.296875 3:-0.593031 4:0.156136 5:0.495101 6:0.275141 7:0.0109357 8:-0.669874 
-2 1:0.126824 2:0.46875 3:-0.846077 4:0.156136 5:0.483853 6:0.450871 7:-0.191662 8:-0.772021 
-2 1:-0.0864198 2:0.15625 3:-0.30541 4:0.156136 5:0.483853 6:0.837445 7:-0.370837 8:-0.351591 
-0.002117208071477442 1:0.18743 2:-0.21875 3:-0.491509 4:0.0198734 5:0.496623 6:0.581797 7:0.368134 8:0.080681 
-1.217779595768114 1:-0.542088 2:0.265625 3:-0.715563 4:0.156136 5:0.49718 6:0.847215 7:-0.392257 8:-0.419689 
-0.5683739315252828 1:0.0729517 2:0.234375 3:-0.495133 4:0.156136 5:0.425399 6:0.598949 7:0.1793 8:-0.00370096 
-2 1:0.0639731 2:0.5 3:-0.790296 4:0.156136 5:0.483853 6:0.587893 7:-0.136458 8:-0.465581 
-0.4458103478077952 1:0.0953984 2:-0.203125 3:-0.0451167 4:0.156136 5:0.483853 6:0.939469 7:0.400415 8:0.0259067 
-2 1:0.268238 2:0.421875 3:-0.435459 4:0.156136 5:0.483853 6:0.711878 7:-0.0766497 8:-0.157661 
-0.5658015738994375 1:0.173962 2:-0.03125 3:-0.22884 4:0.156136 5:0.483853 6:0.902774 7:-0.426541 8:-0.296817 
-0.2800563487248474 1:0.571268 2:0.484375 3:-0.0451167 4:0.156136 5:0.483853 6:0.647959 7:0.368634 8:0.218357 
-1.919256070210347 1:-0.0527497 2:0.109375 3:-0.435973 4:0.156136 5:0.483853 6:0.759097 7:0.00132629 8:-0.126573 
-2 1:-0.0527497 2:0.109375 3:-0.435973 4:0.156136 5:0.483853 6:0.759097 7:0.00132629 8:-0.126573 
-0.3849796857390461 1:0.465769 2:-0.515625 3:-0.586493 4:0.156136 5:0.483853 6:0.512505 7:0.467781 8:-0.0125833 
-2 1:0.227834 2:0.453125 3:-0.183491 4:0.217895 5:0.504997 6:0.679425 7:-0.00207703 8:-0.172465 
-1.029021734864369 1:0.593715 2:0.546875 3:-0.982565 4:0.156136 5:0.483853 6:0.468261 7:0.544005 8:0.179867 
-0.4674201687307179 1:0.236813 2:-0.296875 3:-0.453016 4:0.590243 5:0.440854 6:0.583842 7:0.271189 8:0.099926 
-1.248140216871511 1:-0.00785634 2:0.203125 3:-0.585269 4:0.240448 5:0.483853 6:0.84356 7:-0.316584 8:-0.357513 
-2 1:0.189675 2:0.53125 3:-0.538181 4:0.156136 5:0.483853 6:0.601575 7:-0.175346 8:-0.26869 
-2 1:0.189675 2:0.53125 3:-0.538181 4:0.156136 5:0.483853 6:0.601575 7:-0.175346 8:-0.26869 
-0.419542827091178 1:0.0953984 2:0.375 3:-0.0769494 4:0.156136 5:-0.0948972 6:0.792004 7:-0.145567 8:-0.0762398 
-0.001033704403570811 1:0.196409 2:-0.3125 3:-0.599324 4:0.156136 5:0.483853 6:0.940084 7:-0.342159 8:0.131014 
-0.3195092883241166 1:0.196409 2:-0.3125 3:-0.599324 4:0.156136 5:0.483853 6:0.940084 7:-0.342159 8:0.131014 
-0.3149041585078026 1:0.196409 2:0.34375 3:-0.949019 4:0.156136 5:0.483853 6:0.841147 7:-0.451015 8:-0.301258 
-1.484720579633987 1:0.333333 2:0.515625 3:-0.856434 4:0.156136 5:0.416428 6:0.843128 7:-0.482545 8:-0.46262 
-0.05588715528492866 1:0.135802 2:-0.375 3:-0.308447 4:0.156136 5:0.483853 6:0.695808 7:0.36453 8:-0.107328 
-0.05648234622110364 1:0.69697 2:0.375 3:-0.876783 4:0.156136 5:0.483853 6:0.494272 7:0.840845 8:0.496669 
-0.2833294743663886 1:0.0864198 2:-0.515625 3:-0.486661 4:0.156136 5:0.483853 6:0.76468 7:-0.170441 8:-0.296817 
-0.5757409401655582 1:0.463524 2:0.5625 3:-0.408401 4:-0.0226391 5:0.0941666 6:0.67651 7:0.414029 8:0.38416 
-0.1326000136416108 1:0.0729517 2:0.328125 3:-0.0414927 4:0.163065 5:0.455521 6:0.689928 7:-0.225895 8:-0.224278 
-0.1913651827788427 1:0.382716 2:-0.96875 3:0.089805 4:0.156136 5:0.483853 6:0.708153 7:0.428142 8:0.262768 
-0.2298091456116437 1:0.506173 2:-0.703125 3:-0.100261 4:0.416429 5:0.483853 6:0.661504 7:0.242662 8:0.286454 
-1.414078266752216 1:0.0751964 2:0.171875 3:-0.142206 4:0.156136 5:0.483853 6:0.724704 7:-0.174645 8:-0.170984 
-0.9960158934019488 1:0.016835 2:-0.015625 3:0.0946288 4:0.156136 5:0.586406 6:0.746723 7:-0.459423 8:-0.452258 
-0.2638524513226797 1:0.209877 2:0.09375 3:0.386143 4:0.156136 5:0.434736 6:0.727611 7:0.324992 8:0.206514 
-0.159969811210723 1:0.705948 2:-0.5625 3:0.186038 4:0.156136 5:0.483853 6:0.58884 7:0.436501 8:0.113249 
-2 1:0.367003 2:0.4375 3:-0.651432 4:0.156136 5:0.483853 6:0.812665 7:-0.110933 8:-0.11473 
-2 1:-0.108866 2:0.40625 3:-0.60454 4:0.156136 5:0.483853 6:0.906015 7:-0.576487 8:-0.412287 
-0.1308682767321983 1:0.32211 2:0.359375 3:-0.542344 4:0.156136 5:0.483853 6:0.566374 7:0.420185 8:0.0866025 
-0.7085957525253095 1:0.782267 2:0.921875 3:-0.702242 4:0.156136 5:0.483853 6:0.443372 7:0.659968 8:0.200592 
-0.01676576156524708 1:0.230079 2:0.578125 3:0.184911 4:0.156136 5:0.488005 6:0.737332 7:-0.0459198 8:0.061436 
-1.319346678158579 1:0.230079 2:0.578125 3:0.184911 4:0.156136 5:0.488005 6:0.737332 7:-0.0459198 8:0.061436 
-0.1473703190760931 1:0.274972 2:-0.046875 3:-0.436953 4:0.149635 5:-0.0291565 6:0.644761 7:-0.091314 8:-0.246484 
-0.2254584187359595 1:0.533109 2:-0.796875 3:0.129718 4:0.156136 5:0.48223 6:0.520442 7:0.00482971 8:-0.022946 
-2 1:0.0707071 2:-0.125 3:0.358253 4:0.0654083 5:0.456577 6:0.728978 7:-0.399765 8:-0.443375 
-0.1919843618060629 1:-0.0953984 2:0.28125 3:-0.666785 4:0.122548 5:0.458437 6:0.741872 7:-0.305072 8:-0.369356 
-0.9065510241808796 1:-0.0953984 2:0.28125 3:-0.666785 4:0.122548 5:0.458437 6:0.741872 7:-0.305072 8:-0.369356 
-2 1:-0.0953984 2:0.28125 3:-0.666785 4:0.122548 5:0.458437 6:0.741872 7:-0.305072 8:-0.369356 
-2 1:0.023569 2:0.21875 3:-0.208614 4:0.156136 5:-0.0100121 6:0.679098 7:-0.331799 8:-0.504071 
-0.05182456627489593 1:0.364759 2:0.59375 3:-0.0395583 4:0.156136 5:0.483853 6:0.680942 7:0.051275 8:0.19171 
-0.5266521129715899 1:0.364759 2:0.59375 3:-0.0395583 4:0.156136 5:0.483853 6:0.680942 7:0.051275 8:0.19171 
-0.0169430382697709 1:0.535354 2:-0.34375 3:-0.436463 4:0.156136 5:0.483853 6:0.666251 7:0.390506 8:0.458179 
-0.3392489377881214 1:0.802469 2:0.078125 3:-0.52557 4:0.156136 5:0.483853 6:0.56582 7:0.402117 8:0.202073 
-0.4664765901286019 1:0.506173 2:0.0625 3:-0.736548 4:0.156136 5:0.483853 6:0.57254 7:0.820375 8:0.2302 
-0.5194741937692658 1:0.683502 2:-0.78125 3:-0.649399 4:0.156136 5:0.483853 6:0.552244 7:0.754611 8:0.398964 
-0.129255117730543 1:0.481481 2:-0.46875 3:-0.226735 4:0.156136 5:0.483853 6:0.58048 7:0.731088 8:0.311621 
-0.08012620408394298 1:0.589226 2:-0.890625 3:-0.224408 4:0.156136 5:0.483853 6:0.623455 7:0.389555 8:0.388601 
-0.04161175640660383 1:0.52413 2:0.203125 3:-0.8104 4:0.156136 5:0.483853 6:0.614136 7:0.521834 8:0.236121 
-2 1:0.209877 2:0.546875 3:-0.793332 4:0.156136 5:0.483853 6:0.726822 7:-0.252671 8:-0.344189 
-2 1:0.209877 2:0.546875 3:-0.793332 4:0.156136 5:0.483853 6:0.726822 7:-0.252671 8:-0.344189 
-0.02936951269060977 1:0.497194 2:-0.171875 3:-0.698887 4:0.156136 5:0.483853 6:0.600576 7:0.416381 8:0.147298 
-0.773136077204751 1:0.223345 2:0.25 3:-0.528288 4:-1 5:0.483853 6:0.820985 7:-0.164736 8:-0.125093 
-0.7652013593696224 1:-0.0145903 2:0.25 3:-0.469765 4:0.156136 5:0.483853 6:0.773783 7:-0.39511 8:-0.329386 
-0.06982766489250379 1:0.512907 2:-0.65625 3:0.288245 4:0.156136 5:0.483853 6:0.579751 7:0.565827 8:0.261288 
-0.3476937759176512 1:0.28844 2:-0.15625 3:-0.134224 4:0.59643 5:0.45844 6:0.629789 7:0.254073 8:-0.0836417 
-2 1:0.0572391 2:0.5 3:-0.63745 4:0.156136 5:0.483853 6:0.870943 7:-0.330948 8:-0.0377498 
-0.1863987055035281 1:0.580247 2:-0.03125 3:-0.223037 4:0.13344 5:0.479959 6:0.640112 7:0.584995 8:0.444856 
-0.451695123662262 1:-0.129068 2:0.125 3:-0.225584 4:0.300667 5:0.14297 6:0.667857 7:-0.263782 8:-0.437454 
-0.6722230184114567 1:0.465769 2:-0.359375 3:-0.491509 4:0.156136 5:0.483853 6:0.471409 7:-0.506269 8:0.144338 
-1.619975914907049 1:-0.0347924 2:0.5625 3:-0.842183 4:0.156136 5:-0.0648883 6:0.625714 7:-0.621331 8:-0.57661 
-0.7433557424110618 1:-0.0145903 2:-0.046875 3:-0.193555 4:0.354585 5:0.483853 6:0.880918 7:-0.754661 8:-0.333827 
-2 1:-0.129068 2:0.515625 3:-0.335137 4:0.156136 5:0.449262 6:0.915625 7:-0.45652 8:-0.000740192 
-0.3814935283118681 1:-0.0347924 2:0.140625 3:-0.430513 4:0.156136 5:0.716337 6:0.805549 7:0.0528766 8:0.444856 
-0.007872017750729515 1:0.564534 2:-0.9375 3:-0.60214 4:0.156136 5:0.483853 6:0.762446 7:0.478391 8:0.973353 
-0.7312906592043023 1:0.564534 2:-0.9375 3:-0.60214 4:0.156136 5:0.483853 6:0.762446 7:0.478391 8:0.973353 
-0.6152752749975294 1:-0.023569 2:0.296875 3:-0.358816 4:0.156136 5:0.450489 6:0.892693 7:-0.385451 8:-0.0436714 
-0.1288457144234568 1:0.358025 2:-0.8125 3:-0.291894 4:0.156136 5:0.461789 6:0.76526 7:0.33345 8:0.508512 
-2 1:0.200898 2:0.203125 3:0.252886 4:0.156136 5:0.503064 6:0.920294 7:-0.451515 8:-0.0629164 
-0.1310637035309221 1:0.479237 2:-0.5 3:0.380829 4:0.156136 5:0.483853 6:0.85112 7:-0.0356097 8:0.438934 
-0.5315389811379261 1:0.670034 2:0.46875 3:-0.687231 4:0.156136 5:0.483853 6:0.71179 7:0.604815 8:0.706884 
-0.3279174383769438 1:0.445567 2:-0.875 3:0.199824 4:0.156136 5:0.483853 6:0.790177 7:0.380396 8:0.73057 
-0.0366143729994064 1:-0.283951 2:-0.296875 3:0.321204 4:0.0873631 5:0.489658 6:0.937785 7:-0.683341 8:-0.301258 
-1.456206748985749 1:-0.283951 2:-0.296875 3:0.321204 4:0.0873631 5:0.489658 6:0.937785 7:-0.683341 8:-0.301258 
-0.024033215258369 1:0.387205 2:-0.453125 3:0.222768 4:0.156136 5:0.483853 6:0.841711 7:-0.229699 8:0.206514 
-0.02867747007298682 1:0.378227 2:-0.96875 3:0.260306 4:0.156136 5:0.488747 6:0.88569 7:-0.172493 8:0.305699 
-0.3549164893664177 1:0.378227 2:-0.96875 3:0.260306 4:0.156136 5:0.488747 6:0.88569 7:-0.172493 8:0.305699 
-0.60711037495876 1:0.508418 2:-0.078125 3:0.0569928 4:0.156136 5:0.483853 6:0.627173 7:0.734291 8:0.752776 
-0.7201709895822905 1:0.223345 2:-0.109375 3:0.0617432 4:0.156136 5:0.483853 6:0.882221 7:-0.488902 8:0.034789 
-0.347059181378068 1:0.32211 2:0.21875 3:0.319245 4:0.156136 5:0.549133 6:0.749357 7:0.336203 8:0.515914 
-2 1:0.198653 2:0.625 3:-0.888488 4:0.156136 5:0.483853 6:0.835451 7:-0.469733 8:-0.296817 
-2 1:0.198653 2:0.625 3:-0.888488 4:0.156136 5:0.483853 6:0.835451 7:-0.469733 8:-0.296817 
-0.7772942150102244 1:-0.398429 2:0.359375 3:-0.902739 4:1 5:0.359281 6:0.910939 7:-0.645955 8:-0.458179 
-0.001540938798162219 1:0.762065 2:0.53125 3:-0.960307 4:0.156136 5:0.483853 6:0.358769 7:0.0454693 8:-0.382679 
-0.7436526577416662 1:0.762065 2:0.53125 3:-0.960307 4:0.156136 5:0.483853 6:0.358769 7:0.0454693 8:-0.382679 
-0.001391341115189446 1:0.360269 2:0.921875 3:-0.702854 4:0.156136 5:0.483853 6:0.876247 7:-0.0355597 8:1 
-0.7564093791672333 1:0.360269 2:0.921875 3:-0.702854 4:0.156136 5:0.483853 6:0.876247 7:-0.0355597 8:1 
-0.6698486141042116 1:0.0280584 2:0.546875 3:-0.805992 4:0.156136 5:0.483853 6:1 7:-0.755211 8:0.129534 
-0.4794222651874275 1:0.492705 2:-0.296875 3:-0.766838 4:0.156136 5:0.483853 6:0.706435 7:0.185406 8:0.435973 
-0.1165567992959144 1:0.203143 2:-0.40625 3:-0.44376 4:0.156136 5:0.483853 6:0.828538 7:-0.14897 8:0.302739 
-0.1982329408028193 1:0.613917 2:-0.15625 3:-0.15827 4:0.156136 5:0.483853 6:0.7173 7:0.0293536 8:0.182828 
-0.07869962445937737 1:0.548822 3:-0.865225 4:0.156136 5:0.483853 6:0.751055 7:0.247066 8:0.631384 
-0.09459277897325802 1:0.216611 2:-0.53125 3:-0.101289 4:0.156136 5:0.483853 6:0.806593 7:0.0948675 8:0.554404 
-0.06023908213875175 1:0.198653 2:-0.375 3:-0.247891 4:0.156136 5:0.483853 6:0.638022 7:0.186507 8:0.361954 
-0.3542624255277445 1:0.553311 2:-0.859375 3:0.808906 4:0.156136 5:0.483853 6:0.673349 7:0.257476 8:0.38416 
-0.2116503171073238 1:0.2211 2:-0.9375 3:0.55062 4:0.156136 5:0.483853 6:0.868005 7:-0.24126 8:0.197631 
-0.2839994448256433 1:0.375982 2:-0.296875 3:0.363542 4:0.156136 5:0.483853 6:0.766487 7:0.522534 8:0.139896 
-0.03896631442053166 1:-0.138047 2:-0.4375 3:0.317654 4:0.156136 5:0.272482 6:0.816641 7:-0.294062 8:0.0821614 
-0.09360909976412032 1:-0.138047 2:-0.4375 3:0.317654 4:0.156136 5:0.272482 6:0.816641 7:-0.294062 8:0.0821614 
-2 1:0.0190797 2:-0.140625 3:0.511148 4:0.156136 5:0.483853 6:0.885228 7:-0.592152 8:-0.129534 
-0.05495327588676183 1:0.472503 2:-0.140625 3:0.670238 4:0.156136 5:0.483853 6:0.811558 7:-0.00828308 8:0.261288 
-0.3890036206087151 1:0.472503 2:-0.140625 3:0.670238 4:0.156136 5:0.483853 6:0.811558 7:-0.00828308 8:0.261288 
-0.5556762560865811 1:0.281706 2:0.375 3:-0.666907 4:0.156136 5:0.512674 6:0.485203 7:0.353219 8:-0.169504 
-2 1:0.203143 2:0.59375 3:-0.657798 4:0.156136 5:0.483853 6:0.600036 7:0.0623858 8:-0.311621 
-1.040811497561368 1:0.0392817 2:0.5 3:-0.967286 4:0.156136 5:0.483853 6:0.73521 7:-0.119492 8:-0.34567 
-0.04080670225317323 1:0.411897 2:0.578125 3:-0.744947 4:0.156136 5:0.483853 6:0.737143 7:0.275694 8:0.592894 
-0.2414085523133803 1:0.411897 2:0.578125 3:-0.744947 4:0.156136 5:0.483853 6:0.737143 7:0.275694 8:0.592894 
-0.0806869210053741 1:0.503928 2:-0.71875 3:0.0263844 4:0.156136 5:0.383747 6:0.755999 7:0.475589 8:0.61362 
-0.04149739737454122 1:0.326599 2:-0.890625 3:-0.115736 4:0.156136 5:0.478297 6:0.866785 7:-0.0549786 8:0.504071 
-2 1:0.0998878 2:0.421875 3:-0.289567 4:0.156136 5:0.483853 6:0.885423 7:-0.406972 8:-0.0762398 
-0.2912220542918646 1:0.470258 2:-0.96875 3:-0.247671 4:0.156136 5:0.483853 6:0.825172 7:-0.133055 8:0.213916 
-0.5904280104312245 1:0.265993 2:-0.078125 3:-0.32997 4:0.156136 5:0.483853 6:0.854641 7:0.280949 8:0.970392 
-0.04805115773059199 1:-0.301908 2:0.046875 3:-0.324926 4:0.156136 5:0.194023 6:0.911885 7:-0.418133 8:-0.108808 
-0.6834798506765976 1:-0.301908 2:0.046875 3:-0.324926 4:0.156136 5:0.194023 6:0.911885 7:-0.418133 8:-0.108808 
-0.006409968427101999 1:0.530864 2:-0.6875 3:0.460901 4:0.156136 5:0.483853 6:0.696723 7:0.430845 8:0.484826 
-0.005266224668809007 1:-0.0594837 2:-0.390625 3:0.757337 4:0.156136 5:0.483853 6:0.898488 7:-0.566627 8:-0.210955 
-0.4476157010312486 1:-0.0594837 2:-0.390625 3:0.757337 4:0.156136 5:0.483853 6:0.898488 7:-0.566627 8:-0.210955 
-0.1864801388317202 1:0.196409 2:-0.546875 3:0.678024 4:0.156136 5:0.483853 6:0.855987 7:-0.467581 8:-0.0214656 
-0.0449029055928846 1:0.586981 2:-0.6875 3:0.650942 4:0.156136 5:0.483853 6:0.694963 7:0.257476 8:0.535159 
-0.05561295715512165 1:0.546577 2:-0.90625 3:0.509948 4:0.156136 5:0.483853 6:0.661834 7:0.320487 8:0.487787 
-0.1541914080221884 1:0.546577 2:-0.90625 3:0.509948 4:0.156136 5:0.483853 6:0.661834 7:0.320487 8:0.487787 
-0.328399675395369 1:0.15376 2:-0.578125 3:0.628341 4:0.0861941 5:0.493898 6:0.83655 7:0.155026 8:0.600296 
-1.893692030024138 1:0.0931538 2:-0.234375 3:0.397333 4:0.156136 5:0.494747 6:0.806372 7:-0.36443 8:-0.168024 
-0.2753574284775148 1:0.0931538 2:-0.234375 3:0.397333 4:0.156136 5:0.494747 6:0.806372 7:-0.36443 8:-0.168024 
-2 1:0.0976431 2:0.5625 3:-0.867233 4:0.156136 5:0.483853 6:0.60938 7:0.0381622 8:-0.310141 
-2 1:0.0976431 2:0.5625 3:-0.867233 4:0.156136 5:0.483853 6:0.60938 7:0.0381622 8:-0.310141 
-2 1:0.182941 2:0.40625 3:-0.838167 4:0.197993 5:0.514991 6:0.737108 7:-0.14827 8:-0.233161 
-1.418064043391956 1:-0.447811 2:0.53125 3:-0.65535 4:0.156136 5:0.483853 6:0.946295 7:-0.622882 8:-0.207994 
-0.02216518562054475 1:0.214366 2:0.484375 3:-0.249507 4:0.156136 5:0.399433 6:0.83363 7:-0.0603338 8:0.509993 
-0.1076810263616245 1:0.214366 2:0.484375 3:-0.249507 4:0.156136 5:0.399433 6:0.83363 7:-0.0603338 8:0.509993 
-0.03376474759206307 1:0.274972 2:-0.078125 3:-0.264101 4:0.156136 5:0.483853 6:0.720174 7:0.395561 8:0.495189 
-0.2735612826081606 1:0.290685 2:0.171875 3:-0.208296 4:0.156136 5:0.483853 6:0.886399 7:-0.222041 8:0.523316 
-0.3439081485736734 1:0.441077 2:-0.8125 3:-0.071342 4:0.156136 5:0.483853 6:0.665479 7:0.154576 8:0.761658 
-2 1:-0.0841751 2:0.40625 3:-0.269464 4:0.156136 5:0.483853 6:0.813007 7:-0.150572 8:-0.0377498 
-0.3086066013594528 1:0.14927 2:-0.3125 3:-0.0831691 4:0.156136 5:0.483853 6:0.882013 7:-0.3843 8:0.416728 
-0.1646612555888971 1:0.405163 2:0.625 3:-0.160327 4:0.137945 5:0.478361 6:0.771195 7:0.15938 8:0.595855 
-0.6068781522588863 1:0.450056 2:0.015625 3:-0.273822 4:0.156136 5:0.00742459 6:0.803065 7:0.0131879 8:0.388601 
-0.001133457168013344 1:0.427609 2:-0.109375 3:0.632773 4:0.156136 5:0.483853 6:0.723163 7:0.363329 8:0.561806 
-0.421965425403426 1:0.427609 2:-0.109375 3:0.632773 4:0.156136 5:0.483853 6:0.723163 7:0.363329 8:0.561806 
-0.04172741702564974 1:0.364759 2:-0.75 3:0.904918 4:0.156136 5:0.483853 6:0.811565 7:0.0559295 8:0.444856 
-0.2649710875833536 1:0.364759 2:-0.75 3:0.904918 4:0.156136 5:0.483853 6:0.811565 7:0.0559295 8:0.444856 
-0.6030588725977987 1:0.35578 2:-0.84375 3:0.725235 4:0.156136 5:0.483853 6:0.813196 7:0.219539 8:0.927461 
-0.3171607343267203 1:0.405163 2:-0.453125 3:0.327767 4:0.156136 5:0.483853 6:0.742877 7:0.314181 8:0.794226 
-0.3695106621285855 1:0.463524 2:-0.6875 3:0.80991 4:0.156136 5:0.483853 6:0.746603 7:-0.102175 8:0.0658771 
-0.2622106084527103 1:0.167228 2:-0.6875 3:0.527921 4:0.156136 5:0.483853 6:0.919801 7:-0.192563 8:0.407846 
-0.001660875377110805 1:-0.0190797 2:-0.1875 3:0.533675 4:0.156136 5:0.483853 6:0.866248 7:-0.119291 8:0.242043 
-0.3623174603071634 1:-0.0190797 2:-0.1875 3:0.533675 4:0.156136 5:0.483853 6:0.866248 7:-0.119291 8:0.242043 
-0.207663838095421 1:0.0639731 2:-0.28125 3:-0.0215116 4:0.156136 5:0.483853 6:0.889568 7:-0.0423163 8:0.416728 
-0.0009773386219551403 1:-0.0684624 2:-0.3125 3:-0.083218 4:0.156136 5:0.521934 6:0.849332 7:-0.265234 8:0.170984 
-0.1546332480003746 1:0.409652 2:-0.5 3:-0.208492 4:0.241874 5:0.483853 6:0.746803 7:0.29236 8:0.695041 
-0.2715926907124397 1:0.257015 2:0.234375 3:-0.0980815 4:0.156136 5:0.483853 6:0.836148 7:0.223693 8:0.680237 
-0.4090248264982464 1:0.292929 2:-1 3:-0.325563 4:0.156136 5:0.483853 6:0.832586 7:-0.00803283 8:0.42413 
-0.09512073220642074 1:0.158249 2:-0.15625 3:-0.249605 4:0.156136 5:0.483853 6:0.823762 7:0.170892 8:0.686158 
-0.4552767454102331 1:-0.0347924 2:-0.75 3:0.0177651 4:0.156136 5:0.483853 6:0.926267 7:-0.293111 8:0.148779 
-0.02169309218726126 1:0.261504 2:0.0625 3:-0.487175 4:0.156136 5:0.483853 6:0.895289 7:-0.031756 8:0.609178 
-0.1115710514348854 1:0.261504 2:0.0625 3:-0.487175 4:0.156136 5:0.483853 6:0.895289 7:-0.031756 8:0.609178 
-0.7474452053787701 1:0.0864198 2:0.09375 3:-0.0873808 4:0.156136 5:0.483853 6:0.826152 7:-0.120092 8:-0.0895633 
-0.02121059360026918 1:-0.535354 2:0.484375 3:-0.197228 4:0.156136 5:0.400727 6:0.859665 7:-0.885839 8:-0.465581 
-1.458123564421131 1:-0.535354 2:0.484375 3:-0.197228 4:0.156136 5:0.400727 6:0.859665 7:-0.885839 8:-0.465581 
-0.251887361161604 1:0.0684624 2:-0.140625 3:-0.220246 4:0.156136 5:0.483853 6:0.921559 7:-0.393108 8:0.0451517 
-0.7660444778893297 1:0.295174 2:0.34375 3:-0.685297 4:0.156136 5:0.860269 6:0.583032 7:-0.16899 8:-0.455218 
-0.009627372729228152 1:0.371493 2:-0.140625 3:-0.232685 4:0.156136 5:0.483853 6:0.76168 7:0.391407 8:0.705403 
-0.0655176718916812 1:0.515152 2:-0.328125 3:0.188437 4:0.156136 5:0.483853 6:0.817438 7:0.0511248 8:0.512953 
-0.1985541260940404 1:0.515152 2:-0.328125 3:0.188437 4:0.156136 5:0.483853 6:0.817438 7:0.0511248 8:0.512953 
-2 1:0.225589 2:0.5 3:-0.662426 4:0.156136 5:0.483853 6:0.852497 7:-0.392408 8:-0.0792006 
-0.01216637362148955 1:0.459035 2:0.0625 3:-0.657431 4:0.156136 5:0.483853 6:0.665652 7:-0.80471 8:0.737972 
-0.7544852081523375 1:0.459035 2:0.0625 3:-0.657431 4:0.156136 5:0.483853 6:0.665652 7:-0.80471 8:0.737972 
-0.008142044229475695 1:0.537598 2:0.1875 3:-0.32189 4:0.156136 5:0.223943 6:0.192463 7:-0.184455 8:-0.788305 
-0.3452510906523886 1:0.250281 2:0.296875 3:-0.485755 4:0.557168 5:0.47164 6:0.422014 7:-0.447762 8:-0.797187 
-0.184258228086225 1:0.604938 2:-0.390625 3:-0.158368 4:0.408531 5:0.492976 6:-0.0791119 7:0.32329 8:-0.603257 
-0.03925962430701884 1:0.283951 2:0.0625 3:-0.0953879 4:0.156136 5:0.165021 6:0.374245 7:-0.0446686 8:-0.677276 
-2 1:-0.00561167 2:0.140625 3:-0.461146 4:0.158445 5:0.482939 6:0.482192 7:-0.148119 8:-0.712805 
-0.5837482819378554 1:0.551066 2:0.328125 3:-0.27632 4:0.236656 5:0.469615 6:0.0178583 7:0.32279 8:-0.629904 
-2 1:0.551066 2:0.328125 3:-0.27632 4:0.236656 5:0.469615 6:0.0178583 7:0.32279 8:-0.629904 
-1.199144249300399 1:0.126824 2:0.53125 3:-0.842183 4:0.156136 5:0.483853 6:0.207701 7:0.0283026 8:-0.650629 
-2 1:0.371493 2:0.484375 3:-0.65273 4:0.238452 5:0.483472 6:0.181455 7:0.121043 8:-0.621021 
-0.04724151628016807 1:0.753086 2:-0.515625 3:-0.102856 4:0.0644104 5:0.430167 6:-0.0693771 7:0.405771 8:-0.505551 
-0.2388997150139006 1:0.501684 2:0.171875 3:-0.388763 4:0.156136 5:0.448264 6:0.196602 7:0.280649 8:-0.572169 
-2 1:0.164983 2:0.109375 3:-0.246569 4:0.209369 5:0.464882 6:0.301579 7:-0.245815 8:-0.788305 
-0.1926135782708088 1:0.510662 2:-0.515625 3:-0.322331 4:0.342495 5:0.505055 6:0.293038 7:0.037912 8:-0.588453 
-0.156995628319118 1:0.42312 2:0.359375 3:-0.843383 4:0.156136 5:0.483853 6:0.00646828 7:0.0781512 8:-0.681717 
-2 1:-0.0392817 2:0.140625 3:0.00779901 4:0.211992 5:0.474282 6:0.539092 7:-0.447011 8:-0.817913 
-2 1:0.122334 2:-0.015625 3:-0.145928 4:-0.286696 5:0.276028 6:0.304501 7:-0.19972 8:-0.724648 
-0.06322488209154802 1:0.272727 2:0.15625 3:-0.46144 4:0.123346 5:0.250524 6:0.400534 7:-0.165436 8:-0.672835 
-0.6880338937907944 1:0.0909091 2:-0.265625 3:0.141203 4:0.156136 5:0.135198 6:0.397734 7:-0.0423663 8:-0.674315 
-2 1:0.387205 2:-0.015625 3:-0.457203 4:0.172787 5:0.523858 6:0.0620246 7:0.133856 8:-0.674315 
-2 1:0.272727 2:0.09375 3:-0.492097 4:0.233719 5:0.474157 6:0.0921173 7:0.276545 8:-0.698001 
-2 1:-0.0123457 2:0.03125 3:0.060323 4:-0.00969434 5:0.477362 6:0.280434 7:-0.240109 8:-0.758697 
-2 1:0.353535 2:0.34375 3:-0.608825 4:0.186901 5:0.491448 6:0.111351 7:0.0455694 8:-0.700962 
-2 1:-0.106622 2:-0.203125 3:-0.0822141 4:0.156136 5:0.472251 6:0.422073 7:-0.201071 8:-0.755736 
-0.6655960312424641 1:0.351291 2:-0.0625 3:0.0232501 4:0.230412 5:0.539371 6:0.235882 7:-0.317935 8:-0.800148 
-0.07749135908943278 1:0.441077 2:-0.34375 3:0.237827 4:-0.0168796 5:0.366602 6:0.14534 7:-0.146418 8:-0.665433 
-0.1751385759324705 1:0.459035 2:-0.125 3:-0.47072 4:0.156136 5:0.00198476 6:0.0471941 7:0.157979 8:-0.585492 
-2 1:-0.216611 2:0.171875 3:-0.386363 4:0.156136 5:0.483853 6:0.415849 7:-0.153625 8:-0.739452 
-0.1370589813857608 1:0.59596 2:0.453125 3:-0.718991 4:0.0808907 5:0.471317 6:0.126529 7:0.587648 8:-0.50111 
-2 1:0.634119 2:0.15625 3:-0.698006 4:0.156136 5:0.467475 6:0.166024 7:0.227146 8:-0.660992 
-2 1:0.164983 2:0.578125 3:-0.924703 4:0.156136 5:0.483853 6:0.443911 7:-0.457321 8:-0.822354 
-2 1:0.465769 2:0.484375 3:-0.614335 4:0.14302 5:0.507128 6:0.196402 7:-0.0355597 8:-0.740933 
-0.03702535262132404 1:0.450056 2:-0.265625 3:0.073105 4:0.0411724 5:0.481783 6:0.0215027 7:0.185005 8:-0.646188 
-0.3061548152956006 1:0.515152 2:0.328125 3:-0.577702 4:0.118442 5:0.476598 6:0.26428 7:0.0521258 8:-0.666913 
-2 1:0.12009 2:0.203125 3:-0.429411 4:0.166001 5:0.539 6:0.141759 7:-0.201371 8:-0.763138 
-0.08161888297975683 1:0.564534 2:-0.90625 3:0.278132 4:0.135977 5:0.490769 6:0.0448855 7:0.499062 8:-0.541081 
-1.838621916197831 1:0.420875 2:0.140625 3:-0.0626982 4:0.255617 5:0.458407 6:0.483184 7:-0.144166 8:-0.698001 
-0.0500769033380682 1:0.575758 2:-0.296875 3:0.311042 4:0.346943 5:0.415317 6:0.243276 7:0.318435 8:-0.504071 
-0.241902032153751 1:0.800224 2:-0.734375 3:0.184128 4:0.149179 5:0.483853 6:0.0306049 7:0.488601 8:-0.561806 
-0.1342003762375757 1:0.631874 2:0.5 3:-0.781456 4:0.154938 5:0.471652 6:0.282687 7:0.0668402 8:-0.628423 
-2 1:0.398429 2:0.5625 3:-0.876489 4:0.156136 5:0.483853 6:0.542945 7:-0.3844 8:-0.792746 
-0.3443562404804051 1:0.694725 2:0.21875 3:-0.746587 4:0.330834 5:0.46907 6:-0.0498565 7:0.307525 8:-0.604737 
-0.759919653072928 1:0.670034 2:0.421875 3:-0.949092 4:0.156136 5:0.483853 6:0.0715913 7:0.294662 8:-0.551443 
-0.3429488819403408 1:0.470258 2:0.359375 3:-0.655742 4:0.253593 5:0.113381 6:0.364538 7:-0.0413153 8:-0.672835 
-0.5742334418724704 1:0.432099 2:-0.765625 3:0.135815 4:0.169166 5:-0.0165569 6:0.477133 7:-0.172093 8:-0.658031 
-0.001857213624020134 1:0.485971 2:-0.703125 3:-0.16444 4:0.156136 5:0.483853 6:0.219223 7:0.465779 8:-0.5396 
-0.8123887345227315 1:0.299663 2:-0.296875 3:0.207219 4:0.37768 5:-0.50798 6:0.36464 7:0.000775756 8:-0.681717 
-0.4788364360493219 1:0.643098 2:-0.203125 3:-0.140027 4:0.649122 5:0.504848 6:0.156119 7:0.287906 8:-0.585492 
-0.2181403321163385 1:0.573513 2:-0.40625 3:0.182977 4:0.156136 5:0.482531 6:0.127894 7:0.573234 8:-0.495189 
-0.3716139676943743 1:0.580247 2:-0.9375 3:0.0754313 4:0.156136 5:0.485642 6:0.0842772 7:0.131003 8:-0.621021 
-0.2473494590253152 1:0.131313 2:-0.078125 3:0.184177 4:0.250741 5:0.424483 6:0.251766 7:0.082055 8:-0.621021 
-0.2784009042780399 1:0.2211 2:0.0625 3:-0.00816631 4:0.143676 5:0.437311 6:0.477525 7:-0.432697 8:-0.777942 
-2 1:0.106622 2:0.125 3:-0.161453 4:0.141623 5:0.439892 6:0.315245 7:-0.0219464 8:-0.686158 
-0.08290586983167689 1:0.602694 2:-0.3125 3:-0.0503814 4:0.166657 5:0.480361 6:0.126197 7:-0.0961187 8:-0.748335 
-0.9179514632309023 1:0.241302 2:-0.34375 3:0.200632 4:-0.121864 5:0.516948 6:0.44139 7:-0.202723 8:-0.740933 
-0.3241431892881447 1:0.340067 2:-0.5625 3:0.569352 4:0.215129 5:0.459557 6:0.237024 7:-0.135507 8:-0.76758 
-0.5981352575584067 1:0.86532 2:0.40625 3:-0.878154 4:0.464559 5:0.483853 6:0.154601 7:0.188309 8:-0.601776 
-0.4162770336392259 1:0.710438 2:0.359375 3:-0.82972 4:0.156136 5:0.483853 6:-0.204077 7:0.496209 8:-0.551443 
-0.1712475020938561 1:0.173962 2:0.359375 3:-0.718427 4:0.19075 5:0.491764 6:0.0638794 7:0.0190436 8:-0.695041 
-0.6031683389180666 1:0.342312 2:0.453125 3:-0.827075 4:0.374287 5:0.580774 6:0.422085 7:-0.0856085 8:-0.695041 
-0.1862626395384314 1:0.474747 2:0.09375 3:-0.464231 4:0.156136 5:-0.106544 6:0.322919 7:0.259278 8:-0.361954 
-2 1:0.297419 2:0.25 3:-0.0982774 4:0.156136 5:0.483207 6:0.470425 7:-0.200521 8:-0.629904 
-2 1:0.205387 2:0.5 3:-0.257735 4:0.00279425 5:0.483853 6:0.536632 7:-0.197117 8:-0.612139 
-2 1:0.436588 2:0.3125 3:-0.162849 4:0.156136 5:0.489021 6:0.360816 7:-0.0568805 8:-0.600296 
-2 1:0.234568 2:0.265625 3:-0.400198 4:0.0922673 5:0.476772 6:0.646533 7:-0.0520257 8:-0.381199 
-0.03243798009504564 1:0.364759 2:0.578125 3:-0.971497 4:0.156136 5:0.435926 6:0.788196 7:-0.484648 8:-0.455218 
-0.1126856402817069 1:0.600449 2:-0.921875 3:-0.0430599 4:0.156136 5:0.407689 6:0.423676 7:0.410125 8:-0.356033 
-0.7989988408064762 1:0.232323 2:0.3125 3:-0.547486 4:0.105412 5:0.40206 6:0.384953 7:-0.23075 8:-0.623982 
-0.9930469519140571 1:0.167228 2:-0.03125 3:0.259082 4:0.0514941 5:0.366484 6:0.385508 7:-0.289657 8:-0.672835 
-0.1187460015616128 1:0.324355 2:-0.296875 3:-0.136721 4:0.0827726 5:0.328472 6:0.423373 7:0.454218 8:-0.280533 
-0.4408951986851146 1:0.622896 2:0.078125 3:-0.216499 4:0.694628 5:0.223593 6:0.377822 7:0.114737 8:-0.517395 
-2 1:-0.104377 2:0.0625 3:-0.349364 4:0.156136 5:0.506047 6:0.759269 7:-0.267486 8:-0.523316 
-0.2549884721822784 1:0.158249 2:-0.9375 3:0.143259 4:0.193345 5:0.47904 6:0.453744 7:-0.0871099 8:-0.588453 
-2 1:0.106622 2:-0.21875 3:0.197669 4:0.156136 5:0.382639 6:0.496508 7:-0.135457 8:-0.619541 
-0.0752766302248159 1:0.492705 2:-0.453125 3:0.67729 4:0.251112 5:0.569106 6:0.502377 7:-0.188209 8:-0.708364 
-1.653455953156395 1:-0.00112233 2:-0.171875 3:0.156972 4:0.14359 5:0.376204 6:0.617173 7:-0.380196 8:-0.687639 
-1.009023233177897 1:0.106622 2:-0.3125 3:0.0820182 4:0.0273438 5:0.432873 6:0.283916 7:0.0859088 8:-0.65211 
-0.1861761630243139 1:0.517396 2:-0.265625 3:0.300562 4:-0.013458 5:0.488053 6:0.350036 7:0.418383 8:-0.319023 
-0.027864145660346 1:0.468013 2:-0.515625 3:-0.0360322 4:-0.13247 5:0.497554 6:0.257914 7:0.159531 8:-0.486306 
-0.2293378845120662 1:-0.00112233 2:-0.734375 3:-0.164122 4:0.156136 5:0.465466 6:0.526268 7:-0.0354095 8:-0.452258 
-2 1:0.0594837 2:0.1875 3:-0.183565 4:0.13133 5:0.420505 6:0.427979 7:0.0122369 8:-0.527757 
-2 1:-0.0796857 2:-0.1875 3:0.237337 4:0.139484 5:0.328091 6:0.412669 7:2.50244e-05 8:-0.640266 
-1.429187092405485 1:0.169473 2:-0.0625 3:0.270443 4:0.156136 5:0.483853 6:0.474601 7:-0.208578 8:-0.637306 
-0.6521584937177021 1:-0.030303 2:0.21875 3:-0.493125 4:0.134153 5:0.475122 6:0.562486 7:-0.493406 8:-0.746854 
-2 1:0.178451 2:0.34375 3:-0.0713665 4:0.156136 5:0.483853 6:0.387834 7:0.3338 8:-0.394523 
-0.03124572567191674 1:0.564534 2:-0.78125 3:0.742596 4:0.156136 5:0.52496 6:0.34094 7:0.197017 8:-0.486306 
-0.4455172356893505 1:0.391695 2:-0.125 3:0.0757251 4:-0.0490135 5:0.850181 6:0.357051 7:0.10783 8:-0.517395 
-0.691965549638091 1:0.248036 2:-0.28125 3:0.248846 4:0.0731068 5:0.195514 6:0.502055 7:-0.160131 8:-0.579571 
-0.08439528646917527 1:0.62963 2:-0.65625 3:-0.0205076 4:-0.0692575 5:0.491892 6:0.217555 7:0.307575 8:-0.45966 
-0.1408864302341404 1:0.349046 2:0.09375 3:0.0893642 4:0.156136 5:0.485615 6:0.308601 7:0.234103 8:-0.401925 
-1.062190949822425 1:0.0505051 2:-0.296875 3:0.32975 4:0.326243 5:0.469633 6:0.405498 7:0.00823303 8:-0.558845 
-0.04857155305876981 1:0.306397 2:-0.921875 3:0.269121 4:0.156136 5:0.483853 6:0.558949 7:0.0720452 8:-0.412287 
-2 1:0.277217 3:0.156776 4:-0.0471601 5:0.386517 6:0.481821 7:0.0711444 8:-0.478905 
-0.001230708779067363 1:0.427609 2:-0.65625 3:0.599079 4:0.156136 5:0.483853 6:0.520716 7:-0.459223 8:-0.739452 
-0.3147144407613593 1:0.427609 2:-0.65625 3:0.599079 4:0.156136 5:0.483853 6:0.520716 7:-0.459223 8:-0.739452 
-2 1:0.405163 2:0.421875 3:-0.599055 4:0.156136 5:0.483853 6:0.45781 7:-0.27219 8:-0.640266 
-2 1:0.398429 2:0.421875 3:-0.602728 4:0.156136 5:0.481177 6:0.567473 7:-0.256725 8:-0.631384 
-2 1:-0.106622 2:0.234375 3:-0.22027 4:0.299584 5:0.471463 6:0.439814 7:-0.228047 8:-0.623982 
-2 1:0.326599 2:0.390625 3:-0.502577 4:0.174983 5:0.295611 6:0.329021 7:-0.0842071 8:-0.649149 
-2 1:0.205387 2:0.40625 3:-0.706453 4:0.156136 5:0.483853 6:0.511535 7:-0.09747 8:-0.53812 
-0.710596324263821 1:0.230079 2:0.359375 3:-0.577727 4:-0.254762 5:0.434173 6:0.340344 7:0.181052 8:-0.489267 
-1.255978792546724 1:0.225589 2:0.515625 3:-0.693133 4:0.36311 5:-0.0785016 6:0.637841 7:-0.04617 8:-0.447816 
-2 1:0.037037 2:0.53125 3:-0.744163 4:0.156136 5:0.483853 6:0.474142 7:-0.322039 8:-0.674315 
-0.07357050016833383 1:0.535354 2:-0.5625 3:-0.101559 4:0.156136 5:0.483853 6:0.385945 7:0.696955 8:-0.0244264 
-2 1:0.0347924 2:0.484375 3:-0.708535 4:0.136747 5:0.479067 6:0.469108 7:-0.443858 8:-0.783864 
-2 1:0.272727 2:0.390625 3:-0.833809 4:0.156136 5:0.457408 6:0.773895 7:-0.367183 8:-0.156181 
-0.1333856318252331 1:0.0213244 2:0.25 3:-0.407544 4:0.156136 5:0.543633 6:0.767955 7:-0.494857 8:-0.558845 
-0.3571903470561415 1:0.0213244 2:0.25 3:-0.407544 4:0.156136 5:0.543633 6:0.767955 7:-0.494857 8:-0.558845 
-0.00577819870930767 1:0.485971 2:0.546875 3:-0.860083 4:0.156136 5:0.483853 6:0.602381 7:0.361878 8:0.382679 
-2 1:0.362514 2:0.59375 3:-0.739021 4:0.156136 5:0.483853 6:0.785959 7:0.0568805 8:0.034789 
-2 1:0.00785634 2:0.4375 3:-0.833809 4:0.129819 5:0.483853 6:0.843653 7:-0.243963 8:-0.156181 
-1.266693129840798 1:0.0729517 2:0.546875 3:-0.904575 4:-0.161896 5:0.483853 6:0.826036 7:-0.260729 8:-0.228719 
-2 1:-0.160494 2:0.53125 3:-0.854549 4:0.156136 5:0.483853 6:0.857845 7:-0.212032 8:-0.170984 
-0.6453673030353898 1:0.717172 2:0.28125 3:-0.978892 4:0.156136 5:0.483853 6:0.593192 7:1 8:0.649149 
-2 1:0.270483 2:0.4375 3:-0.790296 4:0.156136 5:0.483853 6:0.917094 7:-0.480143 8:-0.182828 
-0.3996529673096069 1:0.418631 2:0.671875 3:-0.797544 4:0.156136 5:0.483853 6:0.699917 7:0.178099 8:0.0555144 
-2 1:-0.0729517 2:0.453125 3:-0.940203 4:0.156136 5:0.483853 6:0.760844 7:-0.47689 8:-0.277572 
-0.166319441344224 1:0.214366 2:-0.09375 3:-0.334843 4:-0.0500969 5:0.45304 6:0.579115 7:-0.156928 8:-0.637306 
-2 1:0.0886644 2:0.34375 3:-0.339594 4:0.194999 5:0.497085 6:0.786328 7:-0.183504 8:-0.157661 
-0.2123677686447322 1:0.45679 2:-0.109375 3:0.0559154 4:0.100736 5:0.675306 6:0.452772 7:0.25172 8:-0.225759 
-0.1925848928213059 1:0.582492 2:0.015625 3:-0.484849 4:0.156136 5:0.483853 6:0.51575 7:0.803709 8:0.280533 
-2 1:0.0549944 2:0.484375 3:-0.153911 4:0.171875 5:0.331272 6:0.63935 7:0.0518756 8:-0.319023 
-0.182471297944986 1:0.135802 2:-0.765625 3:-0.231167 4:0.156136 5:0.483853 6:0.573992 7:0.0689422 8:-0.0510733 
-0.2082959602396633 1:-0.200898 2:-0.34375 3:-0.430341 4:0.114707 5:0.483853 6:0.767596 7:-0.157579 8:-0.165063 
-0.08855512753584426 1:0.432099 2:0.453125 3:0.134591 4:0.156136 5:0.483853 6:0.613114 7:0.053327 8:-0.122132 
-0.1793928258852638 1:0.203143 2:-0.015625 3:-0.130428 4:0.156136 5:0.450547 6:0.576043 7:0.462976 8:0.0318283 
-2 1:-0.248036 2:0.265625 3:-0.0692117 4:0.146955 5:0.0339145 6:0.723261 7:-0.356022 8:-0.46114 
-0.1820950435328643 1:0.230079 2:-0.09375 3:0.117328 4:0.156136 5:0.307291 6:0.584532 7:0.159981 8:-0.239082 
-0.5281924908464135 1:-0.0819304 2:-0.953125 3:0.371157 4:0.128906 5:0.483853 6:0.782126 7:0.111434 8:0.054034 
-0.04561787833210523 1:0.310887 2:-0.859375 3:0.445842 4:0.156136 5:0.483853 6:0.624155 7:0.348465 8:-0.0244264 
-0.1365464670314922 1:0.337823 2:-0.828125 3:0.40654 4:0.156136 5:0.483853 6:0.686638 7:0.4355 8:0.182828 
-1.214424376579265 1:0.232323 2:-0.125 3:0.445768 4:0.156136 5:0.165548 6:0.555815 7:-0.0442682 8:-0.27017 
-0.1873173801723967 1:0.946128 2:-0.15625 3:-0.490334 4:0.156136 5:0.483853 6:-0.177698 7:0.616927 8:-0.478905 
-0.7956951817780975 1:-0.0864198 2:-0.0625 3:-0.317139 4:0.161724 5:0.459058 6:0.386389 7:-0.166487 8:-0.723168 
-0.1740755978838546 1:0.636364 2:0.3125 3:-0.364962 4:0.156136 5:0.490808 6:0.0380442 7:0.265284 8:-0.641747 
-0.5231188355541679 1:0.319865 2:0.3125 3:-0.254307 4:0.235972 5:0.584065 6:0.386134 7:0.0586322 8:-0.520355 
-2 1:0.156004 2:0.203125 3:-0.414572 4:0.156136 5:0.508546 6:0.178503 7:-0.00242737 8:-0.739452 
-0.8977193078401486 1:0.560045 2:0.0625 3:-0.34121 4:0.162751 5:0.483606 6:0.170335 7:0.0484723 8:-0.687639 
-1.39441437585088 1:0.299663 2:0.1875 3:-0.248822 4:0.156136 5:0.475195 6:0.552116 7:-0.400465 8:-0.780903 
-2 1:0.631874 2:0.203125 3:-0.566463 4:0.168824 5:0.506248 6:0.152688 7:0.165186 8:-0.619541 
-2 1:0.631874 2:0.203125 3:-0.566463 4:0.168824 5:0.506248 6:0.152688 7:0.165186 8:-0.619541 
-0.8242506583642835 1:0.620651 2:0.390625 3:-0.485804 4:0.500542 5:0.483853 6:0.442213 7:-0.17995 8:-0.700962 
-1.24727936795564 1:0.672278 2:0.171875 3:-0.413127 4:0.242644 5:0.304448 6:0.0565545 7:0.088161 8:-0.723168 
-0.5884477832408286 1:0.461279 2:0.046875 3:-0.951076 4:0.156136 5:0.483853 6:0.891457 7:0.2306 8:0.786825 
-2 1:0.0415264 2:0.578125 3:-0.742571 4:0.156136 5:0.483853 6:0.804575 7:-0.294162 8:-0.210955 
-2 1:0.191919 2:0.484375 3:-0.822912 4:0.156136 5:0.483853 6:0.708043 7:0.160081 8:0.0362694 
-0.1352396644632811 1:0.281706 2:0.34375 3:-0.706772 4:0.257641 5:0.483853 6:0.751969 7:-0.0377618 8:-0.0629164 
-0.05976427479047301 1:0.681257 2:0.40625 3:-0.951076 4:0.156136 5:0.483853 6:0.49683 7:0.248317 8:0.042191 
