svm_type c_svc
kernel_type rbf
gamma 0.5
nr_class 2
total_sv 191
rho -0.149517
label 1 -1
nr_sv 98 93
SV
0.5 1:0.46506 2:0.540984 3:-0.895055 4:-0.143031 5:0.539786 6:-1 7:-1 8:-1 9:-0.31874 10:-0.988778 11:-0.639309 
0.5 1:0.409639 2:0.459016 3:-0.350108 4:-0.308845 5:0.539786 6:-1 7:-1 8:-1 9:0.0888084 10:-0.274393 11:-0.289417 
0.5 1:0.361446 2:0.344262 3:-0.0850544 4:0.037768 5:0.466557 6:-1 7:-0.627329 8:-0.265306 9:-0.346036 10:-0.97333 11:-0.531317 
0.5 1:0.486747 2:0.0491803 3:-0.0215861 4:-0.0658504 5:0.539786 6:-1 7:-0.652174 8:-0.177143 9:-0.723551 10:-0.439183 11:-0.766739 
0.5 1:0.419277 2:0.42623 3:-0.208453 4:-0.143031 5:0.0571185 6:-0.588572 7:-0.552796 8:-0.657143 9:-0.216605 10:-0.787572 11:-0.343413 
0.5 1:0.537349 2:0.622951 3:-0.873874 4:-0.143031 5:0.539786 6:-1 7:-1 8:-1 9:-0.150439 10:-0.641382 11:-0.261339 
0.5 1:0.322892 2:0.278689 3:-0.0169421 4:-0.143031 5:0.0894684 6:-0.68 7:-0.304348 8:-0.485714 9:-0.382487 10:-0.902226 11:-0.460043 
0.5 1:0.409639 2:0.590164 3:-0.667817 4:-0.116228 5:0.539381 6:-1 7:-0.652174 8:-0.897143 9:-0.237133 10:-0.814556 11:-0.455724 
0.5 1:0.546988 2:0.655738 3:-0.779716 4:-0.116228 5:0.561626 6:-1 7:-0.826087 8:-0.771429 9:-0.301713 10:-0.976031 11:-0.632829 
0.5 1:0.419277 2:0.622951 3:-0.854315 4:-0.0894859 5:0.542145 6:-1 7:-1 8:-0.771429 9:-0.213173 10:-0.854595 11:-0.61987 
0.5 1:0.657831 2:0.639344 3:-0.683224 4:-0.0522052 5:0.541691 6:-1 7:-1 8:-1 9:0.0912552 10:-0.24253 11:-0.049676 
0.5 1:0.431325 2:0.606557 3:-0.723767 4:-0.0626827 5:0.53857 6:-0.84 7:-0.826087 8:-0.794286 9:-0.193723 10:-0.74791 11:-0.509719 
0.5 1:0.284337 2:0.295082 3:-0.186559 4:-0.143031 5:0.539786 6:-0.725715 7:-0.552796 8:-0.485714 9:-0.201277 10:-0.816992 11:-0.548596 
0.5 1:0.325301 2:0.245902 3:-0.0677806 4:-0.143031 5:0.539786 6:-0.52 7:-0.791304 8:-0.485714 9:-0.084576 10:-0.574987 11:-0.557235 
0.5 1:0.190361 2:0.409836 3:-0.25219 4:0.00651803 5:0.536077 6:-0.68 7:-0.710145 8:-0.579221 9:-0.721987 10:-0.307643 11:-0.62203 
0.5 1:0.375904 2:0.229508 3:-0.164347 4:-0.143031 5:0.539786 6:-0.52 7:-0.478261 8:-0.571428 9:-0.296485 10:-0.859945 11:-0.507559 
0.5 1:0.73494 2:0.57377 3:-0.259586 4:-0.143031 5:0.539786 6:-1 7:-1 8:-1 9:0.052853 10:-0.389882 11:-0.179266 
0.5 1:0.209639 2:0.606557 3:-0.927342 4:-0.143031 5:0.584714 6:-1 7:-1 8:-0.794286 9:-0.229249 10:-0.852836 11:-0.665227 
0.5 1:0.103614 2:0.57377 3:-0.879255 4:-0.217166 5:0.490552 6:-0.946666 7:-1 8:-0.953246 9:-0.146867 10:-0.701974 11:-0.457883 
0.5 1:0.19759 2:0.622951 3:-0.859426 4:-0.0993543 5:0.661418 6:-0.94 7:-1 8:-0.948571 9:-0.209764 10:-0.861647 11:-0.460043 
0.5 1:0.149398 2:0.590164 3:-0.874169 4:-0.00280214 5:0.702647 6:-0.88 7:-1 8:-0.953246 9:-0.185769 10:-0.826054 11:-0.416847 
0.5 1:0.0650602 2:0.52459 3:-0.840776 4:0.227948 5:0.661418 6:-0.88 7:-1 8:-0.953246 9:-0.222321 10:-0.880674 11:-0.460043 
0.5 1:0.13012 2:0.508197 3:-0.891615 4:-0.120309 5:0.579717 6:-0.904 7:-1 8:-1 9:-0.343432 10:-0.950014 11:-0.460043 
0.209110019663505 1:0.0361446 2:0.508197 3:-0.929652 4:0.148209 5:-0.0609344 6:-0.88 7:-1 8:-1 9:-0.172019 10:-0.738961 11:-0.434125 
0.5 1:0.212048 2:0.557377 3:-0.911174 4:-0.00280214 5:0.47448 6:-0.946666 7:-1 8:-1 9:-0.233551 10:-0.846802 11:-0.447084 
0.3141628884353284 1:-0.0289157 2:0.540984 3:-0.847312 4:0.148209 5:0.118154 6:-0.82 7:-0.934783 8:-0.957143 9:-0.164778 10:-0.785531 11:-0.401728 
0.5 1:0.0819277 2:0.52459 3:-0.879255 4:0.362512 5:0.102082 6:-0.82 7:-1 8:-1 9:-0.232004 10:-0.895538 11:-0.416847 
0.5 1:0.0192771 2:0.508197 3:-0.872965 4:-0.174281 5:0.670897 6:-0.946666 7:-0.942029 8:-0.931428 9:-0.278816 10:-0.955069 11:-0.460043 
0.008175407811803523 1:0.703614 2:0.786885 3:-0.328657 4:-0.143031 5:0.483985 6:-0.6 7:-0.565217 8:-0.742857 9:-0.0685174 10:-0.50036 11:-0.0107991 
0.5 1:0.759036 2:0.360656 3:-0.230862 4:-0.143031 5:-0.327283 6:-1 7:-1 8:-1 9:-0.0330647 10:-0.508956 11:-0.215983 
0.5 1:0.448193 2:0.622951 3:-0.875643 4:-0.143031 5:0.539786 6:-1 7:-1 8:-0.935714 9:-0.24445 10:-0.937744 11:-0.688985 
0.1406290120847785 1:0.363855 2:0.639344 3:-0.83773 4:-0.107091 5:0.539786 6:-1 7:-1 8:-0.935714 9:-0.202777 10:-0.900285 11:-0.665227 
0.5 1:0.409639 2:0.622951 3:-0.794607 4:-0.107091 5:0.539786 6:-1 7:-1 8:-0.935714 9:-0.219677 10:-0.899576 11:-0.688985 
0.5 1:0.296386 2:0.622951 3:-0.813576 4:-0.107091 5:0.539786 6:-1 7:-1 8:-1 9:-0.21385 10:-0.917347 11:-0.665227 
0.5 1:0.385542 2:0.606557 3:-0.639536 4:-0.143031 5:0.573402 6:-0.94 7:-0.804348 8:-0.828571 9:-0.244891 10:-0.850557 11:-0.550756 
0.5 1:0.33494 2:0.622951 3:-0.530979 4:-0.143031 5:0.573402 6:-0.94 7:-0.673913 8:-0.714285 9:-0.239845 10:-0.905661 11:-0.481641 
0.5 1:0.303614 2:0.590164 3:-0.563683 4:-0.143031 5:0.590208 6:-0.94 7:-0.804348 8:-0.714285 9:-0.247495 10:-0.873327 11:-0.559395 
0.5 1:0.73494 2:0.622951 3:-0.408637 4:-0.143031 5:0.512269 6:-0.808 7:-0.686957 8:-0.485714 9:-0.283324 10:-0.956853 11:-0.492441 
0.5 1:0.607229 2:0.590164 3:-0.664156 4:-0.143031 5:0.23669 6:-0.88 7:-1 8:-0.742857 9:-0.235593 10:-0.869258 11:-0.438445 
0.5 1:0.491566 2:0.491803 3:-0.549333 4:-0.143031 5:-0.0133083 6:-0.808 7:-0.686957 8:-1 9:-0.249761 10:-0.99718 11:-0.544276 
0.5 1:0.412048 2:0.655738 3:-0.752147 4:-0.143031 5:0.539786 6:-0.88 7:-1 8:-0.812987 9:-0.170113 10:-0.796608 11:-0.24622 
0.5 1:0.792771 2:0.57377 3:-0.89793 4:-0.118177 5:0.539786 6:-0.904 7:-1 8:-1 9:-0.216541 10:-0.718571 11:-0.144708 
0.3029438892701619 1:0.484337 2:0.262295 3:0.175551 4:-0.143031 5:0.082481 6:-0.0399998 7:0.0434781 8:-0.632653 9:-0.334869 10:-0.972884 11:-0.447084 
0.5 1:0.575904 2:0.344262 3:-0.0595737 4:0.0149245 5:0.540977 6:-0.64 7:-0.869565 8:-0.314285 9:-0.263926 10:-0.858381 11:-0.440605 
0.5 1:0.390361 2:0.442623 3:-0.212335 4:-0.000487329 5:0.556329 6:-0.36 7:-0.652174 8:-0.779591 9:-0.318268 10:-0.989004 11:-0.37797 
0.5 1:0.563855 2:0.360656 3:-0.250863 4:0.233004 5:0.552601 6:-0.588572 7:-0.552796 8:-0.706123 9:-0.298905 10:-0.908631 11:-0.550756 
0.5 1:0.486747 2:0.557377 3:-0.839572 4:-0.102887 5:0.541564 6:-1 7:-0.826087 8:-1 9:-0.254828 10:-0.840503 11:-0.509719 
0.5 1:0.0337349 2:0.508197 3:-0.857411 4:0.0926535 5:0.103146 6:-0.946666 7:-1 8:-0.953246 9:-0.163971 10:-0.726867 11:-0.434125 
0.5 1:0.0674699 2:0.52459 3:-0.830997 4:0.253411 5:0.26222 6:-0.88 7:-1 8:-0.953246 9:-0.209086 10:-0.8611 11:-0.416847 
0.5 1:0.103614 2:0.540984 3:-0.839572 4:0.0455653 5:0.663787 6:-0.88 7:-1 8:-0.953246 9:-0.321276 10:-0.94158 11:-0.483801 
0.5 1:0.166265 2:0.590164 3:-0.853603 4:-0.0206506 5:0.541517 6:-0.893333 7:-1 8:-0.953246 9:-0.170541 10:-0.753172 11:-0.479482 
0.5 1:0.115663 2:0.508197 3:-0.883826 4:0.253411 5:0.091092 6:-0.946666 7:-1 8:-1 9:-0.216628 10:-0.806009 11:-0.434125 
0.5 1:0.378313 2:0.639344 3:-0.799103 4:-0.116106 5:0.539786 6:-1 7:-1 8:-0.935714 9:-0.231647 10:-0.953807 11:-0.680346 
0.5 1:0.344578 2:0.639344 3:-0.543731 4:-0.143031 5:0.577604 6:-0.94 7:-0.673913 8:-0.714285 9:-0.319821 10:-0.978781 11:-0.574514 
0.5 1:0.684337 2:0.704918 3:-0.383869 4:-0.143031 5:0.466282 6:-0.712 7:-0.373913 8:-0.485714 9:-0.0935947 10:-0.560267 11:-0.0151188 
0.5 1:0.754217 2:0.311475 3:0.496947 4:-0.143031 5:0.40519 6:0.12 7:-0.304348 8:-0.118367 9:-0.451843 10:-0.747439 11:-0.341253 
0.5 1:0.448193 2:0.327869 3:0.289318 4:-0.143031 5:0.120779 6:-0.2 7:-0.652174 8:-0.191837 9:-0.519767 10:-0.641758 11:-0.393089 
0.5 1:0.361446 2:0.622951 3:-0.558916 4:-0.143031 5:0.539786 6:-1 7:-1 8:-1 9:-0.199764 10:-0.825526 11:-0.511879 
0.2463992313625476 1:0.212048 2:0.983607 3:0.710179 4:-0.117446 5:-0.893417 6:-0.0399998 7:0.130434 8:0.594286 9:0.431811 10:0.152347 11:-0.548596 
0.1201123288133251 1:0.595181 2:0.360656 3:0.140684 4:-0.0451389 5:0.528515 6:-0.177143 7:-0.403726 8:0.102042 9:-0.622121 10:-0.550038 11:-0.740821 
0.5 1:0.477108 2:0.377049 3:0.00278887 4:-0.0853436 5:0.283827 6:-0.108572 7:-0.403726 8:-0.357143 9:-0.521137 10:-0.681446 11:-0.572354 
0.5 1:0.412048 2:0.57377 3:-0.69723 4:-0.143031 5:0.539786 6:-1 7:-1 8:-1 9:-0.211385 10:-0.830782 11:-0.578834 
0.5 1:0.573494 2:0.442623 3:0.0566742 4:-0.143031 5:0.506305 6:-0.52 7:-0.304348 8:-0.742857 9:-0.344169 10:-0.995598 11:-0.323974 
0.5 1:0.0963855 2:0.52459 3:-0.836059 4:0.187926 5:0.221401 6:-0.893333 7:-1 8:-0.953246 9:-0.254684 10:-0.90264 11:-0.462203 
0.2913639534601853 1:0.744578 2:0.622951 3:-0.230174 4:-0.143031 5:0.539786 6:-1 7:-1 8:-1 9:-0.0304159 10:-0.509622 11:-0.386609 
0.4648941514211948 1:0.633735 2:0.42623 3:0.597862 4:-0.143031 5:0.263465 6:1 7:0.826087 8:0.131429 9:-0.263203 10:-0.915652 11:-0.330454 
0.5 1:0.585542 2:0.147541 3:0.593243 4:-0.103618 5:0.372505 6:0.234286 7:0.0434781 8:0.200001 9:-0.8555 10:-0.133596 11:-0.38013 
0.235789555596524 1:0.501205 2:0.278689 3:0.464685 4:-0.143031 5:0.430003 6:0.28 7:-0.217391 8:0.24898 9:-0.517598 10:-0.708065 11:-0.38013 
0.2504533256139662 1:0.445783 2:0.213115 3:0.562332 4:-0.116045 5:0.265158 6:0.028572 7:0.0434781 8:0.285715 9:-0.607653 10:-0.583973 11:-0.509719 
0.1335876038831143 1:0.214458 2:0.737705 3:0.476331 4:-0.0780945 5:-0.94183 6:-0.16 7:0.760869 8:0.414286 9:0.214911 10:-0.102883 11:-0.341253 
0.266537942611314 1:0.320482 2:0.885246 3:0.573512 4:-0.365314 5:0.188306 6:-0.451428 7:0.565217 8:1 9:0.34562 10:0.068332 11:-0.315335 
0.1516726825271388 1:0.248193 2:0.52459 3:0.306075 4:-0.143031 5:0.541795 6:-0.44 7:1 8:-0.0448982 9:0.101889 10:-0.284478 11:-0.356371 
0.5 1:0.40241 2:0.180328 3:-0.00672031 4:0.0503777 5:0.425896 6:-1 7:-0.582609 8:-0.0999998 9:-0.486223 10:-0.698187 11:-0.552916 
0.07868082812304428 1:0.337349 2:0.52459 3:-0.223196 4:0.0883894 5:0.54918 6:-0.4 7:-0.608696 8:-0.632653 9:-0.377751 10:-0.874815 11:-0.522678 
0.5 1:0.563855 2:0.704918 3:-0.75372 4:-0.143031 5:0.623464 6:-1 7:-1 8:-1 9:-0.176001 10:-0.776256 11:-0.429806 
0.5 1:0.46747 2:0.639344 3:-0.877609 4:-0.143031 5:0.539786 6:-1 7:-1 8:-1 9:-0.273586 10:-0.963195 11:-0.531317 
0.4610350559025727 1:0.308434 2:0.327869 3:-0.0270901 4:-0.143031 5:0.202047 6:-1 7:-1 8:-1 9:0.314336 10:-0.0176992 11:-0.0820734 
0.5 1:0.474699 2:0.57377 3:-0.381141 4:-0.143031 5:0.539786 6:-1 7:-1 8:-1 9:-0.0253567 10:-0.484792 11:-0.384449 
0.5 1:0.296386 2:0.590164 3:-0.815664 4:-0.143031 5:0.539786 6:-1 7:-1 8:-1 9:-0.118695 10:-0.702307 11:-0.440605 
0.5 1:0.501205 2:0.606557 3:-0.96071 4:-0.26328 5:0.53857 6:-1 7:-1 8:-1 9:-0.0866921 10:-0.567891 11:-0.293737 
0.5 1:0.163855 2:0.590164 3:-0.918889 4:-0.143031 5:0.584714 6:-1 7:-1 8:-1 9:-0.0982811 10:-0.644019 11:-0.576674 
0.5 1:0.0481928 2:0.590164 3:-0.901296 4:-0.288743 5:0.706766 6:-1 7:-1 8:-1 9:-0.23846 10:-0.928437 11:-0.557235 
0.5 1:0.187952 2:0.639344 3:-0.900289 4:0.101791 5:0.656676 6:-1 7:-1 8:-1 9:-0.261914 10:-0.948651 11:-0.583153 
0.5 1:0.120482 2:0.606557 3:-0.900289 4:-0.501584 5:0.670897 6:-1 7:-1 8:-1 9:-0.279134 10:-0.989456 11:-0.591793 
0.5 1:0.513253 2:0.459016 3:-0.487978 4:-0.143031 5:0.539786 6:-1 7:-1 8:-1 9:-0.111319 10:-0.648729 11:-0.382289 
0.5 1:0.281928 2:0.606557 3:-0.920609 4:0.101791 5:0.656676 6:-1 7:-1 8:-1 9:-0.270438 10:-0.921988 11:-0.468683 
0.5 1:-0.0771084 2:0.491803 3:-0.879993 4:-0.0106603 5:0.670897 6:-1 7:-1 8:-1 9:-0.26482 10:-0.98182 11:-0.507559 
0.1232323997615481 1:-1 2:0.688525 3:-0.534935 4:0.826145 5:0.223755 6:-1 7:-1 8:-1 9:0.921277 10:0.898785 11:-0.598272 
0.003506313194607831 1:-0.968675 2:0.704918 3:-0.556115 4:-0.143031 5:0.223755 6:-1 7:-1 8:-1 9:0.800147 10:0.663819 11:-0.686825 
0.5 1:-0.987952 2:0.721311 3:-0.509331 4:0.826145 5:0.539786 6:-1 7:-1 8:-1 9:1 10:1 11:-0.583153 
0.5 1:0.448193 2:0.754098 3:-0.571276 4:-0.143031 5:0.541899 6:-1 7:-1 8:-1 9:0.0371757 10:-0.363488 11:-0.0971922 
0.5 1:0.537349 2:0.622951 3:-0.706542 4:-0.143031 5:0.540231 6:-1 7:-1 8:-1 9:-0.203138 10:-0.748487 11:-0.168467 
0.2598948002841212 1:0.33253 2:0.262295 3:0.0589103 4:-0.143031 5:-1 6:-0.52 7:-0.347826 8:-0.485714 9:-0.48988 10:-0.641677 11:-0.550756 
0.5 1:0.657831 2:0.639344 3:-0.506726 4:-0.143031 5:0.539786 6:-0.904 7:-0.686957 8:-0.742857 9:-0.27021 10:-0.889717 11:-0.559395 
0.5 1:0.455422 2:0.360656 3:-0.365784 4:-0.143031 5:0.539786 6:-0.424 7:-0.478261 8:-0.64 9:-0.400909 10:-0.852585 11:-0.416847 
0.5 1:0.590361 2:0.393443 3:0.154002 4:-0.112208 5:0.316293 6:-0.36 7:-0.304348 8:-0.559184 9:-0.270211 10:-0.898125 11:-0.164147 
0.5 1:0.474699 2:0.360656 3:-0.161079 4:-0.143031 5:0.539786 6:-1 7:-1 8:-1 9:0.0955422 10:-0.312416 11:-0.347732 
0.5 1:0.679518 2:0.655738 3:-0.313078 4:-0.143031 5:0.539786 6:-0.44 7:-0.565217 8:-0.657143 9:-0.370028 10:-0.923099 11:-0.444924 
-0.5 1:-0.0337349 2:0.639344 3:-0.999607 4:-0.143031 5:0.539786 6:-1 7:-1 8:-1 9:-0.196627 10:-0.930629 11:-0.62419 
-0.5 1:0.342169 2:0.0327869 3:0.0980036 4:-0.211623 5:0.339934 6:-0.451428 7:-0.776397 8:-0.428571 9:-0.579137 10:-0.576117 11:-0.492441 
-0.5 1:0.26747 2:0.114754 3:-0.317034 4:0.048672 5:0.493843 6:-1 7:-1 8:-1 9:0.0763745 10:-0.342615 11:-0.0799136 
-0.5 1:0.836145 2:0.344262 3:-0.458959 4:-0.166545 5:0.539303 6:-0.84 7:-1 8:-0.485714 9:-0.466989 10:-0.705874 11:-0.464363 
-0.5 1:0.93012 2:0.52459 3:-0.893949 4:-0.105811 5:0.545879 6:-1 7:-1 8:-1 9:-0.225607 10:-0.799045 11:-0.386609 
-0.5 1:0.344578 2:0.0819672 3:-0.573954 4:-0.143031 5:0.539786 6:-0.76 7:-0.73913 8:-0.485714 9:-0.657177 10:-0.247365 11:-0.740821 
-0.4458831467478552 1:0.59759 2:0.409836 3:-0.906432 4:0.591131 5:0.538289 6:-0.94 7:-1 8:-1 9:-0.247631 10:-0.806756 11:0.0215983 
-0.5 1:0.337349 2:0.540984 3:-0.88358 4:-0.143031 5:0.539786 6:-1 7:-0.913044 8:-0.935714 9:-0.321383 10:-0.992182 11:-0.518359 
-0.5 1:0.383133 2:0.360656 3:-0.611893 4:0.00121832 5:0.539786 6:-0.856 7:-0.791304 8:-0.828571 9:-0.508765 10:-0.606027 11:-0.529158 
-0.5 1:0.508434 2:0.508197 3:-0.756693 4:-0.143031 5:0.49975 6:-0.84 7:-1 8:-0.853061 9:-0.297763 10:-0.931037 11:-0.205184 
-0.5 1:0.127711 2:0.229508 3:-0.493605 4:0.18415 5:0.519215 6:-0.84 7:-0.768116 8:-0.906494 9:-0.313559 10:-0.961581 11:-0.526998 
-0.5 1:-0.0819277 2:0.491803 3:-0.89793 4:-0.143031 5:0.539786 6:-1 7:-1 8:-0.828571 9:-0.223877 10:-0.878401 11:-0.24838 
-0.5 1:-0.060241 2:0.508197 3:-0.900166 4:-0.143031 5:0.539786 6:-1 7:-0.925465 8:-1 9:-0.241702 10:-0.955094 11:-0.416847 
-0.5 1:0.156627 2:0.540984 3:-0.878543 4:-0.143031 5:0.637414 6:-0.88 7:-1 8:-0.889796 9:-0.280559 10:-0.942089 11:-0.468683 
-0.5 1:0.315663 2:0.52459 3:-0.88358 4:-0.360989 5:0.539786 6:-1 7:-0.942029 8:-0.914286 9:-0.285964 10:-0.944111 11:-0.395248 
-0.5 1:0.257831 2:0.57377 3:-0.92572 4:-0.143031 5:0.539786 6:-0.808 7:-1 8:-0.957143 9:-0.284141 10:-0.922497 11:-0.386609 
-0.5 1:0.395181 2:0.57377 3:-0.916703 4:-0.143031 5:0.539786 6:-0.94 7:-1 8:-1 9:-0.222665 10:-0.861465 11:-0.174946 
-0.5 1:0.686747 2:0.590164 3:-0.928128 4:-0.143031 5:0.539786 6:-1 7:-0.895652 8:-0.853061 9:-0.237052 10:-0.816898 11:-0.12311 
-0.5 1:0.518072 2:0.52459 3:-0.80817 4:-0.143031 5:0.539786 6:-1 7:-0.776397 8:-0.935714 9:-0.244685 10:-0.864265 11:-0.535637 
-0.5 1:0.580723 2:0.442623 3:-0.699343 4:-0.143031 5:0.496592 6:-0.76 7:-0.478261 8:-0.828571 9:-0.398286 10:-0.90973 11:-0.406048 
-0.5 1:0.0337349 2:0.344262 3:-0.417999 4:-0.170383 5:0.538364 6:-0.808 7:-0.947826 8:-0.742857 9:-0.355564 10:-0.910528 11:-0.360691 
-0.5 1:0.380723 2:0.295082 3:-0.355046 4:-0.143031 5:0.542259 6:-0.92 7:-0.913044 8:-0.657143 9:-0.412956 10:-0.800018 11:-0.336933 
-0.4750643281041567 1:0.812048 2:0.360656 3:-0.291627 4:-0.143031 5:0.539786 6:-1 7:-1 8:-1 9:-0.325264 10:-0.964005 11:-0.367171 
-0.5 1:0.224096 2:0.540984 3:-0.82107 4:-0.143031 5:0.539786 6:-1 7:-0.869565 8:-1 9:-0.188063 10:-0.874702 11:-0.153348 
-0.5 1:0.26506 2:0.442623 3:-0.678309 4:-0.143031 5:0.382222 6:-0.68 7:-0.826087 8:-0.942857 9:-0.276308 10:-0.940343 11:-0.155508 
-0.5 1:-0.26747 2:0.47541 3:-0.89562 4:-0.214486 5:0.688628 6:-0.88 7:-1 8:-1 9:-0.310442 10:-0.883148 11:-0.468683 
-0.4223454570280099 1:0.308434 2:0.196721 3:-0.430923 4:1 5:0.349104 6:-0.88 7:-0.608696 8:-1 9:-0.294259 10:-0.880297 11:0.261339 
-0.5 1:0.368675 2:0.57377 3:-0.699785 4:-0.143031 5:0.539786 6:-0.92 7:-1 8:-0.897143 9:-0.269269 10:-0.909548 11:-0.360691 
-0.5 1:0.151807 2:0.508197 3:-0.845175 4:-0.143031 5:0.539786 6:-1 7:-0.826087 8:-1 9:-0.19424 10:-0.781305 11:-0.0820734 
-0.5 1:0.204819 2:0.409836 3:-0.664304 4:-0.143031 5:0.539786 6:-1 7:-1 8:-1 9:-0.402546 10:-0.84655 11:-0.477322 
-0.5 1:0.527711 2:0.0819672 3:0.202777 4:-0.0827851 5:0.562109 6:-0.424 7:-0.373913 8:-0.357143 9:-0.542567 10:-0.546741 11:-0.529158 
-0.5 1:0.371084 2:0.622951 3:-0.577517 4:-0.453582 5:0.555612 6:-1 7:-1 8:-1 9:-0.26823 10:-0.956331 11:-0.408207 
-0.5 1:0.60241 2:0.147541 3:-0.00502488 4:-0.143031 5:0.539786 6:-0.58 7:-0.413044 8:-0.678571 9:-0.575633 10:-0.570152 11:-0.650108 
-0.5 1:0.375904 2:0.0327869 3:-0.153658 4:-0.143031 5:0.513501 6:-1 7:-1 8:-1 9:-0.0888948 10:-0.673973 11:-0.416847 
-0.5 1:0.698795 2:-0.0655738 3:0.268211 4:-0.219664 5:0.526244 6:-0.424 7:-0.478261 8:-0.28 9:-0.844742 10:-0.194779 11:-0.563715 
-0.5 1:0.515663 3:0.239683 4:0.423307 5:0.532423 6:-0.232 7:-0.582609 8:-0.537143 9:-0.358398 10:-0.979861 11:-0.25054 
-0.5 1:0.515663 3:0.239683 4:0.423307 5:0.532423 6:-0.232 7:-0.582609 8:-0.537143 9:-0.358398 10:-0.979861 11:-0.25054 
-0.5 1:0.433735 2:0.590164 3:-0.896431 4:0.0315546 5:0.600044 6:-0.862857 7:-0.925465 8:-1 9:-0.273956 10:-0.932952 11:-0.209503 
-0.5 1:0.274699 2:0.213115 3:-0.51857 4:0.228314 5:0.539786 6:-0.92 7:-0.73913 8:-0.714285 9:-0.362088 10:-0.963289 11:-0.313175 
-0.5 1:0.342169 2:0.42623 3:-0.67568 4:-0.143031 5:0.539786 6:-1 7:-1 8:-0.614286 9:-0.320542 10:-0.979208 11:-0.509719 
-0.5 1:0.424096 2:0.0983607 3:-0.159064 4:-0.0833333 5:0.540771 6:-0.712 7:-0.686957 8:-1 9:-0.507373 10:-0.71594 11:-0.663067 
-0.5 1:0.337349 2:-0.245902 3:0.175428 4:-0.133346 5:0.387639 6:-0.4 7:-0.0869567 8:-0.338776 9:-0.390669 10:-0.988577 11:-0.235421 
-0.5 1:0.183133 2:0.52459 3:-0.768733 4:-1 5:0.539786 6:-0.82 7:-0.934783 8:-0.845714 9:-0.191547 10:-0.836666 11:-0.658747 
-0.5 1:0.192771 2:0.327869 3:-0.633368 4:-0.143031 5:0.539786 6:-0.94 7:-0.934783 8:-0.55 9:-0.52137 10:-0.643002 11:-0.5054 
-0.5 1:0.568675 2:0.508197 3:-0.799767 4:-0.143031 5:0.539786 6:-0.904 7:-1 8:-0.942857 9:-0.224303 10:-0.79502 11:-0.187905 
-0.5 1:0.120482 2:0.590164 3:-0.816229 4:-0.0615253 5:0.500853 6:-0.904 7:-0.843478 8:-0.807143 9:-0.323017 10:-0.884341 11:-0.660907 
-0.5 1:0.310843 2:0.557377 3:-0.884833 4:0.212597 5:0.66259 6:-1 7:-0.869565 8:-1 9:-0.306017 10:-0.976263 11:-0.356371 
-0.5 1:0.583133 2:0.262295 3:-0.727502 4:-0.483126 5:-0.390223 6:-0.88 7:-1 8:-0.948571 9:-0.277636 10:-0.799302 11:-0.207343 
-0.4375342676397393 1:0.595181 2:0.47541 3:-0.845887 4:-0.647173 5:0.499596 6:-1 7:-1 8:-1 9:-0.303388 10:-0.921065 11:-0.477322 
-0.5 1:0.224096 2:0.540984 3:-0.765366 4:-0.143031 5:0.539786 6:-0.84 7:-0.652174 8:-0.871429 9:-0.0913614 10:-0.570265 11:-0.166307 
-0.5 1:0.363855 2:0.377049 3:-0.441636 4:-0.143031 5:0.539786 6:-0.68 7:-0.73913 8:-0.614286 9:-0.321299 10:-0.995221 11:-0.358531 
-0.5 1:0.416867 2:0.377049 3:-0.242828 4:-0.172941 5:0.532258 6:-0.82 7:-0.73913 8:-0.428571 9:-0.295958 10:-0.940224 11:-0.140389 
-0.5 1:0.691566 2:-0.0163934 3:-0.459697 4:-0.301231 5:-0.704318 6:-0.2 7:-0.478261 8:-0.632653 9:-0.307121 10:-0.873013 11:0.576674 
-0.3153052228511592 1:0.561446 2:-0.180328 3:0.342294 4:-0.123782 5:0.540961 6:-0.0399998 7:-0.217391 8:-0.588571 9:-0.548644 10:-0.691456 11:-0.347732 
-0.1992737664224652 1:0.368675 2:-0.639344 3:0.564076 4:-0.10971 5:0.539786 6:-0.52 7:-0.217391 8:0.414286 9:-0.800867 10:-0.193592 11:-0.166307 
-0.3027114057058722 1:0.633735 2:-0.852459 3:0.758855 4:0.120066 5:0.596699 6:-1 7:0.565217 8:-0.485714 9:-0.729185 10:-0.397141 11:-0.358531 
-0.5 1:0.46506 2:0.508197 3:-0.443995 4:-0.143031 5:0.2038 6:-1 7:-1 8:-1 9:-0.337218 10:-0.959157 11:-0.431965 
-0.5 1:0.481928 2:-0.754098 3:0.669832 4:-0.0589059 5:0.591395 6:0.12 7:0.565217 8:-0.0357141 9:-0.805674 10:-0.299687 11:-0.453564 
-0.5 1:0.592771 2:0.180328 3:-0.0266478 4:-0.212171 5:0.491759 6:-0.52 7:-0.627329 8:-0.412244 9:-0.578806 10:-0.585681 11:-0.464363 
-0.4031488586176871 1:0.628916 2:-0.0163934 3:-0.123312 4:0.0452607 5:-0.138213 6:-0.0399998 7:-1 8:-0.828571 9:-0.610036 10:-0.583012 11:-0.341253 
-0.5 1:0.566265 2:0.491803 3:-0.431587 4:-0.095212 5:0.63996 6:-0.588572 7:-0.552796 8:-0.625974 9:-0.500089 10:-0.667687 11:-0.341253 
-0.5 1:0.513253 2:0.147541 3:-0.197985 4:0.00590887 5:0.536955 6:-0.4 7:-0.673913 8:-0.4 9:-0.794654 10:-0.182841 11:-0.609071 
-0.5 1:0.493976 2:-0.393443 3:-0.0528411 4:-0.143031 5:0.540787 6:-0.28 7:0.304348 8:0.542857 9:-0.445287 10:-0.944186 11:0.174946 
-0.5 1:0.33494 2:0.491803 3:-0.751434 4:-0.143031 5:0.539786 6:-1 7:-1 8:-1 9:-0.233159 10:-0.813256 11:-0.358531 
-0.5 1:0.53494 2:0.0819672 3:-0.0742429 4:-0.143031 5:0.30066 6:-0.0399998 7:-0.347826 8:-0.314285 9:-0.273514 10:-0.87035 11:-0.0323974 
-0.5 1:0.515663 2:0.540984 3:-0.718705 4:-0.213999 5:0.535398 6:-0.84 7:-0.826087 8:-1 9:-0.268809 10:-0.937718 11:-0.388769 
-0.5 1:0.515663 2:0.540984 3:-0.718705 4:-0.213999 5:0.535398 6:-0.84 7:-0.826087 8:-1 9:-0.268809 10:-0.937718 11:-0.388769 
-0.5 1:0.455422 2:0.245902 3:-0.174102 4:-0.143031 5:0.533563 6:-1 7:-1 8:-1 9:-0.146594 10:-0.820521 11:-0.62419 
-0.5 1:0.460241 2:-0.754098 3:1 4:-0.169164 5:0.491547 6:0.44 7:-0.478261 8:-0.228571 9:-0.726349 10:-0.376732 11:-0.535637 
-0.5 1:0.395181 2:0.42623 3:-0.875127 4:-0.143031 5:0.539786 6:-1 7:-1 8:-1 9:-0.14927 10:-0.648296 11:-0.239741 
-0.2910378742711198 1:0.831325 2:-0.622951 3:0.483359 4:-0.146077 5:0.540317 6:-0.52 7:0.565217 8:0.0285717 9:-0.511005 10:-0.811899 11:0.449244 
-0.003041271122421396 1:0.544578 2:-1 3:0.351828 4:-0.143031 5:0.539786 6:-1 7:-1 8:0.285715 9:-0.600001 10:-0.665772 11:-0.272138 
-0.5 1:-0.0385542 2:0.409836 3:-0.490853 4:-0.114218 5:0.558126 6:-1 7:-1 8:-1 9:-0.0758524 10:-0.667147 11:-0.600432 
-0.5 1:0.238554 2:0.42623 3:-0.601548 4:0.0143153 5:0.622475 6:-1 7:-0.895652 8:-1 9:-0.281055 10:-0.895934 11:-0.529158 
-0.5 1:0.626506 2:0.278689 3:-0.534247 4:-0.383285 5:0.540705 6:-0.712 7:-0.791304 8:-0.657143 9:-0.615012 10:-0.458769 11:-0.62635 
-0.5 1:0.559036 2:0.442623 3:-0.711825 4:-0.143031 5:0.539786 6:-0.76 7:-0.73913 8:-0.828571 9:-0.335649 10:-0.960087 11:-0.475162 
-0.5 1:0.578313 2:0.393443 3:-0.642705 4:-0.131579 5:0.543719 6:-0.862857 7:-0.850932 8:-0.614286 9:-0.394917 10:-0.910716 11:-0.349892 
-0.5 1:0.544578 2:0.655738 3:-0.933583 4:-0.143031 5:0.539786 6:-1 7:-1 8:-1 9:-0.191746 10:-0.718471 11:-0.0993521 
-0.5 1:0.433735 2:0.459016 3:-0.630739 4:0.0349659 5:0.541024 6:-1 7:-1 8:-1 9:-0.384926 10:-0.984967 11:-0.431965 
-0.5 1:0.628916 2:0.327869 3:-0.413281 4:-0.143031 5:0.470417 6:-1 7:-1 8:-1 9:-0.0272457 10:-0.508573 11:0.0863931 
-0.5 1:0.539759 2:0.47541 3:-0.954518 4:-0.143031 5:0.546783 6:-1 7:-1 8:-1 9:-0.248394 10:-0.803346 11:-0.25054 
-0.5 1:0.587952 2:0.393443 3:-0.831488 4:0.0863182 5:0.542164 6:-1 7:-1 8:-1 9:-0.312721 10:-0.939018 11:-0.49676 
-0.09197714830218855 1:0.216867 2:0.163934 3:-0.674231 4:-0.143031 5:0.528016 6:-1 7:-1 8:-1 9:-0.0828931 10:-0.545184 11:-0.233261 
-0.5 1:0.79759 2:0.590164 3:-0.811536 4:-0.143031 5:0.539786 6:-1 7:-1 8:-1 9:-0.199895 10:-0.805871 11:-0.133909 
-0.5 1:0.8 2:0.557377 3:-0.51024 4:-0.143031 5:0.539786 6:-1 7:-1 8:-1 9:0.127041 10:-0.236124 11:0.185745 
-0.5 1:0.166265 2:0.622951 3:-0.951938 4:-0.143031 5:0.539786 6:-1 7:-1 8:-1 9:-0.191111 10:-0.904769 11:-0.671706 
-0.01729567533947377 1:0.525301 2:0.622951 3:-1 4:-0.143031 5:0.539786 6:-1 7:-1 8:-1 9:-0.188384 10:-0.827793 11:-0.00863931 
-0.5 1:0.416867 2:0.52459 3:-0.877609 4:-0.143031 5:0.539786 6:-1 7:-1 8:-1 9:-0.217783 10:-0.852937 11:-0.537797 
-0.5 1:-0.0120482 2:0.606557 3:-0.980146 4:-0.143031 5:0.539786 6:-1 7:-1 8:-1 9:-0.260449 10:-0.99075 11:-0.706263 
-0.5 1:0.219277 2:0.672131 3:-0.97705 4:-0.143031 5:0.539786 6:-1 7:-1 8:-1 9:-0.12803 10:-0.6956 11:-0.367171 
-0.5 1:0.346988 2:0.459016 3:-0.667744 4:-0.143031 5:0.337973 6:-1 7:-1 8:-1 9:-0.140104 10:-0.677138 11:-0.291577 
-0.5 1:0.556627 2:0.622951 3:-0.778635 4:-0.0417276 5:0.50386 6:-1 7:-1 8:-1 9:-0.229715 10:-0.84959 11:-0.278618 
-0.1575629676686332 1:0.409639 2:0.327869 3:-0.234105 4:-0.143031 5:0.539786 6:-1 7:-0.608696 8:-0.871429 9:-0.257547 10:-0.97988 11:-0.12095 
