char* decision_rna_features_model_string=
"svm_type c_svc\n"
"kernel_type rbf\n"
"gamma 8\n"
"nr_class 2\n"
"total_sv 1078\n"
"rho 0.1992\n"
"label 1 -1\n"
"probA -4.10364\n"
"probB 0.120649\n"
"nr_sv 497 581\n"
"SV\n"
"0.4163442939983158 1:0.122334 2:0.875 3:0.314005 4:0.082444 5:0.577745 6:0.576238 7:-0.586297 8:-0.804589 \n"
"0.05335440238486049 1:0.0123457 2:0.75 3:0.151487 4:0.00602461 5:-0.208894 6:0.44543 7:-0.452716 8:-0.823834 \n"
"0.07584469082907566 1:0.0639731 2:0.671875 3:0.16329 4:0.0126499 5:0.101077 6:0.603621 7:-0.510873 8:-0.801628 \n"
"0.4765517773377664 1:0.239057 2:0.46875 3:0.147569 4:-0.0692446 5:0.571631 6:0.645437 7:-0.400415 8:-0.720207 \n"
"0.3977985100399763 1:0.126824 2:0.484375 3:-0.34552 4:0.229465 5:0.0921436 6:0.519032 7:-0.405821 8:-0.76758 \n"
"2 1:0.378227 2:0.015625 3:-0.0180589 4:0.000628261 5:0.571631 6:0.402007 7:-0.382098 8:-0.752776 \n"
"0.4698555622070697 1:0.315376 2:0.375 3:-0.20428 4:-0.0692446 5:0.0433551 6:0.482235 7:-0.113536 8:-0.696521 \n"
"0.2515241386194502 1:0.144781 2:0.34375 3:0.023544 4:0.0263298 5:-0.166295 6:0.436752 7:-0.397913 8:-0.763138 \n"
"0.1180518878931869 1:0.225589 2:0.234375 3:-0.013431 4:-0.0692446 5:0.271156 6:0.342092 7:-0.115287 8:-0.678756 \n"
"1.945489959481129 1:0.306397 2:0.53125 3:-0.662059 4:-0.0467375 5:0.571362 6:0.456519 7:-0.246515 8:-0.689119 \n"
"2 1:0.434343 2:0.59375 3:-0.773572 4:-0.0467375 5:0.585029 6:0.355336 7:-0.211431 8:-0.712805 \n"
"2 1:0.315376 2:0.5625 3:-0.847913 4:-0.0242304 5:0.573192 6:0.403112 7:-0.427091 8:-0.766099 \n"
"2 1:0.326599 2:0.546875 3:-0.717815 4:-0.00172329 5:0.570826 6:0.383306 7:-0.113386 8:-0.706884 \n"
"2 1:0.189675 2:0.25 3:-0.182463 4:-0.0692446 5:0.571631 6:0.451246 7:-0.248017 8:-0.751295 \n"
"2 1:0.227834 2:0.203125 3:-0.0640939 4:-0.0692446 5:0.571631 6:0.401205 7:-0.239108 8:-0.736491 \n"
"1.981486554039875 1:0.102132 2:0.359375 3:-0.247867 4:0.0274721 5:0.569178 6:0.567605 7:-0.342759 8:-0.761658 \n"
"2 1:0.274972 2:0.1875 3:-0.160327 4:-0.0692446 5:0.571631 6:0.370247 7:-0.0634369 8:-0.687639 \n"
"2 1:0.326599 2:0.3125 3:-0.135522 4:0.0274721 5:0.570574 6:0.359591 7:-0.0508746 8:-0.698001 \n"
"0.2010527487304586 1:0.0505051 2:0.359375 3:-0.120634 4:0.0274721 5:0.570574 6:0.629525 7:-0.542254 8:-0.834197 \n"
"1.491137975350521 1:-0.117845 2:0.359375 3:-0.462223 4:0.0274721 5:0.570574 6:0.786622 7:-0.687746 8:-0.866765 \n"
"2 1:0.12009 2:0.546875 3:-0.920688 4:-0.0692446 5:0.580777 6:0.316876 7:-0.49746 8:-0.813472 \n"
"1.361766904688378 1:0.0886644 2:0.59375 3:-0.807314 4:-0.0113776 5:0.590558 6:0.307896 7:-0.537749 8:-0.834197 \n"
"2 1:0.0213244 2:0.515625 3:-0.872767 4:-0.102659 5:0.584513 6:0.596342 7:-0.15928 8:-0.665433 \n"
"2 1:-0.0145903 2:0.46875 3:-0.834421 4:0.106578 5:0.660619 6:0.608575 7:-0.36428 8:-0.735011 \n"
"2 1:0.0460157 2:0.453125 3:-0.885084 4:-0.0796119 5:0.591549 6:0.53242 7:-0.259528 8:-0.703923 \n"
"0.3952322880567411 1:-0.0415264 2:0.453125 3:-0.922989 4:0.0818846 5:0.0820417 6:0.592418 7:-0.233102 8:-0.678756 \n"
"2 1:0.122334 2:0.5 3:-0.904575 4:0.00375972 5:0.567647 6:0.504156 7:-0.0904132 8:-0.646188 \n"
"2 1:-0.0572391 2:0.453125 3:-0.866499 4:-0.130743 5:0.665927 6:0.624606 7:-0.328395 8:-0.723168 \n"
"0.5697905774309343 1:-0.993266 2:0.65625 3:-0.526329 4:0.849895 5:0.571631 6:0.854836 7:-0.904707 8:-0.973353 \n"
"0.3124780486602114 1:-0.993266 2:0.578125 3:-0.400174 4:0.849895 5:0.199496 6:0.864647 7:-1 8:-0.997039 \n"
"0.6152816492251212 1:-0.973064 2:0.5625 3:-0.382641 4:-0.0692446 5:0.199496 6:0.882822 7:-0.987638 8:-0.992598 \n"
"0.441276435258008 1:-1 2:0.625 3:-0.313858 4:0.849895 5:0.199496 6:0.835783 7:-0.911063 8:-0.977794 \n"
"0.1308223559396718 1:-0.984287 2:0.625 3:-0.464182 4:0.849895 5:0.571631 6:0.883699 7:-0.993644 8:-0.994078 \n"
"0.1234823976889418 1:-0.979798 2:0.59375 3:-0.549934 4:-0.0692446 5:0.199496 6:0.853959 7:-0.898701 8:-0.973353 \n"
"0.9433125998604349 1:-0.970819 2:0.5625 3:-0.702315 4:-0.0692446 5:0.571631 6:0.897221 7:-0.966117 8:-0.985196 \n"
"0.3645989732318662 1:0.62514 2:0.6875 3:-0.205039 4:-0.0692446 5:0.538271 6:0.256129 7:0.283351 8:-0.453738 \n"
"0.6645697473055192 1:0.375982 2:0.640625 3:-0.443197 4:-0.0692446 5:0.571782 6:0.42473 7:0.126999 8:-0.53812 \n"
"0.02094439858870591 1:0.503928 2:0.71875 3:-0.25154 4:-0.0692446 5:0.537705 6:0.336975 7:0.296614 8:-0.471503 \n"
"2 1:0.342312 2:0.5625 3:-0.869168 4:-0.0692446 5:0.571631 6:0.613749 7:-0.405771 8:-0.718727 \n"
"2 1:0.263749 2:0.578125 3:-0.831385 4:-0.0320649 5:0.571631 6:0.684394 7:-0.474788 8:-0.718727 \n"
"0.8680464148098213 1:0.306397 2:0.5625 3:-0.78841 4:-0.0320649 5:0.571631 6:0.615947 7:-0.412878 8:-0.717246 \n"
"2 1:0.200898 2:0.5625 3:-0.807314 4:-0.0320649 5:0.571631 6:0.630672 7:-0.525637 8:-0.810511 \n"
"1.194306844363372 1:0.283951 2:0.546875 3:-0.633875 4:-0.0692446 5:0.590448 6:0.23327 7:-0.141012 8:-0.69356 \n"
"2 1:0.609428 2:0.5625 3:-0.403773 4:-0.0692446 5:0.549892 6:0.248105 7:0.0620855 8:-0.548483 \n"
"2 1:0.49046 2:0.53125 3:-0.658411 4:-0.0692446 5:0.302622 6:0.336904 7:-0.0952679 8:-0.589933 \n"
"1.322866157907253 1:0.382716 2:0.4375 3:-0.543984 4:-0.0692446 5:0.00867739 6:0.6406 7:-0.461975 8:-0.718727 \n"
"2 1:0.6633 2:0.515625 3:-0.891377 4:-0.0531776 5:0.571631 6:0.141556 7:0.204074 8:-0.468542 \n"
"0.7489096534674616 1:0.375982 2:0.21875 3:0.178398 4:-0.0692446 5:0.245463 6:0.559201 7:-0.46703 8:-0.739452 \n"
"0.645115896602597 1:0.62514 2:0.703125 3:0.295616 4:0.0117321 5:0.178424 6:0.225304 7:-0.00197693 8:-0.563286 \n"
"0.4996280918622798 1:0.0886644 2:0.78125 3:0.247646 4:0.13907 5:-0.600754 6:0.605273 7:-0.328645 8:-0.705403 \n"
"0.07547456410535335 1:0.158249 2:0.78125 3:-0.0707788 4:-0.0199291 5:0.571631 6:0.690615 7:-0.423288 8:-0.72909 \n"
"0.4745561926862438 1:0.138047 2:0.8125 3:0.129449 4:0.0935715 5:-0.251203 6:0.540289 7:-0.480343 8:-0.789785 \n"
"0.04063411418767202 1:0.328844 2:0.796875 3:0.231681 4:-0.0692446 5:0.573795 6:0.621926 7:-0.298316 8:-0.650629 \n"
"0.4933262760678893 1:0.18743 2:0.859375 3:0.164906 4:-0.0573175 5:0.566385 6:0.379925 7:-0.550211 8:-0.834197 \n"
"2 1:0.461279 2:0.296875 3:-0.0559154 4:0.0635174 5:0.572662 6:0.379161 7:-0.0496234 8:-0.643227 \n"
"0.1313157401642531 1:0.28844 2:0.390625 3:-0.208149 4:0.0782529 5:0.57987 6:0.558373 7:-0.203974 8:-0.718727 \n"
"2 1:0.450056 2:0.3125 3:-0.246544 4:0.216746 5:0.579333 6:0.399512 7:-0.00513 8:-0.659511 \n"
"0.2106018719645022 1:0.259259 2:0.796875 3:-0.00143247 4:-0.0692446 5:0.348188 6:0.351591 7:-0.308776 8:-0.780903 \n"
"0.385981734700082 1:0.380471 2:0.609375 3:-0.792745 4:-0.0186016 5:0.582851 6:0.350366 7:-0.290458 8:-0.73205 \n"
"2 1:0.378227 2:0.5 3:-0.833221 4:-0.0354839 5:0.572807 6:0.414243 7:-0.187458 8:-0.709845 \n"
"0.02661284531351455 1:0.0213244 2:0.484375 3:-0.833221 4:0.00340521 5:0.66064 6:0.575486 7:-0.284502 8:-0.712805 \n"
"1.829360207947952 1:0.0796857 2:0.53125 3:-0.847203 4:0.00446479 5:0.608835 6:0.554288 7:-0.157679 8:-0.669874 \n"
"0.6986340923022425 1:0.0325477 2:0.453125 3:-0.877322 4:0.142871 5:0.213248 6:0.551345 7:-0.213033 8:-0.680237 \n"
"0.4564036408723324 1:-0.984287 2:0.625 3:-0.477821 4:0.620109 5:0.571631 6:0.8787 7:-0.960762 8:-0.985196 \n"
"0.2394999748684825 1:-0.975309 2:0.578125 3:-0.421918 4:-0.0692446 5:0.152979 6:0.878043 7:-0.956257 8:-0.985196 \n"
"0.559349429305419 1:0.578002 2:0.921875 3:-0.104154 4:-0.0692446 5:0.546611 6:0.268107 7:0.26103 8:-0.481865 \n"
"0.2336990292644454 1:0.277217 2:0.578125 3:-0.792892 4:-0.0413608 5:0.571631 6:0.63619 7:-0.454768 8:-0.740933 \n"
"0.3738889421632974 1:0.627385 2:0.265625 3:0.498684 4:-0.0692446 5:0.455184 6:0.346361 7:-0.0249493 8:-0.551443 \n"
"0.07161284648660922 1:0.427609 2:0.640625 3:0.399953 4:0.00341703 5:0.572483 6:0.405129 7:-0.434198 8:-0.718727 \n"
"0.4659054384476025 1:0.169473 2:0.3125 3:0.599202 4:-0.0795567 5:0.406141 6:0.582909 7:-0.455219 8:-0.73205 \n"
"0.5500538978028615 1:0.589226 2:0.71875 3:0.468051 4:0.0532367 5:0.572251 6:0.295468 7:-0.038963 8:-0.618061 \n"
"0.1089667324612924 1:0.196409 2:0.65625 3:0.463447 4:-0.0593106 5:-0.0689264 6:0.603915 7:-0.352319 8:-0.711325 \n"
"0.4813839981414732 1:0.274972 2:0.890625 3:0.370741 4:0.0298512 5:-0.0428705 6:0.450752 7:-0.428142 8:-0.772021 \n"
"0.137770055907929 1:0.18743 2:0.921875 3:0.651775 4:-0.0169867 5:0.23809 6:0.578094 7:-0.408223 8:-0.754256 \n"
"0.5400336186748614 1:0.209877 2:0.796875 3:0.740686 4:0.00517773 5:0.0674682 6:0.494777 7:-0.334701 8:-0.714286 \n"
"0.4782554517612602 1:0.234568 2:0.90625 3:0.510609 4:-0.0152969 5:0.590976 6:0.530881 7:-0.272741 8:-0.721688 \n"
"0.9679985312390845 1:0.122334 2:0.90625 3:0.711179 4:-0.0428064 5:-0.559106 6:0.491599 7:-0.502965 8:-0.810511 \n"
"0.7465935323410985 1:0.459035 2:0.390625 3:0.0599312 4:-0.0692446 5:0.551185 6:0.421401 7:-0.0523761 8:-0.549963 \n"
"0.6852555042333144 1:0.52413 2:0.53125 3:0.017961 4:-0.0692446 5:0.551275 6:0.307716 7:0.206376 8:-0.512953 \n"
"1.598179132055391 1:0.0145903 2:0.46875 3:-0.82972 4:0.115614 5:0.317078 6:0.582013 7:-0.242261 8:-0.69208 \n"
"0.751754491166561 1:-0.986532 2:0.625 3:-0.315303 4:0.482238 5:0.125069 6:0.867062 7:-0.953905 8:-0.985196 \n"
"0.7335454681144774 1:0.414141 2:0.671875 3:0.870588 4:-0.0692446 5:0.456793 6:0.345369 7:-0.161683 8:-0.681717 \n"
"0.3233240939791011 1:0.384961 2:0.234375 3:0.411364 4:-0.104104 5:0.0924468 6:0.474723 7:-0.18981 8:-0.659511 \n"
"0.5064967381901564 1:0.384961 2:0.25 3:0.812995 4:-0.0746094 5:0.544445 6:0.390714 7:-0.18946 8:-0.683198 \n"
"0.8623360869944966 1:0.470258 2:0.109375 3:0.594647 4:-0.0261132 5:0.420563 6:0.432621 7:-0.0053302 8:-0.595855 \n"
"0.1666406687891078 1:0.42312 2:0.71875 3:0.473414 4:-0.0607207 5:0.209869 6:0.449256 7:-0.0528766 8:-0.623982 \n"
"0.4528761943050962 1:0.124579 2:0.671875 3:0.47814 4:0.000443131 5:-0.69284 6:0.492061 7:-0.346813 8:-0.695041 \n"
"0.3605528825928344 1:0.223345 2:0.8125 3:0.574984 4:-0.235314 5:0.283979 6:0.498749 7:-0.390255 8:-0.789785 \n"
"2 1:0.299663 2:0.140625 3:-0.00324449 4:0.0820619 5:0.450613 6:0.417116 7:-0.243562 8:-0.717246 \n"
"0.02457854186931733 1:0.272727 2:0.515625 3:0.195587 4:-0.0692446 5:-0.130451 6:0.392608 7:-0.308376 8:-0.739452 \n"
"0.4872877193080911 1:0.129068 2:0.515625 3:0.285356 4:-0.033995 5:-0.450121 6:0.4026 7:-0.294262 8:-0.766099 \n"
"0.06789345279460313 1:0.299663 2:0.796875 3:0.190323 4:-0.0692446 5:0.273745 6:0.332421 7:-0.246215 8:-0.742413 \n"
"1.167256271676126 1:0.234568 2:0.21875 3:0.0621595 4:-0.0692446 5:-1 6:0.442601 7:-0.340957 8:-0.752776 \n"
"0.03040073003655986 1:0.537598 2:0.578125 3:-0.501524 4:-0.0692446 5:0.571631 6:0.316105 7:-0.176397 8:-0.684678 \n"
"2 1:0.349046 2:0.3125 3:-0.361069 4:-0.0692446 5:0.571631 6:0.56466 7:-0.259378 8:-0.643227 \n"
"0.6985761012332679 1:0.537598 2:0.484375 3:0.0172509 4:-0.0692446 5:-0.0202978 6:0.436523 7:-0.0596832 8:-0.557365 \n"
"1.030469249659131 1:0.326599 2:0.53125 3:-0.396721 4:-0.0100699 5:0.579986 6:0.456115 7:-0.385301 8:-0.73057 \n"
"0.5261614601405211 1:0.481481 2:0.265625 3:0.321008 4:0.000876414 5:0.546416 6:0.490411 7:-0.32334 8:-0.699482 \n"
"0.4116983850630843 1:0.0572391 2:0.265625 3:-0.139415 4:-0.0692446 5:0.571631 6:0.447646 7:-0.218989 8:-0.717246 \n"
"0.07452106581778496 1:-0.364759 2:0.078125 3:-0.136599 4:0.201101 5:0.395918 6:0.393582 7:-0.392057 8:-0.911177 \n"
"0.2699914974135001 1:-0.488215 2:0.59375 3:-0.684146 4:0.173512 5:0.577278 6:0.375705 7:-0.47659 8:-0.9245 \n"
"0.4823522075882443 1:-0.542088 2:0.578125 3:-0.667569 4:-0.0969392 5:0.25992 6:0.215779 7:-0.396111 8:-0.949667 \n"
"0.01494201369631981 1:-0.281706 2:0.5625 3:-0.408181 4:-0.0222885 5:0.427217 6:0.0361228 7:-0.229699 8:-0.915618 \n"
"0.6437928175696098 1:-0.555556 2:0.40625 3:-0.391604 4:0.339141 5:0.495825 6:0.161248 7:-0.248818 8:-0.917098 \n"
"1.99236746382533 1:0.108866 2:-0.34375 3:0.181875 4:-0.207155 5:0.588675 6:0.110276 7:0.00127624 8:-0.80607 \n"
"1.021018734575226 1:0.0617284 2:0.078125 3:-0.320421 4:-0.00928999 5:0.287028 6:-0.0265764 7:0.0783013 8:-0.819393 \n"
"0.6241976134220427 1:-0.0976431 2:-0.125 3:-0.0419335 4:-0.0510821 5:0.570805 6:0.212202 7:-0.279047 8:-0.902295 \n"
"1.310565405087435 1:0.010101 2:0.203125 3:-0.389155 4:-0.0261053 5:0.571531 6:0.183542 7:-0.192663 8:-0.863805 \n"
"0.3331848286448427 1:-0.122334 2:0.125 3:0.0706319 4:0.182639 5:0.587872 6:0.449676 7:-0.289557 8:-0.854922 \n"
"2 1:-0.0796857 2:-0.03125 3:-0.117377 4:-0.0345977 5:0.578427 6:0.424478 7:-0.227797 8:-0.853442 \n"
"0.1837634369322 1:-0.25477 2:0.5625 3:-0.979847 4:-0.547999 5:0.559501 6:0.320361 7:-0.411626 8:-0.911177 \n"
"0.1484511830235633 1:-0.185185 2:0.484375 3:-0.83949 4:-0.576446 5:0.55419 6:0.300638 7:-0.558119 8:-0.96003 \n"
"0.1009231070155541 1:-0.52862 2:0.234375 3:-0.479952 4:-0.0791471 5:0.777756 6:0.483224 7:-0.447161 8:-0.820873 \n"
"0.2157145488971148 1:-0.281706 2:0.0625 3:-0.445695 4:-0.176963 5:0.500806 6:0.470643 7:-0.329897 8:-0.810511 \n"
"1.334554684060151 1:0.111111 2:0.59375 3:-0.991723 4:-0.0585307 5:0.571631 6:0.0925217 7:-0.125497 8:-0.863805 \n"
"0.4299969314554138 1:-0.043771 2:0.53125 3:-0.921471 4:-0.0763268 5:0.57073 6:0.221581 7:-0.234404 8:-0.900814 \n"
"0.7402765007973081 1:-0.043771 2:0.5625 3:-0.819264 4:-0.120935 5:0.511386 6:0.0402791 7:-0.0011261 8:-0.837158 \n"
"2 1:0.463524 2:0.3125 3:-0.777734 4:-0.415044 5:0.569182 6:-0.072445 7:0.429093 8:-0.588453 \n"
"0.3084656108658073 1:0.0213244 2:0.21875 3:0.134591 4:-0.128912 5:0.574562 6:0.409743 7:-0.272941 8:-0.776462 \n"
"0.6018348309173944 1:-0.00785634 2:0.21875 3:-0.165175 4:-0.0220167 5:0.581866 6:0.385208 7:-0.269488 8:-0.785344 \n"
"0.2450195359088956 1:-0.602694 2:0.59375 3:-0.288955 4:-0.0332939 5:0.459465 6:0.243035 7:-0.429594 8:-0.948187 \n"
"0.5431270033541442 1:-0.573513 2:0.296875 3:-0.300929 4:-0.240797 5:0.426894 6:0.177131 7:-0.310328 8:-0.92154 \n"
"0.1295820689602248 1:-0.450056 2:0.15625 3:-0.247499 4:0.0925434 5:0.482347 6:0.222821 7:-0.398514 8:-0.917098 \n"
"0.336000875231915 1:-0.521886 2:0.5 3:-0.190127 4:0.322286 5:0.578318 6:0.377394 7:-0.31233 8:-0.903775 \n"
"0.9762634936304299 1:-0.205387 2:0.5 3:-0.104693 4:0.591107 5:0.432346 6:0.141652 7:-0.249718 8:-0.896373 \n"
"2 1:0.0707071 2:0.140625 3:-0.264297 4:-0.10542 5:0.58136 6:0.204459 7:-0.0384125 8:-0.816432 \n"
"0.2087717418941588 1:0.0976431 2:0.3125 3:-0.44856 4:-0.066704 5:0.554582 6:0.179208 7:-0.0875103 8:-0.856403 \n"
"0.8961749413161358 1:-0.0774411 2:-0.015625 3:-0.202664 4:-0.178656 5:0.579094 6:0.373377 7:-0.24101 8:-0.872687 \n"
"0.4352410052680223 1:0.122334 2:0.1875 3:-0.371745 4:-0.492736 5:0.58366 6:0.131527 7:-0.124997 8:-0.863805 \n"
"2 1:-0.0774411 2:0.390625 3:-0.731797 4:-0.0720097 5:0.572 6:0.328161 7:-0.206176 8:-0.880089 \n"
"1.587137741690796 1:0.0953984 2:0.203125 3:-0.348972 4:-0.0871155 5:0.567985 6:0.154811 7:-0.0341583 8:-0.837158 \n"
"0.3386668327376784 1:-0.0662177 2:0.5 3:-0.764634 4:-0.592237 5:0.554084 6:0.130234 7:-0.351368 8:-0.92302 \n"
"0.7245677880316287 1:-0.360269 2:0.53125 3:-0.916721 4:-0.612471 5:0.549033 6:0.314405 7:-0.487901 8:-0.940785 \n"
"0.2398559541068278 1:-0.407407 2:0.125 3:-0.195098 4:-0.0766734 5:0.64618 6:0.537299 7:-0.277045 8:-0.754256 \n"
"0.2512377835309619 1:-0.468013 2:0.3125 3:-0.264101 4:-0.0692446 5:0.0157432 6:0.474571 7:-0.340507 8:-0.80903 \n"
"0.8967011288223335 1:0.158249 2:0.578125 3:-0.940326 4:-0.0591097 5:0.571631 6:0.00456522 7:-0.0798028 8:-0.856403 \n"
"2 1:-0.102132 2:0.09375 3:0.0940167 4:-0.0141191 5:0.571631 6:0.490213 7:-0.41508 8:-0.780903 \n"
"0.03850809025634845 1:-0.369248 2:0.484375 3:-0.346621 4:0.423454 5:0.48564 6:0.119901 7:-0.305873 8:-0.925981 \n"
"0.3120363698408285 1:-0.459035 2:0.1875 3:0.114977 4:0.244819 5:0.539023 6:0.292941 7:-0.337955 8:-0.92154 \n"
"0.1380741656838897 1:-0.335578 2:0.125 3:0.0871849 4:-0.274648 5:0.499048 6:0.100299 7:-0.294612 8:-0.912657 \n"
"0.7767103066393004 1:-0.0415264 2:0.21875 3:-0.316454 4:-0.00455144 5:0.533305 6:0.292521 7:-0.0918646 8:-0.837158 \n"
"2 1:-0.0213244 2:-0.328125 3:0.355633 4:0.100756 5:0.565568 6:0.322517 7:-0.0864593 8:-0.828275 \n"
"0.7019118440359428 1:0.200898 2:0.125 3:-0.208296 4:-0.266247 5:0.515351 6:0.113782 7:0.0168414 8:-0.831236 \n"
"0.7110205118117398 1:-0.0684624 2:0.359375 3:-0.486073 4:-0.0859969 5:0.482321 6:0.438248 7:-0.208128 8:-0.757217 \n"
"0.1017399428506172 1:-0.42312 2:0.1875 3:-0.0953634 4:-0.0873479 5:-0.0144536 6:0.399306 7:-0.396762 8:-0.835677 \n"
"0.04053951749243315 1:-0.239057 2:-0.203125 3:0.24412 4:-0.0705641 5:0.545525 6:0.389023 7:-0.295563 8:-0.890452 \n"
"0.2338484081282861 1:-0.230079 2:-0.359375 3:0.54276 4:-0.254828 5:0.603544 6:0.188782 7:-0.192463 8:-0.868246 \n"
"0.6324316430036594 1:-0.230079 2:-0.234375 3:0.532133 4:0.299365 5:0.35033 6:0.177302 7:-0.182103 8:-0.880089 \n"
"0.4276325554795373 1:-0.281706 2:-0.265625 3:0.295591 4:-0.261433 5:0.563442 6:0.20583 7:-0.23055 8:-0.888971 \n"
"0.1033063690752901 1:-0.393939 3:0.117328 4:0.0124293 5:0.710361 6:0.221265 7:-0.297015 8:-0.912657 \n"
"0.07392544134253427 1:0.00561167 2:0.03125 3:0.348948 4:0.00745838 5:0.566095 6:0.193431 7:-0.15928 8:-0.863805 \n"
"0.06388631659923669 1:-0.274972 2:0.09375 3:0.370961 4:0.0502392 5:0.5406 6:0.16265 7:-0.154776 8:-0.866765 \n"
"1.049184061904501 1:0.010101 2:-0.6875 3:0.806114 4:-0.0571126 5:0.536645 6:0.13042 7:-0.15923 8:-0.859363 \n"
"0.02263920447148892 1:-0.117845 2:-0.5625 3:0.65246 4:-0.0561673 5:0.549121 6:0.313884 7:-0.195315 8:-0.851962 \n"
"0.2352176868176235 1:-0.468013 2:0.15625 3:0.378356 4:-0.0227651 5:0.569014 6:0.241944 7:-0.319486 8:-0.92302 \n"
"0.3210687162325809 1:0.0707071 2:-0.40625 3:0.654517 4:0.0412624 5:0.558664 6:0.126268 7:-0.0936163 8:-0.854922 \n"
"0.1731300820869129 1:-0.209877 2:-0.21875 3:0.698716 4:-0.067476 5:0.571501 6:0.263367 7:-0.248567 8:-0.888971 \n"
"0.1017823284238625 1:-0.0684624 2:-0.375 3:0.807241 4:0.0903573 5:0.512643 6:0.154698 7:-0.193564 8:-0.871207 \n"
"0.3548729359469767 1:-0.427609 2:0.390625 3:0.323996 4:-0.120837 5:0.523038 6:0.246497 7:-0.346763 8:-0.911177 \n"
"0.339554066472099 1:-0.200898 2:-0.625 3:0.612841 4:-0.0216346 5:0.572711 6:0.208016 7:-0.214384 8:-0.88453 \n"
"1.376702409482578 1:-0.0729517 2:0.25 3:-0.612131 4:-0.0692446 5:0.571631 6:0.727744 7:-0.0622857 8:-0.221318 \n"
"1.915337901762638 1:0.326599 2:0.703125 3:-0.407422 4:-0.0692446 5:0.571631 6:0.798053 7:-0.280098 8:-0.246484 \n"
"2 1:0.18743 2:0.265625 3:-0.567687 4:-0.0692446 5:0.672848 6:0.667121 7:-0.175546 8:-0.450777 \n"
"1.5221847085425 1:0.0415264 2:0.28125 3:-0.536002 4:-0.0692446 5:0.571631 6:0.642271 7:-0.0633368 8:-0.407846 \n"
"0.3432241834765852 1:0.0145903 2:0.5625 3:-0.158931 4:-0.171724 5:0.492814 6:0.755863 7:-0.339856 8:-0.471503 \n"
"2 1:-0.2211 2:0.515625 3:-0.861136 4:-0.09792 5:0.571631 6:0.788574 7:-0.407973 8:-0.486306 \n"
"2 1:-0.158249 2:0.40625 3:-0.539185 4:-0.133831 5:0.571631 6:0.825034 7:-0.567328 8:-0.468542 \n"
"1.143062588125804 1:-0.241302 2:0.78125 3:-0.231167 4:-0.0692446 5:0.571631 6:0.871214 7:-0.818873 8:-0.634345 \n"
"0.6568613922732299 1:-0.0505051 2:0.421875 3:-0.0801082 4:-0.452885 5:0.573542 6:0.833989 7:-0.62003 8:-0.489267 \n"
"1.042671986610626 1:0.162738 2:0.625 3:-0.576405 4:-0.0692446 5:0.571631 6:0.581417 7:-0.169791 8:-0.437454 \n"
"2 1:-0.113356 2:0.265625 3:-0.354384 4:-0.133831 5:0.546295 6:0.820567 7:-0.439103 8:-0.357513 \n"
"2 1:0.0572391 2:0.3125 3:-0.423755 4:-0.0692446 5:0.571631 6:0.732496 7:-0.0125873 8:-0.173945 \n"
"0.1738100162951531 1:-0.378227 2:0.78125 3:-0.371622 4:-0.103951 5:0.561882 6:0.848071 7:-0.417182 8:-0.515914 \n"
"1.831532503653156 1:0.277217 2:0.5625 3:-0.900388 4:-0.0692446 5:0.571631 6:0.56171 7:0.515127 8:0.00518135 \n"
"0.130344366602261 1:-0.0819304 2:0.421875 3:-0.337488 4:-0.0692446 5:0.571631 6:0.763423 7:-0.34316 8:-0.441895 \n"
"2 1:0.0796857 2:0.578125 3:-0.861136 4:-0.0692446 5:0.571631 6:0.567153 7:0.0732965 8:-0.332346 \n"
"2 1:0.185185 2:0.578125 3:-0.754447 4:-0.0580777 5:0.57144 6:0.743787 7:-0.0404645 8:-0.122132 \n"
"2 1:0.196409 2:0.40625 3:-0.455342 4:-0.14707 5:0.571631 6:0.737535 7:0.0312555 8:-0.0495929 \n"
"1.566462036116765 1:0.162738 2:0.390625 3:-0.603389 4:-0.0553283 5:0.570658 6:0.779772 7:-0.0195941 8:-0.119171 \n"
"2 1:0.263749 2:0.453125 3:-0.502675 4:-0.0692446 5:0.571631 6:0.728027 7:-0.0767999 8:-0.117691 \n"
"2 1:0.263749 2:0.625 3:-0.66561 4:-0.0580777 5:0.57144 6:0.735223 7:-0.01539 8:-0.0940044 \n"
"0.5101860135233319 1:0.151515 2:0.65625 3:-0.515457 4:-0.0692446 5:0.571631 6:0.687506 7:-0.196216 8:-0.321984 \n"
"2 1:0.236813 2:0.609375 3:-0.772053 4:-0.0692446 5:0.571631 6:0.795229 7:-0.383299 8:-0.401925 \n"
"2 1:0.232323 2:0.359375 3:-0.780403 4:-0.0692446 5:0.571631 6:0.834828 7:-0.21003 8:-0.284974 \n"
"2 1:0.037037 2:0.234375 3:-0.579123 4:-0.0692446 5:0.571631 6:0.712155 7:-0.208028 8:-0.435973 \n"
"1.242238063384145 1:-0.0460157 2:0.546875 3:-0.682971 4:-0.0604174 5:0.571631 6:0.69096 7:-0.386902 8:-0.523316 \n"
"2 1:0.162738 2:0.625 3:-0.576405 4:-0.0692446 5:0.571631 6:0.581417 7:-0.169791 8:-0.437454 \n"
"1.436738422662034 1:-0.030303 2:0.46875 3:-0.741078 4:0.0742707 5:0.574767 6:0.721567 7:-0.276895 8:-0.504071 \n"
"0.7455851924479873 1:0.310887 2:0.703125 3:-0.620138 4:-0.0692446 5:0.571631 6:0.530003 7:0.560471 8:-0.0170244 \n"
"2 1:0.147026 2:0.59375 3:-0.830332 4:-0.0692446 5:0.571631 6:0.530934 7:0.027652 8:-0.305699 \n"
"0.288938365115373 1:-0.0841751 2:0.65625 3:-0.553118 4:-0.353411 5:0.556761 6:0.892741 7:-0.618979 8:-0.381199 \n"
"2 1:0.200898 2:0.515625 3:-0.800997 4:-0.0692446 5:0.570639 6:0.735257 7:-0.273342 8:-0.437454 \n"
"2 1:0.409652 2:0.53125 3:-0.516682 4:-0.0927482 5:0.575187 6:0.553811 7:0.0870098 8:-0.301258 \n"
"2 1:0.0998878 2:0.546875 3:-0.772053 4:-0.0692446 5:0.571631 6:0.686603 7:0.114937 8:-0.178386 \n"
"0.297098271432601 1:-0.225589 2:0.109375 3:-0.0257478 4:-0.0692446 5:0.571631 6:0.784395 7:-0.461125 8:-0.524796 \n"
"0.5659495525448981 1:0.142536 2:0.734375 3:-0.131139 4:-0.0692446 5:0.571631 6:0.706521 7:-0.0700933 8:-0.361954 \n"
"0.2953589525083778 1:0.0527497 2:0.703125 3:-0.052977 4:-0.0692446 5:0.571631 6:0.710502 7:-0.131003 8:-0.398964 \n"
"2 1:-0.263749 2:0.4375 3:-0.832829 4:-0.0692446 5:0.571631 6:0.807208 7:-0.290608 8:-0.319023 \n"
"0.6324069832555712 1:0.0145903 2:0.4375 3:0.291649 4:-0.0692446 5:0.571631 6:0.726062 7:-0.221541 8:-0.428571 \n"
"1.449984577920807 1:-0.0998878 2:0.34375 3:-0.28587 4:-0.0692446 5:0.571631 6:0.92921 7:-0.636996 8:-0.507032 \n"
"2 1:-0.023569 2:0.53125 3:-0.827246 4:0.00269226 5:0.579787 6:0.765409 7:-0.21068 8:-0.314582 \n"
"2 1:0.268238 2:0.546875 3:-0.567687 4:-0.0541899 5:0.569633 6:0.717202 7:0.224494 8:0.11621 \n"
"0.5927084323873665 1:0.203143 2:0.46875 3:-0.565386 4:-0.0588064 5:0.570901 6:0.739158 7:-0.0431671 8:-0.141377 \n"
"0.03157500331124584 1:0.108866 2:0.53125 3:-0.720631 4:-0.264309 5:0.571631 6:0.71562 7:0.00798278 8:-0.144338 \n"
"1.477144712449747 1:0.124579 2:0.40625 3:-0.558505 4:-0.057282 5:0.571426 6:0.749034 7:-0.102225 8:-0.179867 \n"
"0.7143720190092399 1:-0.0392817 2:0.578125 3:-0.438349 4:-0.0692446 5:0.571631 6:0.795278 7:-0.646255 8:-0.532198 \n"
"0.1391831039988622 1:-0.232323 2:0.875 3:0.256119 4:-0.0900658 5:0.565781 6:0.845831 7:-0.452716 8:-0.467061 \n"
"2 1:0.209877 2:0.234375 3:-0.45522 4:0.0425977 5:0.571631 6:0.750921 7:-0.246716 8:-0.298298 \n"
"1.282978066151441 1:0.194164 2:0.609375 3:-0.254674 4:-0.0692446 5:0.571631 6:0.709658 7:-0.0273517 8:-0.119171 \n"
"2 1:0.164983 2:0.453125 3:-0.51034 4:-0.0596729 5:0.571467 6:0.72269 7:-0.104627 8:-0.185788 \n"
"2 1:0.182941 2:0.484375 3:-0.557721 4:-0.060894 5:0.571047 6:0.719927 7:-0.0723956 8:-0.170984 \n"
"1.014101463832223 1:0.0841751 2:0.484375 3:-0.66561 4:-0.286792 5:0.265995 6:0.74443 7:0.0200445 8:-0.117691 \n"
"2 1:0.0976431 2:0.5 3:-0.424416 4:-0.0692446 5:0.571631 6:0.538978 7:-0.0229974 8:-0.181347 \n"
"1.9410122257816 1:-0.0123457 2:0.53125 3:-0.697957 4:-0.0692446 5:0.571631 6:0.872675 7:-0.524336 8:-0.437454 \n"
"0.3366030386588167 1:-0.043771 2:0.46875 3:-0.761793 4:-0.0692446 5:0.571631 6:0.878378 7:-0.429994 8:-0.243523 \n"
"1.48943656616809 1:-0.349046 2:0.375 3:-0.518787 4:-0.0692446 5:0.57892 6:0.768596 7:-0.21073 8:-0.19171 \n"
"2 1:-0.0594837 2:0.21875 3:-0.438128 4:-0.0692446 5:0.571631 6:0.747951 7:-0.142364 8:-0.237602 \n"
"2 1:-0.0549944 2:0.25 3:-0.402623 4:-0.0692446 5:0.571631 6:0.730993 7:-0.182503 8:-0.27017 \n"
"2 1:-0.0819304 2:0.09375 3:-0.421355 4:-0.0692446 5:0.571631 6:0.718415 7:-0.147519 8:-0.289415 \n"
"0.7609392482204984 1:0.0841751 2:0.890625 3:-0.461146 4:-0.0692446 5:0.569582 6:0.808424 7:0.0569305 8:0.0777202 \n"
"2 1:0.230079 2:0.234375 3:-0.581743 4:-0.0692446 5:0.632361 6:0.728141 7:-0.126348 8:-0.335307 \n"
"1.603436479437582 1:-0.00112233 2:0.515625 3:-0.397603 4:0.429216 5:0.590937 6:0.723492 7:-0.00673156 8:-0.141377 \n"
"1.240525407823193 1:0.113356 2:0.46875 3:-0.124527 4:-0.0692446 5:0.571631 6:0.50993 7:0.247917 8:0.00370096 \n"
"0.7145898118906727 1:-0.129068 2:0.78125 3:0.2725 4:-0.0692446 5:0.571631 6:0.848716 7:-0.82518 8:-0.623982 \n"
"0.1694478717695334 1:0.0258137 2:0.5 3:-0.594329 4:-0.0692446 5:0.571631 6:0.812923 7:0.0150397 8:0.042191 \n"
"2 1:0.173962 2:0.4375 3:-0.238733 4:-0.102576 5:0.571535 6:0.727347 7:0.0503241 8:-0.0658771 \n"
"2 1:0.214366 2:0.453125 3:-0.183662 4:-0.102576 5:0.571535 6:0.723065 7:0.0628363 8:-0.0510733 \n"
"1.865106821279 1:0.0145903 2:0.65625 3:-0.424783 4:-0.0692446 5:0.571631 6:0.895132 7:-0.295213 8:-0.117691 \n"
"2 1:0.0931538 2:-0.1875 3:0.467267 4:-0.0692446 5:0.571631 6:0.854749 7:-0.3846 8:-0.236121 \n"
"0.0009427180597238171 1:0.0392817 2:0.09375 3:0.292359 4:-0.0692446 5:0.552616 6:0.854377 7:-0.686494 8:-0.388601 \n"
"0.7970605162760069 1:-0.225589 2:0.46875 3:-0.197473 4:-0.0692446 5:0.252986 6:0.841743 7:-0.537449 8:-0.523316 \n"
"0.405138364621733 1:0.245791 2:0.703125 3:0.00694198 4:-0.0692446 5:0.571631 6:0.848237 7:-0.290608 8:-0.119171 \n"
"2 1:0.117845 2:-0.015625 3:0.0597598 4:-0.0692446 5:0.571631 6:0.849585 7:-0.385251 8:-0.250925 \n"
"0.2062767750958019 1:0.0258137 2:0.765625 3:0.149308 4:-0.0692446 5:0.452412 6:0.851764 7:-0.68254 8:-0.397483 \n"
"1.971818912489797 1:-0.0639731 2:-0.15625 3:0.426399 4:-0.0692446 5:0.571631 6:0.888592 7:-0.619079 8:-0.418209 \n"
"1.077907597383633 1:0.230079 2:0.65625 3:0.348556 4:-0.0692446 5:0.571631 6:0.850788 7:-0.286004 8:-0.113249 \n"
"2 1:0.104377 3:0.0316001 4:-0.0692446 5:0.571631 6:0.852198 7:-0.389204 8:-0.242043 \n"
"0.07082347667482694 1:-0.144781 2:0.71875 3:0.590411 4:-0.0692446 5:0.285949 6:0.863761 7:-0.578139 8:-0.470022 \n"
"0.7464214078444127 1:-0.164983 2:0.5625 3:-0.832952 4:-0.104352 5:0.569365 6:0.502612 7:-0.509672 8:-0.607698 \n"
"2 1:-0.142536 2:0.5625 3:-0.860034 4:-0.104352 5:0.569365 6:0.525844 7:-0.458972 8:-0.603257 \n"
"1.590084759908307 1:-0.245791 2:0.578125 3:-0.91295 4:-0.0692446 5:0.571631 6:0.875544 7:-0.253472 8:-0.247964 \n"
"0.09988685570248317 1:0.0190797 2:0.28125 3:0.0046892 4:-0.0692446 5:0.571631 6:0.90708 7:-0.411376 8:-0.108808 \n"
"0.05592121155869537 1:0.0190797 2:0.96875 3:-0.0321143 4:-0.0692446 5:0.571631 6:0.874485 7:-0.505618 8:-0.213916 \n"
"2 1:0.0617284 2:0.328125 3:-0.256657 4:-0.0692446 5:0.513955 6:0.871783 7:-0.254723 8:-0.237602 \n"
"0.08332947753620339 1:-0.00112233 2:0.71875 3:0.779669 4:-0.0692446 5:0.180375 6:0.85282 7:-0.370436 8:-0.296817 \n"
"0.9411935061130399 1:0.0662177 3:0.372528 4:-0.0692446 5:0.571631 6:0.867474 7:-0.399865 8:-0.265729 \n"
"2 1:0.0639731 2:0.34375 3:-0.223037 4:-0.0692446 5:0.513955 6:0.869823 7:-0.25177 8:-0.243523 \n"
"0.2353104045749297 1:-0.111111 2:0.65625 3:0.708706 4:-0.0692446 5:0.180375 6:0.878302 7:-0.54821 8:-0.435973 \n"
"0.3605342353967662 1:0.108866 2:0.6875 3:0.664875 4:-0.0692446 5:0.513955 6:0.849949 7:-0.298416 8:-0.206514 \n"
"1.237433893984018 1:0.00785634 2:0.421875 3:-0.190935 4:-0.0692446 5:0.571631 6:0.855007 7:-0.428993 8:-0.170984 \n"
"0.2673205125216874 1:-0.0482604 2:0.65625 3:0.75168 4:-0.0692446 5:0.300373 6:0.866261 7:-0.566277 8:-0.390081 \n"
"0.1101791065626895 1:0.113356 2:0.28125 3:0.539601 4:-0.0692446 5:0.571631 6:0.8594 7:-0.454318 8:-0.256847 \n"
"2 1:-0.00561167 2:0.1875 3:-0.0863279 4:-0.0692446 5:0.598663 6:0.865188 7:-0.265634 8:-0.287935 \n"
"0.3938119314510748 1:0.003367 2:0.75 3:0.744726 4:-0.0692446 5:0.117031 6:0.864953 7:-0.387903 8:-0.302739 \n"
"2 1:0.111111 2:0.28125 3:0.256878 4:-0.0692446 5:0.571631 6:0.857869 7:-0.457071 8:-0.259808 \n"
"2 1:0.12009 2:-0.09375 3:0.342997 4:-0.0692446 5:0.571631 6:0.856224 7:-0.453267 8:-0.262768 \n"
"0.08565671167642287 1:-0.0841751 2:0.703125 3:0.713163 4:-0.0692446 5:0.117031 6:0.885259 7:-0.52859 8:-0.412287 \n"
"2 1:0.00112233 2:0.1875 3:-0.0973958 4:-0.0692446 5:0.598663 6:0.865265 7:-0.267035 8:-0.290896 \n"
"0.9000240835800219 1:-0.00112233 2:0.1875 3:-0.118454 4:-0.0692446 5:0.61714 6:0.866833 7:-0.269388 8:-0.284974 \n"
"2 1:-0.133558 2:0.53125 3:-0.507181 4:-0.0692446 5:0.571631 6:0.920186 7:-0.407923 8:-0.162102 \n"
"0.4749800888711254 1:0.00785634 2:0.75 3:0.396378 4:-0.0692446 5:0.111675 6:0.870591 7:-0.402267 8:-0.317543 \n"
"0.2277016587720685 1:-0.200898 2:0.78125 3:-0.200436 4:-0.0692446 5:0.571995 6:0.947412 7:-0.530442 8:-0.205033 \n"
"0.5238399536457762 1:0.0145903 2:0.6875 3:-0.0866707 4:-0.0692446 5:0.571631 6:0.881157 7:-0.298516 8:-0.0318283 \n"
"2 1:0.023569 2:0.359375 3:-0.242431 4:-0.0692446 5:0.571631 6:0.849837 7:-0.429244 8:-0.190229 \n"
"0.5334253748523845 1:-0.003367 2:1 3:0.0937228 4:-0.0692446 5:0.571631 6:0.89428 7:-0.277345 8:-0.0643967 \n"
"1.424366065802384 1:-0.162738 2:-0.09375 3:0.0478103 4:-0.0692446 5:0.572238 6:0.855996 7:-0.450064 8:-0.253886 \n"
"2 1:0.037037 2:0.3125 3:-0.27703 4:-0.0692446 5:0.571631 6:0.84781 7:-0.202172 8:-0.0732791 \n"
"0.2245999279318773 1:-0.00785634 2:0.515625 3:-0.640388 4:0.0330654 5:0.582448 6:0.149531 7:-0.508271 8:-0.970392 \n"
"0.4368891305535755 1:0.122334 2:0.1875 3:-0.161012 4:0.237028 5:0.56198 6:-0.321008 7:-0.183154 8:-0.946706 \n"
"0.7523315330424414 1:-0.0392817 2:0.5625 3:-0.904012 4:0.245193 5:0.272884 6:0.0505162 7:-0.460274 8:-0.992598 \n"
"0.8087700434475859 1:0.0572391 2:0.46875 3:-0.538499 4:0.0650063 5:0.0223404 6:-0.0749508 7:-0.43635 8:-0.992598 \n"
"0.01253519802459963 1:-0.113356 2:0.53125 3:0.0011876 4:-0.0123978 5:0.67431 6:0.126779 7:-0.407272 8:-0.965951 \n"
"0.2397304815119006 1:-0.016835 2:0.1875 3:-0.364497 4:0.0570181 5:0.539266 6:0.228013 7:-0.316083 8:-0.925981 \n"
"0.4087325646105099 1:-0.223345 2:0.421875 3:-0.101485 4:-0.101863 5:0.781838 6:0.33344 7:-0.612522 8:-0.983716 \n"
"0.9935229208945522 1:0.15376 2:0.21875 3:-0.273896 4:0.26152 5:0.590707 6:0.11783 7:-0.219889 8:-0.903775 \n"
"1.250466540952609 1:0.178451 2:0.15625 3:-0.33286 4:-0.294134 5:0.583171 6:0.184483 7:-0.401867 8:-0.939304 \n"
"0.1998914666662048 1:-0.0460157 2:0.59375 3:-0.377426 4:-0.244492 5:0.455863 6:0.340365 7:-0.49711 8:-0.952628 \n"
"0.6722436594880866 1:0.144781 2:0.5 3:-0.836527 4:-0.408702 5:0.680843 6:0.0472017 7:-0.445559 8:-0.957069 \n"
"0.5684741041131935 1:-0.0482604 2:0.234375 3:-0.267799 4:-0.757503 5:0.506579 6:0.0419296 7:-0.344661 8:-0.974833 \n"
"0.1164999567262125 1:-0.0617284 2:0.296875 3:-0.00449331 4:0.242195 5:0.63333 6:0.0894231 7:-0.0846575 8:-0.894893 \n"
"0.3825352538735916 1:0.0931538 2:0.15625 3:3.673e-05 4:-0.431702 5:0.160598 6:0.0535487 7:-0.156578 8:-0.92154 \n"
"0.4584492573503288 1:0.239057 2:0.5 3:-0.819313 4:-0.153632 5:0.443628 6:-0.119729 7:-0.262931 8:-0.970392 \n"
"0.08339211293108557 1:0.326599 2:0.390625 3:-0.331244 4:-0.242467 5:0.34383 6:-0.0896251 7:-0.135857 8:-0.940785 \n"
"0.842674024885201 1:0.203143 2:0.328125 3:-0.366725 4:-0.607623 5:0.402487 6:0.0367124 7:-0.206476 8:-0.934863 \n"
"0.333850946488176 1:0.295174 2:0.5 3:-0.940889 4:-0.137597 5:0.395178 6:-0.73079 7:-0.0073822 8:-0.988157 \n"
"0.370599242796201 1:0.281706 2:0.453125 3:-0.811967 4:-0.159832 5:-0.108583 6:-0.737642 7:0.0166412 8:-0.983716 \n"
"1.106152125074115 1:-0.400673 2:0.484375 3:-0.706527 4:-0.137022 5:-0.203943 6:-0.105751 7:-0.244413 8:-0.985196 \n"
"1.237941057656463 1:0.12009 2:0.0625 3:-0.00961103 4:-0.389401 5:0.529724 6:0.287033 7:-0.248417 8:-0.896373 \n"
"0.1690741721782892 1:0.236813 2:0.53125 3:-0.377303 4:-0.241116 5:0.429373 6:-0.0396835 7:-0.385651 8:-0.96299 \n"
"0.5075381280784186 1:-0.0774411 2:0.421875 3:0.0864993 4:-0.131661 5:0.133487 6:0.144515 7:-0.441756 8:-0.971873 \n"
"0.05473258787345969 1:0.023569 2:0.546875 3:-0.358938 4:-0.0926655 5:0.63624 6:0.0157844 7:-0.496609 8:-0.986677 \n"
"0.3983033621474264 1:-0.371493 2:0.4375 3:-0.341724 4:-0.155389 5:0.197785 6:0.384348 7:-0.6415 8:-0.99852 \n"
"1.096797782358054 1:0.308642 2:0.140625 3:0.180993 4:-0.958736 5:0.526518 6:0.0951446 7:-0.117339 8:-0.866765 \n"
"0.1707012039170532 1:-0.14927 2:0.40625 3:-0.245589 4:0.106637 5:0.617305 6:0.172487 7:-0.557018 8:-1 \n"
"0.3589216185752552 1:0.241302 2:0.328125 3:-0.404508 4:0.123393 5:0.365015 6:-0.128406 7:-0.205425 8:-0.936343 \n"
"0.6264483242755544 1:0.0392817 2:0.421875 3:-0.15707 4:-0.177124 5:1 6:0.239588 7:-0.341858 8:-0.906736 \n"
"0.2876172624102217 1:-0.328844 2:0.359375 3:0.0469288 4:-0.364945 5:0.356648 6:0.243348 7:-0.501013 8:-0.973353 \n"
"0.2801727420390487 1:-0.218855 2:0.515625 3:-0.510584 4:-0.0269404 5:0.189739 6:0.264399 7:-0.572783 8:-0.99852 \n"
"0.04738436511523328 1:0.0886644 2:0.453125 3:-0.0449453 4:-0.346199 5:0.275488 6:-0.0385955 7:-0.274793 8:-0.942265 \n"
"0.2468462762216008 1:0.144781 2:0.09375 3:0.1747 4:-0.0923583 5:0.160014 6:-0.111389 7:-0.143615 8:-0.934863 \n"
"0.240758409060142 1:0.207632 2:0.53125 3:-0.222596 4:-0.0692446 5:0.379255 6:-0.136911 7:-0.157178 8:-0.937824 \n"
"0.5657789094175908 1:0.214366 2:0.140625 3:-0.205921 4:-0.134139 5:0.898091 6:-0.129646 7:-0.113235 8:-0.940785 \n"
"0.7980218694707697 1:0.335578 2:0.46875 3:-0.739976 4:-0.162838 5:0.249334 6:-1 7:0.00267761 8:-0.995559 \n"
"0.735814776576194 1:0.265993 2:0.53125 3:-0.997209 4:-0.176537 5:0.330205 6:-0.540772 7:-0.0114362 8:-0.977794 \n"
"0.6690329322481571 1:0.310887 2:0.484375 3:-0.784713 4:-0.168766 5:-0.16168 6:-0.873205 7:0.0345587 8:-0.985196 \n"
"1.199603655982914 1:0.0617284 2:-0.046875 3:0.0881399 4:0.136998 5:0.189255 6:0.119184 7:-0.13856 8:-0.893412 \n"
"0.5112794259507498 1:-0.0796857 2:0.453125 3:-0.55062 4:-0.345254 5:0.660624 6:0.278375 7:-0.567428 8:-0.989637 \n"
"0.8624679100021617 1:0.0976431 2:0.0625 3:0.0975183 4:-0.570817 5:0.602249 6:0.288516 7:-0.303721 8:-0.88601 \n"
"0.4387678802188017 1:0.239057 2:0.125 3:0.0306941 4:0.261595 5:0.552171 6:-0.179543 7:-0.137859 8:-0.906736 \n"
"0.393681463306473 1:-0.106622 2:0.515625 3:-0.336092 4:-0.537915 5:0.324682 6:0.121121 7:-0.470634 8:-0.982235 \n"
"0.3269299118543217 1:-0.0392817 2:0.453125 3:-0.291551 4:0.12142 5:0.795629 6:0.237009 7:-0.492755 8:-0.96003 \n"
"0.1167524395946948 1:-0.0707071 2:0.296875 3:0.284695 4:-0.256344 5:0.391957 6:0.17796 7:-0.18976 8:-0.912657 \n"
"0.2595503625921548 1:0.178451 2:0.125 3:0.338516 4:-0.274664 5:0.32843 6:-0.113298 7:-0.101023 8:-0.936343 \n"
"0.07482566410338869 1:0.0347924 2:0.015625 3:0.137285 4:-0.415359 5:0.266032 6:0.121142 7:-0.195365 8:-0.9245 \n"
"0.3309821061999065 1:0.250281 2:0.328125 3:0.201587 4:-0.103009 5:0.531908 6:-0.118398 7:-0.0876605 8:-0.927461 \n"
"0.15045795044075 1:-0.0527497 2:0.109375 3:0.194094 4:-0.523089 5:0.545512 6:0.0124021 7:-0.368034 8:-0.96151 \n"
"0.7792216570347422 1:0.198653 2:-0.109375 3:0.193408 4:-0.601994 5:0.645285 6:0.177656 7:-0.125648 8:-0.863805 \n"
"0.645514007102687 1:0.135802 2:0.015625 3:0.106823 4:-0.216198 5:0.78613 6:0.174465 7:-0.27139 8:-0.902295 \n"
"0.4164124252359889 1:0.0639731 2:-0.0625 3:0.296277 4:0.0783199 5:0.526394 6:0.162771 7:-0.314231 8:-0.925981 \n"
"0.2862147345169836 1:0.156004 2:-0.171875 3:0.390722 4:-0.290022 5:0.454996 6:0.0636245 7:-0.195766 8:-0.899334 \n"
"0.4585331518886887 1:0.0639731 2:0.1875 3:0.278475 4:-0.165879 5:0.860245 6:-0.0274421 7:-0.238107 8:-0.930422 \n"
"0.1405219140648185 1:0.283951 2:0.09375 3:0.277936 4:-0.109402 5:0.556769 6:-0.145515 7:-0.0798028 8:-0.934863 \n"
"0.6906378966718393 1:0.135802 2:-0.28125 3:-0.0679873 4:-0.0549502 5:0.59226 6:0.0154171 7:-0.338005 8:-0.958549 \n"
"0.5000424035767105 1:0.0280584 2:0.125 3:0.478752 4:-0.446886 5:0.5531 6:0.103089 7:-0.166287 8:-0.9245 \n"
"2 1:-0.12009 2:0.09375 3:-0.228522 4:-0.140252 5:0.562111 6:0.621195 7:-0.426941 8:-0.709845 \n"
"0.5633612396638435 1:-0.0931538 2:0.15625 3:-0.319172 4:-0.0692446 5:0.386491 6:0.514162 7:-0.181902 8:-0.650629 \n"
"2 1:0.15376 2:-0.078125 3:0.241182 4:-0.134009 5:0.521629 6:0.601102 7:-0.116188 8:-0.542561 \n"
"0.6862968624549483 1:0.0258137 2:0.015625 3:0.0101987 4:-0.136577 5:0.524068 6:0.566976 7:-0.0789019 8:-0.532198 \n"
"0.57200990751053 1:-0.203143 3:-0.017055 4:-0.0801672 5:-0.100455 6:0.635135 7:-0.247266 8:-0.672835 \n"
"1.220114059167221 1:0.037037 2:0.21875 3:-0.134052 4:-0.488466 5:0.542592 6:0.446386 7:-0.115888 8:-0.598816 \n"
"0.3533914078092647 1:-0.122334 2:0.171875 3:-0.115565 4:-0.00270802 5:0.0773339 6:0.654614 7:-0.357624 8:-0.665433 \n"
"2 1:-0.0909091 2:0.234375 3:-0.429901 4:-0.0692446 5:0.571631 6:0.592147 7:-0.24146 8:-0.668394 \n"
"0.1337814763986967 1:-0.0594837 3:-0.0891928 4:-0.0692446 5:0.431692 6:0.590897 7:-0.198418 8:-0.658031 \n"
"0.5979354700269768 1:-0.239057 2:0.359375 3:-0.0736682 4:0.194341 5:0.53527 6:0.582538 7:-0.298866 8:-0.647668 \n"
"2 1:0.236813 2:-0.015625 3:-0.0560623 4:-0.119391 5:0.571631 6:0.510388 7:0.259978 8:-0.348631 \n"
"2 1:-0.016835 2:-0.140625 3:-0.0138227 4:-0.11368 5:0.560093 6:0.504689 7:-0.122795 8:-0.591414 \n"
"0.7476603391585444 1:-0.45679 2:0.515625 3:-0.273406 4:-0.0959585 5:-0.558655 6:0.593851 7:-0.550862 8:-0.823834 \n"
"0.01351305230251251 1:-0.521886 2:0.5 3:-0.185989 4:-0.140701 5:0.550771 6:0.631226 7:-0.701109 8:-0.854922 \n"
"0.3313645580390497 1:-0.351291 2:-0.203125 3:0.0402194 4:-0.326351 5:0.452015 6:0.668567 7:-0.484848 8:-0.779423 \n"
"0.1479173588392237 1:-0.571268 2:0.53125 3:-0.471724 4:-0.184813 5:0.526243 6:0.66041 7:-0.724581 8:-0.862324 \n"
"0.0743122558123534 1:-0.436588 2:0.625 3:-0.309671 4:-0.264309 5:0.557048 6:0.601837 7:-0.607517 8:-0.813472 \n"
"0.01760820948747689 1:-0.310887 2:0.203125 3:-0.063041 4:-0.00427178 5:0.829748 6:0.554916 7:-0.485598 8:-0.828275 \n"
"0.8416219347925663 1:-0.106622 2:0.0625 3:-0.164049 4:-0.794309 5:0.572251 6:0.544394 7:-0.447712 8:-0.789785 \n"
"0.8561603580382268 1:-0.425365 2:0.1875 3:-0.323457 4:-0.0713007 5:-0.633672 6:0.641622 7:-0.530092 8:-0.791266 \n"
"2 1:0.191919 2:0.390625 3:-0.704372 4:-0.147496 5:0.571631 6:0.320957 7:-0.134506 8:-0.621021 \n"
"0.9792498857131052 1:0.205387 2:0.4375 3:-0.612963 4:-0.208529 5:0.571631 6:0.32007 7:-0.115287 8:-0.606218 \n"
"0.7712556747077439 1:0.200898 2:0.0625 3:-0.29733 4:-0.187507 5:0.131568 6:0.374386 7:-0.223042 8:-0.628423 \n"
"2 1:0.259259 2:0.359375 3:-0.581424 4:-0.147496 5:0.571631 6:0.341287 7:-0.142314 8:-0.609178 \n"
"2 1:0.272727 2:0.359375 3:-0.568153 4:-0.208529 5:0.571631 6:0.340399 7:-0.123095 8:-0.595855 \n"
"2 1:0.279461 2:0.328125 3:-0.6911 4:-0.188976 5:0.571631 6:0.338329 7:-0.128901 8:-0.594375 \n"
"0.4533098570775251 1:-0.445567 2:0.546875 3:-0.801731 4:-0.0692446 5:0.50398 6:0.591949 7:-0.65116 8:-0.737972 \n"
"0.003986832170927213 1:-0.218855 2:0.609375 3:-0.113067 4:-0.352596 5:0.526007 6:0.621966 7:-0.418984 8:-0.6906 \n"
"0.1438215981822954 1:-0.0325477 2:0.328125 3:-0.338149 4:-0.447977 5:0.461664 6:0.517285 7:-0.188209 8:-0.632865 \n"
"2 1:0.151515 2:-0.09375 3:0.179794 4:-0.251208 5:0.504681 6:0.515228 7:-0.0900128 8:-0.560326 \n"
"0.8763450445704956 1:-0.164983 2:0.03125 3:-0.0449453 4:0.14757 5:0.405642 6:0.678497 7:-0.352619 8:-0.665433 \n"
"1.097363353483593 1:-0.151515 2:-0.015625 3:-0.167771 4:-0.715041 5:0.0536054 6:0.547376 7:-0.274493 8:-0.689119 \n"
"1.732289614116824 1:0.0886644 2:-0.140625 3:0.235109 4:-0.129916 5:0.00215914 6:0.479469 7:0.0176922 8:-0.560326 \n"
"0.5501848203714583 1:-0.160494 2:0.0625 3:0.196934 4:-0.192151 5:-0.182942 6:0.604103 7:-0.244563 8:-0.658031 \n"
"0.3738634770116914 1:-0.043771 2:0.375 3:-0.0827773 4:0.235208 5:0.212784 6:0.67161 7:-0.321689 8:-0.644708 \n"
"0.1684602018924192 1:-0.173962 2:-0.078125 3:0.148646 4:0.208707 5:0.290207 6:0.576819 7:-0.227347 8:-0.650629 \n"
"1.926833195453074 1:0.0505051 2:-0.234375 3:0.317654 4:-0.0692446 5:0.571631 6:0.56897 7:-0.0491729 8:-0.524796 \n"
"2 1:0.0931538 2:-0.015625 3:0.124233 4:-0.102726 5:0.571223 6:0.617684 7:-0.144716 8:-0.557365 \n"
"0.4240332169888765 1:-0.450056 2:0.765625 3:0.00870502 4:-0.0377646 5:0.330655 6:0.552269 7:-0.512224 8:-0.822354 \n"
"0.4432207801836038 1:-0.337823 2:0.265625 3:0.0271435 4:-0.735425 5:0.5719 6:0.631534 7:-0.513225 8:-0.795707 \n"
"0.06676981731287716 1:-0.35578 2:0.5625 3:-0.0398276 4:-0.0721003 5:0.0727861 6:0.518399 7:-0.57999 8:-0.838638 \n"
"0.3302365762842583 1:-0.337823 2:0.5 3:0.0576784 4:-0.0250497 5:0.845415 6:0.618338 7:-0.586997 8:-0.822354 \n"
"0.6100710661254263 1:-0.582492 2:0.359375 3:0.311703 4:0.000683406 5:0.511338 6:0.58413 7:-0.720878 8:-0.857883 \n"
"1.045901421254869 1:0.169473 2:0.125 3:-0.242137 4:-0.122097 5:0.241584 6:0.364179 7:-0.229299 8:-0.647668 \n"
"2 1:0.173962 2:0.046875 3:-0.34858 4:-0.189051 5:0.241584 6:0.362627 7:-0.233653 8:-0.646188 \n"
"0.2460957346529954 1:0.0684624 2:0.546875 3:-0.402353 4:-0.161471 5:0.241584 6:0.371856 7:-0.352068 8:-0.72909 \n"
"0.6921142742146773 1:-0.0213244 2:-0.15625 3:0.156727 4:-0.427582 5:0.821254 6:0.537152 7:-0.167789 8:-0.61362 \n"
"2 1:0.0325477 2:0.21875 3:-0.130796 4:-0.162144 5:0.516693 6:0.581073 7:-0.111183 8:-0.57809 \n"
"0.526179559217833 1:0.0482604 2:-0.21875 3:0.274239 4:-0.0692446 5:0.182572 6:0.538025 7:-0.0622857 8:-0.591414 \n"
"2 1:0.104377 2:-0.171875 3:0.140052 4:-0.27776 5:0.472226 6:0.42836 7:-0.0774005 8:-0.603257 \n"
"1.126376669983146 1:-0.0392817 2:-0.34375 3:0.165004 4:-0.395542 5:0.213665 6:0.494919 7:-0.171692 8:-0.622502 \n"
"0.959455273812465 1:-0.156004 2:0.1875 3:-0.359673 4:-0.149193 5:0.546343 6:0.593137 7:-0.280849 8:-0.686158 \n"
"2 1:0.0841751 2:-0.15625 3:0.128861 4:-0.119584 5:0.570749 6:0.568295 7:-0.102725 8:-0.581051 \n"
"0.3982748036657263 1:-0.0572391 2:0.203125 3:0.407324 4:0.265321 5:0.464147 6:0.61663 7:-0.270038 8:-0.641747 \n"
"0.1818958375799154 1:-0.122334 2:0.328125 3:0.115834 4:0.121483 5:0.543956 6:0.551253 7:-0.172143 8:-0.623982 \n"
"1.675968087302092 1:0.1156 2:-0.03125 3:0.348923 4:0.0505149 5:0.510113 6:0.485666 7:-0.00988464 8:-0.53812 \n"
"2 1:-0.124579 2:0.140625 3:-0.09529 4:0.237051 5:0.453935 6:0.619984 7:-0.244063 8:-0.634345 \n"
"2 1:-0.0460157 2:0.015625 3:-0.199187 4:-0.091732 5:0.562767 6:0.571067 7:-0.124947 8:-0.588453 \n"
"0.3762033494320659 1:-0.425365 2:0.125 3:0.263636 4:-0.555191 5:0.569843 6:0.599609 7:-0.498611 8:-0.795707 \n"
"0.1750662301069174 1:-0.503928 2:0.53125 3:0.106676 4:-0.305585 5:0.555277 6:0.635591 7:-0.551963 8:-0.828275 \n"
"0.7322506404006672 1:0.111111 2:-0.1875 3:0.464353 4:-0.0692446 5:0.281871 6:0.529483 7:-0.0657891 8:-0.542561 \n"
"1.120398424287636 1:-0.003367 2:-0.265625 3:0.574617 4:-0.153258 5:0.476862 6:0.557293 7:-0.157078 8:-0.598816 \n"
"0.1485200934521896 1:0.0123457 2:-0.125 3:0.0886051 4:-0.110848 5:0.419285 6:0.551891 7:-0.106179 8:-0.560326 \n"
"1.42818713721187 1:0.12009 2:0.140625 3:0.0439169 4:-0.196575 5:0.521502 6:0.481742 7:-0.0490228 8:-0.567728 \n"
"1.24283410557267 1:-0.0258137 2:-0.109375 3:0.155968 4:-0.107763 5:0.277569 6:0.535468 7:-0.256225 8:-0.646188 \n"
"0.9511634022039842 1:-0.144781 3:0.215936 4:-0.139889 5:0.555852 6:0.593803 7:-0.43595 8:-0.73057 \n"
"0.6856610749774178 1:-0.438833 2:0.265625 3:0.236235 4:0.00154209 5:-0.058052 6:0.571911 7:-0.518481 8:-0.813472 \n"
"0.1889437113607702 1:-0.42312 2:0.015625 3:0.162702 4:-0.0955527 5:0.0205376 6:0.607285 7:-0.52799 8:-0.826795 \n"
"0.368229509920052 1:-0.378227 2:-0.109375 3:0.0925964 4:-0.614146 5:0.576585 6:0.610869 7:-0.501314 8:-0.80903 \n"
"0.2019940683269159 1:-0.402918 2:0.078125 3:0.490162 4:-0.0692446 5:0.555351 6:0.62017 7:-0.580841 8:-0.828275 \n"
"2 1:0.0617284 2:0.546875 3:-0.785668 4:-0.186058 5:0.571631 6:0.404201 7:-0.27229 8:-0.699482 \n"
"2 1:0.14927 2:0.46875 3:-0.649742 4:-0.162964 5:0.571631 6:0.384319 7:-0.200621 8:-0.65507 \n"
"0.06014799667415523 1:-0.225589 2:0.28125 3:-0.393562 4:-0.139606 5:0.310896 6:0.594882 7:-0.481494 8:-0.772021 \n"
"0.6640083558724421 1:-0.198653 2:0.28125 3:-0.467635 4:-0.0706153 5:0.559981 6:0.492367 7:-0.420685 8:-0.783864 \n"
"0.9043959691064082 1:-0.239057 2:0.21875 3:-0.56994 4:-0.0451028 5:0.548686 6:0.491924 7:-0.395911 8:-0.797187 \n"
"0.3272092645260354 1:-0.0819304 2:-0.046875 3:-0.0881644 4:-0.0556749 5:0.055448 6:0.537267 7:-0.164986 8:-0.671355 \n"
"2 1:0.194164 2:0.28125 3:-0.144729 4:-0.0692446 5:0.571631 6:0.407472 7:0.167138 8:-0.495189 \n"
"0.4346690642163147 1:0.0976431 2:0.125 3:0.14872 4:-0.0611028 5:0.506244 6:0.465806 7:-0.058432 8:-0.57661 \n"
"2 1:0.1156 2:-0.203125 3:0.041958 4:-0.0776424 5:0.570687 6:0.508697 7:0.103075 8:-0.478905 \n"
"0.3454922963853052 1:-0.454545 2:-0.09375 3:0.0495733 4:-0.267279 5:0.193358 6:0.701764 7:-0.445259 8:-0.714286 \n"
"0.213101933130996 1:-0.151515 2:0.125 3:-0.386192 4:-0.458282 5:0.596256 6:0.594448 7:-0.276144 8:-0.643227 \n"
"2 1:0.0123457 2:0.140625 3:-0.211406 4:-0.0692446 5:0.402461 6:0.51209 7:-0.173995 8:-0.638786 \n"
"2 1:0.173962 2:0.5 3:-0.800997 4:-0.0692446 5:0.571631 6:0.84479 7:-0.411176 8:-0.203553 \n"
"1.064415733819962 1:0.0707071 2:0.5625 3:-0.908077 4:-0.0692446 5:0.571631 6:0.814314 7:-0.300618 8:-0.2302 \n"
"2 1:0.122334 2:0.484375 3:-0.836698 4:-0.0692446 5:0.571631 6:0.827608 7:-0.392408 8:-0.206514 \n"
"2 1:0.126824 2:0.515625 3:-0.836698 4:-0.0692446 5:0.571631 6:0.813695 7:-0.372438 8:-0.205033 \n"
"1.872173658831836 1:0.126824 2:0.5 3:-0.8724 4:-0.0692446 5:0.571631 6:0.83443 7:-0.363129 8:-0.159141 \n"
"2 1:0.142536 2:0.515625 3:-0.836698 4:-0.0692446 5:0.571631 6:0.78701 7:-0.34316 8:-0.233161 \n"
"2 1:0.176207 2:0.53125 3:-0.800997 4:-0.0692446 5:0.571631 6:0.830876 7:-0.391156 8:-0.202073 \n"
"0.1912680890211655 1:0.158249 2:0.515625 3:-0.941428 4:-0.0692446 5:0.571631 6:0.892209 7:-0.431145 8:-0.129534 \n"
"2 1:0.178451 2:0.515625 3:-0.836698 4:-0.0692446 5:0.571631 6:0.851611 7:-0.381847 8:-0.156181 \n"
"1.064607336710177 1:-0.0998878 2:0.265625 3:-0.271668 4:-0.0692446 5:0.500599 6:0.516392 7:0.0463702 8:-0.34715 \n"
"0.3372432040683683 1:-0.209877 2:0.546875 3:-0.148573 4:-0.0692446 5:0.616719 6:0.670781 7:-0.0103351 8:-0.23168 \n"
"2 1:0.0527497 2:0.171875 3:-0.00677057 4:-0.0692446 5:0.593492 6:0.534492 7:0.10768 8:-0.215396 \n"
"2 1:0.0549944 2:0.078125 3:-0.0698973 4:-0.0692446 5:0.594312 6:0.439388 7:0.0326068 8:-0.34715 \n"
"2 1:-0.147026 2:0.328125 3:-0.662769 4:-0.103198 5:0.60414 6:0.456296 7:-0.239559 8:-0.740933 \n"
"0.5897553100979157 1:-0.530864 2:0.28125 3:-0.485559 4:-0.0692446 5:0.668788 6:0.680018 7:-0.540102 8:-0.644708 \n"
"0.1382133827257158 1:-0.672278 2:0.609375 3:-0.162849 4:-0.0692446 5:0.672647 6:0.73541 7:-0.474388 8:-0.581051 \n"
"0.1251786195687193 1:-0.0392817 2:0.453125 3:-0.157462 4:-0.0692446 5:0.571631 6:0.805152 7:-0.0935662 8:-0.163583 \n"
"1.567245634971665 1:-0.126824 2:0.46875 3:-0.32473 4:-0.0692446 5:-0.00336274 6:0.691121 7:-0.314882 8:-0.515914 \n"
"0.1649772469781245 1:-0.196409 2:0.8125 3:-0.222082 4:-0.0692446 5:0.564229 6:0.606847 7:-0.215385 8:-0.397483 \n"
"1.805281538499992 1:-0.259259 2:0.5 3:-0.740931 4:-0.0692446 5:-0.0024768 6:0.646071 7:-0.515778 8:-0.626943 \n"
"0.1176090692570157 1:-0.151515 2:0.890625 3:0.0634573 4:-0.0692446 5:0.578878 6:0.583054 7:-0.321839 8:-0.49815 \n"
"0.09636118033664555 1:-0.239057 2:0.515625 3:0.01419 4:-0.0692446 5:-0.112166 6:0.679646 7:-0.437101 8:-0.542561 \n"
"0.5365551281163997 1:-0.126824 2:0.546875 3:0.0775861 4:-0.0692446 5:-0.516833 6:0.656256 7:-0.211781 8:-0.418209 \n"
"0.3121616370488794 1:-0.52862 2:0.8125 3:0.114683 4:-0.0692446 5:0.615136 6:0.57877 7:-0.413228 8:-0.619541 \n"
"0.6845142820059962 1:-0.411897 2:0.796875 3:0.393954 4:-0.0692446 5:0.608975 6:0.614058 7:-0.211631 8:-0.477424 \n"
"2 1:0.472503 2:0.296875 3:-0.536491 4:-0.0423771 5:0.57334 6:0.0407575 7:0.0559295 8:-0.752776 \n"
"0.50315651879245 1:0.510662 2:0.171875 3:-0.426668 4:-0.0692446 5:0.575049 6:0.129196 7:0.202122 8:-0.686158 \n"
"2 1:0.59596 2:0.296875 3:-0.633042 4:0.216884 5:0.572123 6:0.105747 7:0.346913 8:-0.607698 \n"
"2 1:0.517396 2:0.203125 3:-0.430758 4:-0.0692446 5:0.575049 6:0.145139 7:0.218938 8:-0.674315 \n"
"0.5747602246446042 1:0.566779 2:0.140625 3:-0.564063 4:-0.00691087 5:0.572231 6:0.0680015 7:0.260629 8:-0.658031 \n"
"2 1:0.546577 2:0.09375 3:-0.362905 4:0.117241 5:0.571959 6:0.182885 7:0.305223 8:-0.623982 \n"
"2 1:0.494949 2:0.171875 3:-0.463643 4:-0.0692446 5:0.575049 6:0.150052 7:0.212632 8:-0.677276 \n"
"2 1:0.434343 2:0.34375 3:-0.723153 4:0.103954 5:0.571631 6:0.176497 7:0.111033 8:-0.709845 \n"
"2 1:0.450056 2:0.28125 3:-0.522681 4:-0.0423771 5:0.57334 6:0.146961 7:0.103876 8:-0.718727 \n"
"2 1:0.52413 2:0.171875 3:-0.430758 4:-0.0692446 5:0.575049 6:0.0649105 7:0.151873 8:-0.699482 \n"
"2 1:0.560045 2:0.15625 3:-0.560929 4:-0.0541663 5:0.575103 6:0.0520588 7:0.243813 8:-0.669874 \n"
"2 1:0.582492 2:0.203125 3:-0.519253 4:0.00816739 5:0.575103 6:0.0471455 7:0.250119 8:-0.666913 \n"
"0.2140546254854606 1:0.126824 2:0.515625 3:-0.803959 4:-0.0692446 5:0.571631 6:0.821909 7:-0.366833 8:-0.218357 \n"
"0.05967074654124216 1:-0.236813 2:0.71875 3:0.0794961 4:-0.0692446 5:-0.110061 6:0.605444 7:-0.35387 8:-0.526277 \n"
"0.1971778649025327 1:-0.122334 2:0.796875 3:0.12225 4:-0.0692446 5:-0.179592 6:0.611734 7:-0.365231 8:-0.549963 \n"
"1.882894469837253 1:-0.169473 2:0.265625 3:0.0117414 4:-0.0692446 5:0.572792 6:0.670325 7:-0.35422 8:-0.495189 \n"
"0.5229992909918143 1:-0.268238 2:0.65625 3:0.178814 4:-0.0692446 5:-0.481315 6:0.691503 7:-0.299817 8:-0.444856 \n"
"0.1891765771609814 1:-0.405163 2:0.34375 3:0.755917 4:-0.0586016 5:0.624087 6:0.641449 7:-0.376142 8:-0.57661 \n"
"0.3241204048525634 1:-0.465769 2:0.40625 3:0.624227 4:-0.0692446 5:0.632913 6:0.602939 7:-0.215285 8:-0.509993 \n"
"0.7293860792046744 1:-0.306397 3:0.111451 4:-0.0692446 5:0.569565 6:0.5972 7:-0.154626 8:-0.446336 \n"
"2 1:0.510662 2:0.0625 3:-0.347576 4:0.0799427 5:0.571893 6:0.168663 7:0.24116 8:-0.656551 \n"
"0.1522311445868073 1:-0.618406 2:0.171875 3:-0.0542748 4:-0.0692446 5:0.630347 6:0.596686 7:-0.460674 8:-0.635825 \n"
"0.356194683723532 1:-0.111111 2:0.40625 3:0.0666895 4:-0.0692446 5:0.612293 6:0.563366 7:0.0193939 8:-0.290896 \n"
"0.1076990054459514 1:-0.180696 2:0.515625 3:0.0596618 4:-0.0692446 5:-0.231077 6:0.694671 7:-0.324091 8:-0.49815 \n"
"0.01851272678026506 1:-0.227834 2:0.625 3:0.0561847 4:-0.0692446 5:-0.477208 6:0.63912 7:-0.451265 8:-0.57661 \n"
"0.5688889801772923 1:-0.209877 2:0.375 3:-0.160792 4:-0.0692446 5:-0.16369 6:0.667355 7:-0.481645 8:-0.597335 \n"
"0.3440702145506723 1:-0.517396 2:0.484375 3:0.622636 4:-0.0692446 5:0.616734 6:0.648687 7:-0.452516 8:-0.619541 \n"
"0.5055466812254225 1:-0.434343 2:0.109375 3:0.712012 4:-0.0692446 5:0.572845 6:0.656429 7:-0.340307 8:-0.523316 \n"
"0.1025716387978829 1:-0.52413 2:0.09375 3:0.593962 4:-0.0692446 5:0.58044 6:0.64873 7:-0.3845 8:-0.564767 \n"
"2 1:0.517396 2:-0.015625 3:-0.432349 4:-0.0692446 5:0.575049 6:0.0793182 7:0.172894 8:-0.699482 \n"
"0.2382924620826882 1:0.535354 2:0.078125 3:-0.356196 4:0.0550801 5:0.571959 6:0.104482 7:0.2304 8:-0.665433 \n"
"2 1:0.494949 2:0.015625 3:-0.385825 4:0.0345031 5:0.572296 6:0.116326 7:0.164936 8:-0.687639 \n"
"2 1:0.492705 2:0.03125 3:-0.385825 4:0.0345031 5:0.572296 6:0.169811 7:0.209629 8:-0.671355 \n"
"0.4928229246711224 1:0.476992 2:0.265625 3:-0.524028 4:-0.0334239 5:0.57391 6:0.0236348 7:0.0712445 8:-0.745374 \n"
"2 1:0.535354 2:0.03125 3:-0.515457 4:-0.00691087 5:0.572164 6:0.16281 7:0.288606 8:-0.641747 \n"
"2 1:0.468013 2:0.125 3:-0.469104 4:-0.0692446 5:0.57391 6:0.137432 7:0.121143 8:-0.711325 \n"
"2 1:0.622896 2:0.546875 3:-0.952251 4:0.0131895 5:0.535881 6:0.0321518 7:0.330147 8:-0.631384 \n"
"0.286025597114755 1:0.535354 2:0.078125 3:-0.51198 4:-0.0692446 5:0.576189 6:0.0345815 7:0.176747 8:-0.689119 \n"
"0.5296937091659537 1:0.45679 2:0.296875 3:-0.709245 4:0.161688 5:0.571631 6:0.198069 7:0.153124 8:-0.684678 \n"
"0.665072702530221 1:0.573513 2:0.234375 3:-0.593545 4:0.229146 5:0.572068 6:0.213138 7:0.403669 8:-0.57513 \n"
"0.5202051935743978 1:-0.162738 2:0.484375 3:-0.0505038 4:-0.0692446 5:0.0314295 6:0.599703 7:-0.320037 8:-0.508512 \n"
"2 1:0.447811 2:0.28125 3:-0.702854 4:-0.0692446 5:0.571631 6:0.176812 7:0.130702 8:-0.699482 \n"
"0.3082879059237952 1:0.515152 2:0.078125 3:-0.36937 4:0.179401 5:0.571849 6:0.209016 7:0.258627 8:-0.628423 \n"
"2 1:0.425365 2:0.296875 3:-0.709245 4:0.137475 5:0.571631 6:0.20462 7:0.144716 8:-0.689119 \n"
"2 1:0.526375 2:0.0625 3:-0.51198 4:-0.0692446 5:0.576189 6:0.141553 7:0.266185 8:-0.656551 \n"
"2 1:0.409652 2:0.515625 3:-0.935429 4:-0.0692446 5:0.571631 6:0.126485 7:0.0156402 8:-0.76758 \n"
"0.117241533421943 1:-0.750842 2:0.546875 3:-0.33477 4:0.412204 5:0.461465 6:0.751559 7:-0.504767 8:-0.591414 \n"
"0.3635550003872397 1:-0.806958 2:0.515625 3:-0.445523 4:-0.24606 5:0.571631 6:0.736617 7:-0.490203 8:-0.634345 \n"
"0.5323801585447597 1:-0.69248 2:0.4375 3:-0.0785901 4:0.412204 5:0.518447 6:0.792471 7:-0.536949 8:-0.612139 \n"
"0.1380513387890338 1:-0.804714 2:0.484375 3:-0.475495 4:-0.24606 5:0.571631 6:0.712717 7:-0.511924 8:-0.634345 \n"
"0.420259756235192 1:-0.845118 2:0.53125 3:-0.350368 4:0.412204 5:0.508897 6:0.814616 7:-0.639849 8:-0.631384 \n"
"0.2025048580055845 1:-0.892256 2:0.625 3:-0.512176 4:0.17148 5:0.126459 6:0.726854 7:-0.52859 8:-0.674315 \n"
"0.003317440042438975 1:-0.838384 2:0.609375 3:-0.277838 4:0.412204 5:0.494311 6:0.818003 7:-0.562924 8:-0.609178 \n"
"0.8029969561767363 1:-0.820426 2:0.421875 3:-0.075064 4:-0.165753 5:0.295862 6:0.824308 7:-0.56953 8:-0.566247 \n"
"0.2410451868834647 1:-0.479237 2:0.46875 3:-0.492783 4:-0.0692446 5:0.631298 6:0.782784 7:-0.677235 8:-0.680237 \n"
"0.4675807255799587 1:-0.874299 2:0.609375 3:-0.526427 4:-0.0692446 5:0.0708131 6:0.687561 7:-0.482545 8:-0.629904 \n"
"0.0139492091339904 1:-0.925926 2:0.65625 3:-0.202101 4:0.111297 5:0.305484 6:0.785506 7:-0.590751 8:-0.622502 \n"
"0.2976351542182793 1:-0.894501 2:0.609375 3:-0.536442 4:0.111297 5:0.0708131 6:0.710923 7:-0.535397 8:-0.674315 \n"
"0.1474721487887251 1:-0.903479 2:0.640625 3:-0.193898 4:-0.0692446 5:0.225162 6:0.742342 7:-0.541453 8:-0.597335 \n"
"0.9632719545989312 1:-0.934905 2:0.5625 3:-0.925218 4:-0.0692446 5:0.571631 6:0.698784 7:-0.52864 8:-0.677276 \n"
"0.04703741684373086 1:-0.894501 2:0.65625 3:-0.128837 4:0.0511176 5:0.282907 6:0.755498 7:-0.534796 8:-0.610659 \n"
"0.6157911880361625 1:-0.784512 2:0.5625 3:0.203178 4:0.17148 5:0.499704 6:0.787933 7:-0.537149 8:-0.579571 \n"
"0.03278824720805814 1:-0.952862 2:0.5625 3:-0.68537 4:-0.0692446 5:0.349045 6:0.76215 7:-0.516228 8:-0.631384 \n"
"0.260867988725834 1:-0.905724 2:0.578125 3:-0.254454 4:0.17148 5:0.537944 6:0.849912 7:-0.627537 8:-0.588453 \n"
"0.04488785183699202 1:-0.829405 2:0.5 3:-0.105036 4:-0.165753 5:0.518447 6:0.772695 7:-0.576437 8:-0.610659 \n"
"0.5165353637127122 1:-0.739618 2:0.59375 3:-0.60094 4:0.17148 5:0.571631 6:0.68579 7:-0.418233 8:-0.549963 \n"
"-1.139707032772016 1:0.1156 2:-0.25 3:0.301982 4:-0.0692446 5:0.552518 6:0.449993 7:-0.171092 8:-0.660992 \n"
"-0.4314130251006823 1:0.243547 3:0.101118 4:-0.109166 5:0.382364 6:0.491966 7:-0.287806 8:-0.681717 \n"
"-0.04003216837740675 1:0.49046 2:-0.578125 3:-0.389375 4:-0.0692446 5:0.571631 6:0.280277 7:0.171442 8:-0.464101 \n"
"-0.1132317726672291 1:0.124579 2:-0.015625 3:-0.0166632 4:-0.0373234 5:0.5901 6:0.530286 7:-0.126999 8:-0.662472 \n"
"-0.8675310213970091 1:0.124579 2:-0.015625 3:-0.0166632 4:-0.0373234 5:0.5901 6:0.530286 7:-0.126999 8:-0.662472 \n"
"-0.008007713238143862 1:0.2211 2:-0.296875 3:-0.12296 4:-0.30319 5:0.64107 6:0.662007 7:-0.144816 8:-0.490748 \n"
"-0.3836843031090957 1:0.481481 2:0.359375 3:-0.899849 4:0.285024 5:0.570792 6:0.32334 7:0.0723455 8:-0.440415 \n"
"-2 1:-0.151515 2:0.4375 3:-0.891377 4:-0.0692446 5:0.571631 6:0.707158 7:-0.33335 8:-0.612139 \n"
"-2 1:-0.131313 2:0.453125 3:-0.893605 4:-0.0692446 5:0.571631 6:0.72501 7:-0.371487 8:-0.634345 \n"
"-2 1:0.0707071 2:0.484375 3:-0.872057 4:-0.0692446 5:0.623382 6:0.437965 7:-0.134156 8:-0.581051 \n"
"-0.2845744971567882 1:0.218855 2:0.46875 3:-0.877077 4:-0.181981 5:0.571631 6:0.472068 7:-0.0946673 8:-0.628423 \n"
"-2 1:0.407407 2:0.46875 3:-0.801927 4:-0.0692446 5:0.571631 6:0.425786 7:-0.206076 8:-0.677276 \n"
"-2 1:-0.043771 2:0.296875 3:-0.413103 4:-0.0887187 5:0.570835 6:0.530123 7:-0.247967 8:-0.643227 \n"
"-0.4201887699567372 1:0.744108 2:-0.96875 3:-0.1151 4:-0.0692446 5:0.571631 6:0.254787 7:0.663972 8:-0.203553 \n"
"-1.864328576926749 1:0.133558 2:0.484375 3:-0.814783 4:-0.0692446 5:0.571631 6:0.707668 7:-0.434849 8:-0.560326 \n"
"-1.958420743592313 1:-0.324355 2:0.421875 3:-0.889075 4:-0.165437 5:0.71538 6:0.742673 7:-0.426791 8:-0.649149 \n"
"-0.6464630988873425 1:0.212121 2:0.15625 3:-0.425983 4:0.891581 5:0.418908 6:0.65265 7:-0.143765 8:-0.406366 \n"
"-1.641046555958144 1:0.0662177 2:0.453125 3:-0.838804 4:-0.0692446 5:0.571631 6:0.695473 7:-0.318085 8:-0.505551 \n"
"-0.2701237602876488 1:0.564534 2:-0.921875 3:0.0524138 4:-0.0692446 5:0.52728 6:0.457577 7:0.6928 8:-0.145818 \n"
"-0.2272358032933334 1:0.571268 2:-0.578125 3:0.335994 4:-0.444432 5:0.564069 6:0.36061 7:0.239759 8:-0.444856 \n"
"-0.2124728087797513 1:0.643098 2:-0.28125 3:0.518371 4:-0.0692446 5:0.571631 6:0.460313 7:0.167038 8:-0.453738 \n"
"-1.166622110763798 1:0.416386 2:0.046875 3:0.205529 4:-0.0241674 5:0.583806 6:0.488307 7:-0.00663147 8:-0.547002 \n"
"-0.104889777948452 1:0.272727 2:-0.921875 3:-0.00250989 4:-0.0878442 5:0.572932 6:0.360309 7:0.159681 8:-0.400444 \n"
"-0.02838158564036127 1:0.447811 2:-0.625 3:0.0550094 4:-0.0118582 5:0.579346 6:0.450146 7:0.41563 8:-0.390081 \n"
"-0.2503047591473468 1:0.360269 2:-0.140625 3:-0.0792022 4:0.544895 5:0.571631 6:0.476823 7:-0.243963 8:-0.592894 \n"
"-0.0175172284423681 1:0.405163 2:-0.03125 3:0.242308 4:0.429563 5:0.567884 6:0.306453 7:-0.0784515 8:-0.588453 \n"
"-0.3215865381401626 1:0.405163 2:-0.03125 3:0.242308 4:0.429563 5:0.567884 6:0.306453 7:-0.0784515 8:-0.588453 \n"
"-0.865380496319147 1:0.277217 2:0.28125 3:-0.713261 4:-0.481183 5:0.57834 6:0.308934 7:-0.129601 8:-0.735011 \n"
"-0.1347107217025426 1:0.243547 2:0.375 3:-0.669895 4:-0.0692446 5:0.571631 6:0.560975 7:-0.0960687 8:-0.564767 \n"
"-0.1826311581675197 1:0.380471 2:-0.03125 3:-0.0697993 4:0.239474 5:0.474052 6:0.305209 7:0.5386 8:-0.323464 \n"
"-0.8533778424361029 1:0.0953984 2:0.46875 3:-0.762626 4:-1 5:0.571631 6:0.475604 7:-0.464728 8:-0.828275 \n"
"-2 1:0.037037 2:0.53125 3:-0.809959 4:0.028772 5:0.527758 6:0.6336 7:-0.561573 8:-0.748335 \n"
"-1.126553767224319 1:0.214366 2:0.5 3:-0.878326 4:0.344695 5:0.657796 6:0.548366 7:-0.171142 8:-0.5396 \n"
"-0.6428663267054247 1:0.468013 2:0.21875 3:-0.721537 4:-0.298688 5:-0.0436493 6:0.368562 7:0.183954 8:-0.410807 \n"
"-0.3025084787191874 1:0.479237 2:0.421875 3:-0.839514 4:-0.666876 5:0.560381 6:0.46888 7:-0.0151398 8:-0.622502 \n"
"-2 1:0.133558 2:0.484375 3:-0.759271 4:-0.0692446 5:0.571631 6:0.635816 7:-0.417782 8:-0.656551 \n"
"-0.2335892152943717 1:0.494949 2:-0.1875 3:-0.31878 4:-0.204283 5:0.569446 6:0.302893 7:0.729536 8:-0.227239 \n"
"-0.6944480080794172 1:0.566779 2:-0.046875 3:-0.454657 4:-0.129026 5:-0.076689 6:0.466612 7:0.459773 8:-0.11621 \n"
"-0.1259550872215604 1:0.225589 2:-0.375 3:0.395007 4:-0.141201 5:0.558086 6:0.42546 7:0.134656 8:-0.509993 \n"
"-0.07556592745549455 1:0.268238 2:-0.640625 3:0.565581 4:-0.0326361 5:0.571631 6:0.668674 7:-0.270339 8:-0.521836 \n"
"-0.4901623744907839 1:0.189675 2:-0.46875 3:0.309622 4:-0.291897 5:0.549838 6:0.566869 7:0.0669403 8:-0.375278 \n"
"-0.3904987425375067 1:0.515152 2:-0.84375 3:0.759688 4:0.161691 5:0.620892 6:0.506508 7:-0.0439178 8:-0.518875 \n"
"-0.8912052088061079 1:0.452301 2:0.4375 3:-0.426644 4:-0.0414238 5:0.616197 6:0.380526 7:0.185806 8:-0.483346 \n"
"-0.2098090574779561 1:0.405163 2:0.484375 3:-0.712771 4:-0.127777 5:0.568783 6:0.516425 7:0.118741 8:-0.49963 \n"
"-0.2523575693215719 1:0.405163 2:0.484375 3:-0.712771 4:-0.127777 5:0.568783 6:0.516425 7:0.118741 8:-0.49963 \n"
"-0.4656310740584098 1:0.353535 2:-0.75 3:1 4:-0.0939811 5:0.539312 6:0.584072 7:0.03591 8:-0.452258 \n"
"-0.04213750437426813 1:0.380471 2:-0.59375 3:0.904012 4:-0.0451737 5:0.572604 6:0.47824 7:-0.184054 8:-0.586973 \n"
"-0.2674136051599723 1:0.699214 2:-0.625 3:0.485143 4:-0.0636828 5:0.57182 6:0.0723271 7:0.424289 8:-0.400444 \n"
"-0.08956519267567041 1:0.69248 2:-0.84375 3:0.36031 4:-0.0599644 5:0.571631 6:0.381213 7:0.464528 8:-0.233161 \n"
"-1.674145651060868 1:0.0684624 2:0.015625 3:-0.129816 4:-0.0793716 5:0.571631 6:0.446341 7:0.0304046 8:-0.425611 \n"
"-0.713922972164196 1:0.147026 2:0.375 3:-0.596018 4:0.130964 5:0.657728 6:0.483011 7:-0.355071 8:-0.733531 \n"
"-0.287100723546668 1:0.317621 2:0.046875 3:-0.47383 4:-0.152392 5:0.281531 6:0.641179 7:-0.254423 8:-0.569208 \n"
"-0.02499169931992903 1:-0.0751964 2:-0.046875 3:-0.432937 4:-0.0692446 5:0.461666 6:0.447717 7:-0.227697 8:-0.581051 \n"
"-0.1605537008074118 1:0.173962 3:0.00520342 4:-0.0692446 5:0.571631 6:0.271084 7:0.411426 8:-0.521836 \n"
"-2 1:0.0774411 2:0.1875 3:-0.0010162 4:-0.0692446 5:0.574187 6:0.339043 7:-0.15893 8:-0.742413 \n"
"-1.204638492316456 1:0.488215 2:0.078125 3:-0.342238 4:0.290026 5:0.571631 6:0.351766 7:0.354521 8:-0.477424 \n"
"-1.023331918876299 1:0.468013 2:0.03125 3:-0.418735 4:-0.0692446 5:0.571631 6:0.156607 7:0.42584 8:-0.564767 \n"
"-1.101753892686515 1:0.459035 2:0.203125 3:-0.516975 4:-0.318784 5:0.56388 6:0.179514 7:0.135307 8:-0.672835 \n"
"-2 1:0.232323 2:0.484375 3:-0.810742 4:-0.0692446 5:0.555354 6:0.46665 7:-0.47659 8:-0.832717 \n"
"-1.242223425381804 1:0.526375 2:-0.03125 3:-0.42089 4:-0.179377 5:0.568774 6:-0.00109654 7:0.351818 8:-0.61362 \n"
"-0.100927165846937 1:0.268238 2:-0.703125 3:-0.116055 4:-0.0692446 5:0.572097 6:0.259957 7:-0.017442 8:-0.680237 \n"
"-0.544765398149713 1:0.387205 2:0.078125 3:-0.434872 4:0.0487424 5:0.584712 6:0.280014 7:-0.723631 8:-0.877128 \n"
"-2 1:0.481481 2:0.125 3:-0.550449 4:-0.0342392 5:0.573568 6:0.214046 7:0.10793 8:-0.65507 \n"
"-0.7115191331848576 1:0.492705 2:0.296875 3:-0.49173 4:0.06128 5:0.574508 6:0.124258 7:-0.197918 8:-0.780903 \n"
"-0.0323695102717761 1:0.5578 2:-0.53125 3:-0.349731 4:-0.0647502 5:0.574987 6:0.272456 7:0.535147 8:-0.456699 \n"
"-1.66373908750311 1:0.317621 2:0.015625 3:-0.359134 4:-0.0692446 5:0.103031 6:0.324041 7:-0.105228 8:-0.727609 \n"
"-0.5498410848004545 1:0.923681 2:-0.234375 3:-0.565435 4:-0.0692446 5:0.571631 6:0.0582237 7:0.810565 8:-0.410807 \n"
"-0.5007257896714504 1:0.56229 2:0.34375 3:-0.966625 4:-0.0692446 5:0.571631 6:0.432693 7:0.654964 8:-0.339748 \n"
"-0.1570843834901157 1:0.472503 2:0.453125 3:-0.356343 4:-0.0692446 5:0.571631 6:0.133911 7:0.331198 8:-0.584012 \n"
"-1.80251319911492 1:0.463524 2:0.5625 3:-0.843383 4:-0.0692446 5:0.571631 6:0.0528372 7:0.0516754 8:-0.746854 \n"
"-2 1:0.023569 2:0.390625 3:-0.87933 4:-0.165351 5:0.54724 6:0.39147 7:-0.202122 8:-0.782383 \n"
"-1.954673265488557 1:0.382716 2:0.546875 3:-0.902739 4:-0.0692446 5:0.571631 6:0.238283 7:-0.160181 8:-0.780903 \n"
"-2 1:0.106622 2:0.578125 3:-0.839735 4:0.020709 5:0.579314 6:0.38342 7:-0.139511 8:-0.739452 \n"
"-0.3167304270739263 1:0.492705 2:-0.09375 3:-0.48191 4:-0.03793 5:0.568334 6:0.244201 7:0.256175 8:-0.584012 \n"
"-2 1:-0.250281 2:0.140625 3:0.00216707 4:0.055281 5:0.571631 6:0.560204 7:-0.184955 8:-0.601776 \n"
"-2 1:0.111111 2:-0.15625 3:-0.0466104 4:-0.114499 5:0.575968 6:0.510641 7:0.0567303 8:-0.446336 \n"
"-2 1:0.111111 2:-0.15625 3:-0.0466104 4:-0.114499 5:0.575968 6:0.510641 7:0.0567303 8:-0.446336 \n"
"-2 1:-0.0684624 2:0.140625 3:-0.186699 4:-0.00826192 5:0.573035 6:0.643639 7:-0.196216 8:-0.65359 \n"
"-2 1:0.0639731 2:-0.078125 3:0.0296167 4:-0.0692446 5:-0.0798983 6:0.336357 7:-0.0484222 8:-0.721688 \n"
"-0.286285940724772 1:0.218855 2:0.015625 3:-0.192257 4:0.0113264 5:0.412685 6:0.121654 7:0.0997723 8:-0.727609 \n"
"-2 1:0.530864 2:0.21875 3:-0.53201 4:-0.114046 5:0.570061 6:0.0643782 7:0.134006 8:-0.663953 \n"
"-2 1:0.546577 2:0.234375 3:-0.288368 4:0.00059281 5:0.571631 6:0.210993 7:0.0436175 8:-0.671355 \n"
"-0.05008024625175636 1:0.719416 2:0.171875 3:-0.0140431 4:0.0702017 5:0.573239 6:0.206449 7:0.206626 8:-0.584012 \n"
"-0.8078752812389225 1:0.56229 2:0.15625 3:-0.340328 4:-0.0692446 5:0.569408 6:0.147917 7:0.234904 8:-0.598816 \n"
"-2 1:0.270483 2:0.1875 3:-0.184495 4:-0.416647 5:0.556332 6:0.341443 7:-0.258877 8:-0.789785 \n"
"-0.486689473251326 1:0.52862 2:0.140625 3:-0.550792 4:-0.530924 5:0.451565 6:0.360518 7:0.560021 8:-0.390081 \n"
"-2 1:0.690236 2:0.234375 3:-0.571067 4:-0.0692446 5:0.565479 6:0.0789868 7:0.34331 8:-0.65211 \n"
"-1.959067585069429 1:0.416386 2:0.109375 3:-0.345422 4:-0.0692446 5:0.564004 6:0.235156 7:0.278497 8:-0.612139 \n"
"-2 1:0.499439 2:0.0625 3:-0.481225 4:0.0770161 5:0.571631 6:0.224717 7:0.253172 8:-0.512953 \n"
"-2 1:0.331089 2:0.1875 3:-0.108023 4:-0.040384 5:0.571025 6:0.433376 7:-0.184805 8:-0.727609 \n"
"-2 1:0.0751964 2:0.3125 3:-0.503802 4:-0.0692446 5:0.571631 6:0.455187 7:-0.280849 8:-0.746854 \n"
"-2 1:-0.0886644 2:0.140625 3:-0.26655 4:-0.0692446 5:0.573734 6:0.408506 7:-0.505718 8:-0.865285 \n"
"-2 1:0.640853 2:0.09375 3:-0.334329 4:-0.0776857 5:0.549244 6:0.0190013 7:0.201421 8:-0.69208 \n"
"-1.785276856603408 1:0.427609 2:0.265625 3:-0.667054 4:-0.0692446 5:0.571631 6:0.242311 7:0.145066 8:-0.625463 \n"
"-0.5792817305104974 1:0.0213244 2:0.34375 3:-0.758267 4:-0.0692446 5:0.571631 6:0.40426 7:0.0936163 8:-0.668394 \n"
"-0.7051443884853121 1:0.402918 2:0.5 3:-0.866327 4:-0.180654 5:0.566429 6:0.424449 7:-0.264633 8:-0.758697 \n"
"-2 1:0.0145903 2:0.390625 3:-0.850778 4:-0.102001 5:0.555367 6:0.407092 7:-0.238708 8:-0.742413 \n"
"-0.7295025106627017 1:0.6633 2:0.53125 3:-0.901637 4:-0.0692446 5:0.571631 6:0.0982201 7:0.570531 8:-0.481865 \n"
"-1.317606439263199 1:0.459035 2:0.53125 3:-1 4:0.168648 5:0.627534 6:0.0292798 7:0.372038 8:-0.581051 \n"
"-1.236606035951897 1:0.52413 2:0.453125 3:-0.61862 4:0.100977 5:0.609643 6:0.201168 7:0.303871 8:-0.487787 \n"
"-0.5725038126725364 1:0.400673 2:0.046875 3:-0.189294 4:0.547605 5:0.547374 6:0.204169 7:0.0817547 8:-0.641747 \n"
"-0.2929323742145162 1:0.113356 2:0.375 3:-0.756039 4:-0.0692446 5:0.187008 6:0.475881 7:-0.430395 8:-0.73057 \n"
"-1.314073466313572 1:0.023569 2:0.53125 3:-0.816521 4:-0.0166597 5:0.535175 6:0.722673 7:-0.568129 8:-0.831236 \n"
"-1.665889524244434 1:0.560045 2:0.125 3:-0.699989 4:0.188709 5:0.53779 6:-0.134728 7:0.0786016 8:-0.754256 \n"
"-2 1:0.353535 2:0.53125 3:-0.87622 4:-0.0810929 5:0.592377 6:0.232548 7:-0.228798 8:-0.749815 \n"
"-0.5362010663360604 1:0.544332 2:0.5625 3:-0.917113 4:-0.319879 5:0.545411 6:0.348111 7:0.30242 8:-0.409326 \n"
"-0.305401203845955 1:0.896745 2:-0.4375 3:-0.0276822 4:-0.0422668 5:0.570244 6:0.213525 7:0.264133 8:-0.527757 \n"
"-0.06140911235955454 1:0.360269 2:-0.734375 3:-0.233762 4:-0.0692446 5:0.571631 6:0.444293 7:0.105978 8:-0.481865 \n"
"-0.1096165252081295 1:0.169473 2:-0.140625 3:0.122593 4:-0.0692446 5:0.526257 6:0.365285 7:0.0919647 8:-0.573649 \n"
"-2 1:0.102132 2:0.046875 3:0.0959756 4:-0.0496956 5:0.57114 6:0.415415 7:-0.315232 8:-0.754256 \n"
"-0.04600544693161034 1:0.358025 2:0.046875 3:-0.128053 4:-0.0604922 5:0.571631 6:0.535389 7:-0.490503 8:-0.798668 \n"
"-0.8747366873819432 1:0.171717 2:0.328125 3:-0.439965 4:-0.00169177 5:0.571631 6:0.249121 7:0.0511248 8:-0.686158 \n"
"-0.4812962702386216 1:0.65881 2:-0.6875 3:-0.295836 4:-0.0692446 5:0.571631 6:-0.0118253 7:0.626586 8:-0.428571 \n"
"-0.05854305570494604 1:0.506173 2:-0.546875 3:0.232048 4:-0.0104402 5:0.570305 6:0.0546526 7:0.0391131 8:-0.662472 \n"
"-0.2581046823297589 1:0.257015 2:-0.234375 3:0.0293718 4:-0.327304 5:0.574738 6:0.308563 7:-0.242261 8:-0.785344 \n"
"-0.1800278312482997 1:0.930415 2:0.4375 3:-0.8104 4:-0.0692446 5:0.571631 6:-0.101916 7:0.321789 8:-0.733531 \n"
"-0.009172932151856425 1:0.537598 2:0.5625 3:-0.94133 4:-0.0692446 5:0.571631 6:0.361872 7:0.13851 8:-0.557365 \n"
"-1.757430820990553 1:0.358025 2:0.328125 3:-0.732311 4:-0.0692446 5:0.571631 6:-0.0817157 7:0.355572 8:-0.680237 \n"
"-0.6699477436064539 1:0.777778 2:0.484375 3:-0.953769 4:-0.0692446 5:0.546319 6:0.209125 7:0.146268 8:-0.669874 \n"
"-2 1:0.00112233 2:0.46875 3:-0.69683 4:-0.0918895 5:0.516103 6:0.280626 7:-0.338555 8:-0.826795 \n"
"-0.02723605883877899 1:0.604938 2:-0.875 3:0.591023 4:-0.0732544 5:0.573548 6:0.202837 7:0.274242 8:-0.598816 \n"
"-0.5508881289207246 1:0.299663 2:-0.859375 3:0.8104 4:-0.274365 5:0.569106 6:0.40127 7:-0.156077 8:-0.696521 \n"
"-0.07213343768932021 1:0.441077 2:-0.96875 3:0.418906 4:-0.0714031 5:0.58897 6:0.177849 7:0.511474 8:-0.400444 \n"
"-0.1196292817100297 1:0.56229 2:-0.984375 3:0.355682 4:-0.0692446 5:0.572316 6:0.236064 7:0.572383 8:-0.419689 \n"
"-0.09556906843102765 1:0.548822 2:-0.984375 3:0.543397 4:-0.0692446 5:0.571631 6:0.376869 7:0.229249 8:-0.46114 \n"
"-0.6826347697277159 1:0.286195 2:-0.375 3:0.66654 4:-0.259393 5:0.538955 6:0.32369 7:-0.2311 8:-0.745374 \n"
"-0.05124954391107946 1:0.315376 2:-0.75 3:0.661667 4:-0.192482 5:0.569805 6:0.248502 7:-0.0828057 8:-0.678756 \n"
"-0.1748830106553347 1:0.506173 2:-0.84375 3:0.54107 4:-0.0290753 5:0.57111 6:0.102099 7:0.214784 8:-0.610659 \n"
"-0.1596421384971286 1:0.56229 2:-0.421875 3:0.262828 4:-0.169164 5:0.576783 6:0.020259 7:0.183154 8:-0.621021 \n"
"-0.4009381742991248 1:0.494949 2:-0.953125 3:0.642886 4:-0.0737783 5:0.574017 6:0.26433 7:0.48755 8:-0.381199 \n"
"-0.03394902103825094 1:0.586981 2:-0.828125 3:0.414278 4:-0.161093 5:0.570494 6:0.32736 7:0.0291034 8:-0.628423 \n"
"-0.2290415336644477 1:0.560045 2:-0.5 3:0.534998 4:0.194424 5:0.580603 6:0.263411 7:-0.0247491 8:-0.723168 \n"
"-1.185631908152059 1:-0.037037 2:-0.53125 3:0.34552 4:-0.00802559 5:0.544271 6:0.289253 7:-0.0119867 8:-0.658031 \n"
"-0.1486589932885032 1:0.268238 2:-0.796875 3:0.0587558 4:-0.0692446 5:0.571631 6:0.130002 7:0.178899 8:-0.61362 \n"
"-0.2240102467779913 1:0.248036 2:-0.3125 3:0.36173 4:-0.0692446 5:0.52632 6:0.475749 7:0.042016 8:-0.490748 \n"
"-0.07682058046065209 1:0.640853 2:-0.765625 3:-0.2296 4:-0.0692446 5:0.597809 6:0.328771 7:0.365231 8:-0.372317 \n"
"-0.6743949807750407 1:0.349046 2:0.296875 3:-0.593031 4:-0.0692446 5:0.581191 6:0.275141 7:0.0109357 8:-0.669874 \n"
"-2 1:0.126824 2:0.46875 3:-0.846077 4:-0.0692446 5:0.571631 6:0.450871 7:-0.191662 8:-0.772021 \n"
"-0.2955107773758225 1:0.712682 2:0.140625 3:-0.718501 4:0.0710447 5:0.571631 6:0.2056 7:0.184305 8:-0.666913 \n"
"-2 1:-0.0864198 2:0.15625 3:-0.30541 4:-0.0692446 5:0.571631 6:0.837445 7:-0.370837 8:-0.351591 \n"
"-0.04052599973877342 1:0.387205 2:0.390625 3:-0.750627 4:-0.325989 5:0.571631 6:0.67582 7:0.0276019 8:0.00222058 \n"
"-0.08299024779854239 1:0.18743 2:-0.21875 3:-0.491509 4:-0.257483 5:0.57785 6:0.581797 7:0.368134 8:0.080681 \n"
"-1.286997414713818 1:-0.542088 2:0.265625 3:-0.715563 4:-0.0692446 5:0.577261 6:0.847215 7:-0.392257 8:-0.419689 \n"
"-0.3348232773267826 1:0.0729517 2:0.234375 3:-0.495133 4:-0.0692446 5:0.534588 6:0.598949 7:0.1793 8:-0.00370096 \n"
"-2 1:0.0639731 2:0.5 3:-0.790296 4:-0.0692446 5:0.571631 6:0.587893 7:-0.136458 8:-0.465581 \n"
"-0.4597512094539122 1:0.0841751 2:-0.203125 3:-0.0451167 4:-0.0692446 5:0.571631 6:0.939469 7:0.400415 8:0.0259067 \n"
"-2 1:0.268238 2:0.421875 3:-0.435459 4:-0.0692446 5:0.571631 6:0.711878 7:-0.0766497 8:-0.157661 \n"
"-0.5706721693708956 1:0.173962 2:-0.03125 3:-0.22884 4:-0.0692446 5:0.571631 6:0.902774 7:-0.426541 8:-0.296817 \n"
"-0.06587968945922112 1:0.571268 2:0.484375 3:-0.0451167 4:-0.0692446 5:0.571631 6:0.647959 7:0.368634 8:0.218357 \n"
"-0.2057997587639263 1:0.571268 2:0.484375 3:-0.0451167 4:-0.0692446 5:0.571631 6:0.647959 7:0.368634 8:0.218357 \n"
"-1.959480485288045 1:-0.0527497 2:0.109375 3:-0.435973 4:-0.0692446 5:0.571631 6:0.759097 7:0.00132629 8:-0.126573 \n"
"-2 1:-0.0527497 2:0.109375 3:-0.435973 4:-0.0692446 5:0.571631 6:0.759097 7:0.00132629 8:-0.126573 \n"
"-0.397049308699821 1:0.465769 2:-0.515625 3:-0.586493 4:-0.0692446 5:0.571631 6:0.512505 7:0.467781 8:-0.0125833 \n"
"-2 1:0.2211 2:0.453125 3:-0.183491 4:0.0290871 5:0.58675 6:0.679425 7:-0.00207703 8:-0.172465 \n"
"-1.041408082413765 1:0.593715 2:0.546875 3:-0.982565 4:-0.0692446 5:0.571631 6:0.468261 7:0.544005 8:0.179867 \n"
"-0.6279149721750803 1:0.241302 2:-0.296875 3:-0.453016 4:0.590417 5:0.548924 6:0.583842 7:0.271189 8:0.099926 \n"
"-1.041377195499674 1:-0.00785634 2:0.203125 3:-0.585269 4:0.245236 5:0.571631 6:0.84356 7:-0.316584 8:-0.357513 \n"
"-0.03424654522359791 1:0.349046 2:0.546875 3:-0.761279 4:-0.0964784 5:0.576174 6:0.715494 7:-0.168639 8:-0.128053 \n"
"-2 1:0.189675 2:0.53125 3:-0.538181 4:-0.0692446 5:0.571631 6:0.601575 7:-0.175346 8:-0.26869 \n"
"-2 1:0.189675 2:0.53125 3:-0.538181 4:-0.0692446 5:0.571631 6:0.601575 7:-0.175346 8:-0.26869 \n"
"-0.3551891769344497 1:0.0953984 2:0.375 3:-0.0769494 4:-0.0692446 5:0.204868 6:0.792004 7:-0.145567 8:-0.0762398 \n"
"-0.3380455498832365 1:0.182941 2:-0.3125 3:-0.599324 4:-0.0692446 5:0.571631 6:0.940084 7:-0.342159 8:0.131014 \n"
"-0.4463307341486974 1:0.196409 2:0.34375 3:-0.949019 4:-0.0692446 5:0.571631 6:0.841147 7:-0.451015 8:-0.301258 \n"
"-0.1800622484248629 1:0.333333 2:0.515625 3:-0.856434 4:-0.0692446 5:0.51822 6:0.843128 7:-0.482545 8:-0.46262 \n"
"-1.189409244100866 1:0.333333 2:0.515625 3:-0.856434 4:-0.0692446 5:0.51822 6:0.843128 7:-0.482545 8:-0.46262 \n"
"-0.06726699946918008 1:0.135802 2:-0.375 3:-0.308447 4:-0.0692446 5:0.571631 6:0.695808 7:0.36453 8:-0.107328 \n"
"-0.06299737716525901 1:0.69697 2:0.375 3:-0.876783 4:-0.0692446 5:0.571631 6:0.494272 7:0.840845 8:0.496669 \n"
"-0.3030665442458668 1:0.0864198 2:-0.515625 3:-0.486661 4:-0.0692446 5:0.571631 6:0.76468 7:-0.170441 8:-0.296817 \n"
"-0.4175495213107378 1:0.461279 2:0.5625 3:-0.408401 4:-0.316216 5:0.379054 6:0.67651 7:0.414029 8:0.38416 \n"
"-0.2003989671156679 1:0.384961 2:-0.96875 3:0.089805 4:-0.0692446 5:0.571631 6:0.708153 7:0.428142 8:0.262768 \n"
"-0.4808789784893485 1:0.508418 2:-0.703125 3:-0.100261 4:0.312096 5:0.571631 6:0.661504 7:0.242662 8:0.286454 \n"
"-1.302484551196098 1:0.0751964 2:0.171875 3:-0.142206 4:-0.0692446 5:0.571631 6:0.724704 7:-0.174645 8:-0.170984 \n"
"-1.302574254953754 1:0.016835 2:-0.015625 3:0.0946288 4:-0.0692446 5:0.658282 6:0.746723 7:-0.459423 8:-0.452258 \n"
"-0.2602480112199545 1:0.209877 2:0.09375 3:0.386143 4:-0.0692446 5:0.536543 6:0.727611 7:0.324992 8:0.206514 \n"
"-0.1726539135120971 1:0.705948 2:-0.5625 3:0.186038 4:-0.0692446 5:0.571631 6:0.58884 7:0.436501 8:0.113249 \n"
"-2 1:0.367003 2:0.4375 3:-0.651432 4:-0.0692446 5:0.571631 6:0.812665 7:-0.110933 8:-0.11473 \n"
"-2 1:-0.108866 2:0.40625 3:-0.60454 4:-0.0692446 5:0.571631 6:0.906015 7:-0.576487 8:-0.412287 \n"
"-0.1573437608235277 1:0.32211 2:0.359375 3:-0.542344 4:-0.0692446 5:0.571631 6:0.566374 7:0.420185 8:0.0866025 \n"
"-0.7316263208482819 1:0.782267 2:0.921875 3:-0.702242 4:-0.0692446 5:0.571631 6:0.443372 7:0.659968 8:0.200592 \n"
"-0.09557525801811904 1:0.230079 2:0.578125 3:0.184911 4:-0.0692446 5:0.573385 6:0.737332 7:-0.0459198 8:0.061436 \n"
"-1.233589803828338 1:0.230079 2:0.578125 3:0.184911 4:-0.0692446 5:0.573385 6:0.737332 7:-0.0459198 8:0.061436 \n"
"-0.09584284316819669 1:0.533109 2:-0.796875 3:0.129718 4:-0.0692446 5:0.57103 6:0.520442 7:0.00482971 8:-0.022946 \n"
"-0.07368475272621167 1:0.533109 2:-0.796875 3:0.129718 4:-0.0692446 5:0.57103 6:0.520442 7:0.00482971 8:-0.022946 \n"
"-2 1:0.0707071 2:-0.125 3:0.358253 4:-0.297329 5:0.544698 6:0.728978 7:-0.399765 8:-0.443375 \n"
"-0.04600438373888113 1:0.0213244 2:-0.5625 3:0.371671 4:0.139586 5:0.571631 6:0.649332 7:-0.256926 8:-0.42265 \n"
"-0.3749270792149459 1:-0.0953984 2:0.28125 3:-0.666785 4:-0.144931 5:0.554182 6:0.741872 7:-0.305072 8:-0.369356 \n"
"-2 1:-0.0953984 2:0.28125 3:-0.666785 4:-0.144931 5:0.554182 6:0.741872 7:-0.305072 8:-0.369356 \n"
"-2 1:0.023569 2:0.21875 3:-0.208614 4:-0.0692446 5:0.241274 6:0.679098 7:-0.331799 8:-0.504071 \n"
"-0.6291305586643952 1:0.364759 2:0.59375 3:-0.0395583 4:-0.0692446 5:0.571631 6:0.680942 7:0.051275 8:0.19171 \n"
"-0.01700675454257395 1:0.535354 2:-0.34375 3:-0.436463 4:-0.0692446 5:0.571631 6:0.666251 7:0.390506 8:0.458179 \n"
"-0.3624752862626228 1:0.802469 2:0.078125 3:-0.52557 4:-0.0692446 5:0.571631 6:0.56582 7:0.402117 8:0.202073 \n"
"-0.4828494865057691 1:0.506173 2:0.0625 3:-0.736548 4:-0.0692446 5:0.571631 6:0.57254 7:0.820375 8:0.2302 \n"
"-0.5374538523004859 1:0.685746 2:-0.78125 3:-0.649399 4:-0.0692446 5:0.571631 6:0.552244 7:0.754611 8:0.398964 \n"
"-0.1706745659375767 1:0.476992 2:-0.46875 3:-0.226735 4:-0.0692446 5:0.571631 6:0.58048 7:0.731088 8:0.311621 \n"
"-0.07150263933312671 1:0.589226 2:-0.890625 3:-0.224408 4:-0.0692446 5:0.571631 6:0.623455 7:0.389555 8:0.388601 \n"
"-0.04714076652481179 1:0.52413 2:0.203125 3:-0.8104 4:-0.0692446 5:0.571631 6:0.614136 7:0.521834 8:0.236121 \n"
"-2 1:0.209877 2:0.546875 3:-0.793332 4:-0.0692446 5:0.571631 6:0.726822 7:-0.252671 8:-0.344189 \n"
"-2 1:0.209877 2:0.546875 3:-0.793332 4:-0.0692446 5:0.571631 6:0.726822 7:-0.252671 8:-0.344189 \n"
"-0.04147039833104596 1:0.497194 2:-0.171875 3:-0.698887 4:-0.0692446 5:0.571631 6:0.600576 7:0.416381 8:0.147298 \n"
"-0.6923642461137788 1:0.223345 2:0.25 3:-0.528288 4:-0.825001 5:0.571631 6:0.820985 7:-0.164736 8:-0.125093 \n"
"-0.004769079517903451 1:-0.0145903 2:0.25 3:-0.469765 4:-0.0692446 5:0.571631 6:0.773783 7:-0.39511 8:-0.329386 \n"
"-1.288733980919668 1:-0.0145903 2:0.25 3:-0.469765 4:-0.0692446 5:0.571631 6:0.773783 7:-0.39511 8:-0.329386 \n"
"-0.0771330387172805 1:0.512907 2:-0.65625 3:0.288245 4:-0.0692446 5:0.571631 6:0.579751 7:0.565827 8:0.261288 \n"
"-0.4233249039878353 1:0.28844 2:-0.15625 3:-0.134224 4:0.519 5:0.556561 6:0.629789 7:0.254073 8:-0.0836417 \n"
"-2 1:0.0572391 2:0.5 3:-0.63745 4:-0.0692446 5:0.571631 6:0.870943 7:-0.330948 8:-0.0377498 \n"
"-0.1907137325795115 1:0.580247 2:-0.03125 3:-0.223037 4:-0.0880451 5:0.570397 6:0.640112 7:0.584995 8:0.444856 \n"
"-0.05387951385160827 1:-0.129068 2:0.125 3:-0.225584 4:0.320671 5:0.102024 6:0.667857 7:-0.263782 8:-0.437454 \n"
"-1.015359834011188 1:-0.129068 2:0.125 3:-0.225584 4:0.320671 5:0.102024 6:0.667857 7:-0.263782 8:-0.437454 \n"
"-0.6980257806974988 1:0.465769 2:-0.359375 3:-0.491509 4:-0.0692446 5:0.571631 6:0.471409 7:-0.506269 8:0.144338 \n"
"-1.799606994791636 1:-0.0347924 2:0.5625 3:-0.842183 4:-0.0692446 5:0.0210358 6:0.625714 7:-0.621331 8:-0.57661 \n"
"-0.7203591925819729 1:-0.0123457 2:-0.046875 3:-0.193555 4:0.341981 5:0.571631 6:0.880918 7:-0.754661 8:-0.333827 \n"
"-2 1:-0.133558 2:0.515625 3:-0.335137 4:-0.0692446 5:0.535096 6:0.915625 7:-0.45652 8:-0.000740192 \n"
"-0.4408595647201309 1:-0.0347924 2:0.140625 3:-0.430513 4:-0.0692446 5:0.822863 6:0.805549 7:0.0528766 8:0.444856 \n"
"-0.01167998110586585 1:0.564534 2:-0.9375 3:-0.60214 4:-0.0692446 5:0.571631 6:0.762446 7:0.478391 8:0.973353 \n"
"-0.752525668865683 1:0.564534 2:-0.9375 3:-0.60214 4:-0.0692446 5:0.571631 6:0.762446 7:0.478391 8:0.973353 \n"
"-0.5742040126980649 1:-0.023569 2:0.296875 3:-0.358816 4:-0.0692446 5:0.552994 6:0.892693 7:-0.385451 8:-0.0436714 \n"
"-0.1398004414319417 1:0.360269 2:-0.8125 3:-0.291894 4:-0.0692446 5:0.558813 6:0.76526 7:0.33345 8:0.508512 \n"
"-2 1:0.198653 2:0.203125 3:0.252886 4:-0.0692446 5:0.585835 6:0.920294 7:-0.451515 8:-0.0629164 \n"
"-0.04748333660804778 1:0.479237 2:-0.5 3:0.380829 4:-0.0692446 5:0.571631 6:0.85112 7:-0.0356097 8:0.438934 \n"
"-0.08063470903558528 1:0.479237 2:-0.5 3:0.380829 4:-0.0692446 5:0.571631 6:0.85112 7:-0.0356097 8:0.438934 \n"
"-0.5443095503537038 1:0.667789 2:0.46875 3:-0.687231 4:-0.0692446 5:0.571631 6:0.71179 7:0.604815 8:0.706884 \n"
"-0.3666912723043777 1:0.443322 2:-0.875 3:0.199824 4:-0.0692446 5:0.571631 6:0.790177 7:0.380396 8:0.73057 \n"
"-0.01115124033133196 1:-0.310887 2:-0.296875 3:0.321204 4:-0.211767 5:0.576229 6:0.937785 7:-0.683341 8:-0.301258 \n"
"-1.302435735924798 1:-0.310887 2:-0.296875 3:0.321204 4:-0.211767 5:0.576229 6:0.937785 7:-0.683341 8:-0.301258 \n"
"-0.04019954631961019 1:0.38945 2:-0.453125 3:0.222768 4:-0.0692446 5:0.571631 6:0.841711 7:-0.229699 8:0.206514 \n"
"-0.07052337233136166 1:0.378227 2:-0.96875 3:0.260306 4:-0.0692446 5:0.575251 6:0.88569 7:-0.172493 8:0.305699 \n"
"-0.3202567341957671 1:0.378227 2:-0.96875 3:0.260306 4:-0.0692446 5:0.575251 6:0.88569 7:-0.172493 8:0.305699 \n"
"-0.002892559814864415 1:0.508418 2:-0.078125 3:0.0569928 4:-0.0692446 5:0.571631 6:0.627173 7:0.734291 8:0.752776 \n"
"-0.6232595994116282 1:0.508418 2:-0.078125 3:0.0569928 4:-0.0692446 5:0.571631 6:0.627173 7:0.734291 8:0.752776 \n"
"-0.7860493395733307 1:0.2211 2:-0.109375 3:0.0617432 4:-0.0692446 5:0.571631 6:0.882221 7:-0.488902 8:0.034789 \n"
"-0.3413066625614384 1:0.32211 2:0.21875 3:0.319245 4:-0.0692446 5:0.606105 6:0.749357 7:0.336203 8:0.515914 \n"
"-2 1:0.198653 2:0.625 3:-0.888488 4:-0.0692446 5:0.571631 6:0.835451 7:-0.469733 8:-0.296817 \n"
"-2 1:0.198653 2:0.625 3:-0.888488 4:-0.0692446 5:0.571631 6:0.835451 7:-0.469733 8:-0.296817 \n"
"-0.8008759290769849 1:-0.398429 2:0.359375 3:-0.902739 4:0.746801 5:0.466374 6:0.910939 7:-0.645955 8:-0.458179 \n"
"-0.02404697752777646 1:0.346801 2:0.390625 3:-0.823206 4:-0.0692446 5:0.571631 6:0.281044 7:0.438402 8:-0.236121 \n"
"-0.07330779947556852 1:0.762065 2:0.53125 3:-0.960307 4:-0.0692446 5:0.571631 6:0.358769 7:0.0454693 8:-0.382679 \n"
"-0.7321598940824672 1:0.762065 2:0.53125 3:-0.960307 4:-0.0692446 5:0.571631 6:0.358769 7:0.0454693 8:-0.382679 \n"
"-0.008490551204009045 1:0.351291 2:0.921875 3:-0.702854 4:-0.0692446 5:0.571631 6:0.876247 7:-0.0355597 8:1 \n"
"-0.7757180177773019 1:0.351291 2:0.921875 3:-0.702854 4:-0.0692446 5:0.571631 6:0.876247 7:-0.0355597 8:1 \n"
"-0.6949706389845324 1:0.016835 2:0.546875 3:-0.805992 4:-0.0692446 5:0.571631 6:1 7:-0.755211 8:0.129534 \n"
"-0.009103655273242858 1:0.369248 2:0.59375 3:-0.858271 4:-0.0692446 5:0.571631 6:0.817002 7:-0.215835 8:0.224278 \n"
"-0.4957740618871067 1:0.497194 2:-0.296875 3:-0.766838 4:-0.0692446 5:0.571631 6:0.706435 7:0.185406 8:0.435973 \n"
"-0.07644157191537325 1:0.203143 2:-0.40625 3:-0.44376 4:-0.0692446 5:0.571631 6:0.828538 7:-0.14897 8:0.302739 \n"
"-0.1709840299202524 1:0.613917 2:-0.15625 3:-0.15827 4:-0.0692446 5:0.571631 6:0.7173 7:0.0293536 8:0.182828 \n"
"-0.07545990637236176 1:0.548822 3:-0.865225 4:-0.0692446 5:0.571631 6:0.751055 7:0.247066 8:0.631384 \n"
"-0.1030536340936341 1:0.160494 2:-0.28125 3:-0.330166 4:0.175698 5:0.571631 6:0.825665 7:-0.085158 8:0.252406 \n"
"-0.03128466822281072 1:0.218855 2:-0.53125 3:-0.101289 4:-0.0692446 5:0.571631 6:0.806593 7:0.0948675 8:0.554404 \n"
"-0.06793823860506212 1:0.218855 2:-0.53125 3:-0.101289 4:-0.0692446 5:0.571631 6:0.806593 7:0.0948675 8:0.554404 \n"
"-0.06454706472300174 1:0.207632 2:-0.375 3:-0.247891 4:-0.0692446 5:0.571631 6:0.638022 7:0.186507 8:0.361954 \n"
"-0.3690875201176821 1:0.553311 2:-0.859375 3:0.808906 4:-0.0692446 5:0.571631 6:0.673349 7:0.257476 8:0.38416 \n"
"-0.2226048363688727 1:0.230079 2:-0.9375 3:0.55062 4:-0.0692446 5:0.571631 6:0.868005 7:-0.24126 8:0.197631 \n"
"-0.2745644539726319 1:0.371493 2:-0.296875 3:0.363542 4:-0.0692446 5:0.571631 6:0.766487 7:0.522534 8:0.139896 \n"
"-0.006711446928589454 1:-0.144781 2:-0.4375 3:0.317654 4:-0.0692446 5:0.412983 6:0.816641 7:-0.294062 8:0.0821614 \n"
"-0.07654525745297472 1:-0.144781 2:-0.4375 3:0.317654 4:-0.0692446 5:0.412983 6:0.816641 7:-0.294062 8:0.0821614 \n"
"-2 1:0.0145903 2:-0.140625 3:0.511148 4:-0.0692446 5:0.571631 6:0.885228 7:-0.592152 8:-0.129534 \n"
"-0.0182056149512206 1:0.474747 2:-0.140625 3:0.670238 4:-0.0692446 5:0.571631 6:0.811558 7:-0.00828308 8:0.261288 \n"
"-0.4411100504444674 1:0.474747 2:-0.140625 3:0.670238 4:-0.0692446 5:0.571631 6:0.811558 7:-0.00828308 8:0.261288 \n"
"-0.5313254018962399 1:0.281706 2:0.375 3:-0.666907 4:-0.0692446 5:0.588374 6:0.485203 7:0.353219 8:-0.169504 \n"
"-2 1:0.203143 2:0.59375 3:-0.657798 4:-0.0692446 5:0.571631 6:0.600036 7:0.0623858 8:-0.311621 \n"
"-1.111344967402953 1:0.0392817 2:0.5 3:-0.967286 4:-0.0692446 5:0.571631 6:0.73521 7:-0.119492 8:-0.34567 \n"
"-0.02218243792817078 1:0.411897 2:0.578125 3:-0.744947 4:-0.0692446 5:0.571631 6:0.737143 7:0.275694 8:0.592894 \n"
"-0.2686580038293591 1:0.411897 2:0.578125 3:-0.744947 4:-0.0692446 5:0.571631 6:0.737143 7:0.275694 8:0.592894 \n"
"-0.04984371672928417 1:0.317621 2:-0.890625 3:-0.115736 4:-0.0692446 5:0.569284 6:0.866785 7:-0.0549786 8:0.504071 \n"
"-2 1:0.102132 2:0.421875 3:-0.289567 4:-0.0692446 5:0.571631 6:0.885423 7:-0.406972 8:-0.0762398 \n"
"-0.3085036511493143 1:0.470258 2:-0.96875 3:-0.247671 4:-0.0692446 5:0.571631 6:0.825172 7:-0.133055 8:0.213916 \n"
"-0.6075956505995667 1:0.250281 2:-0.078125 3:-0.32997 4:-0.0692446 5:0.571631 6:0.854641 7:0.280949 8:0.970392 \n"
"-0.00143435743247174 1:-0.315376 2:0.046875 3:-0.324926 4:-0.0692446 5:0.33439 6:0.911885 7:-0.418133 8:-0.108808 \n"
"-0.7916759611849894 1:-0.315376 2:0.046875 3:-0.324926 4:-0.0692446 5:0.33439 6:0.911885 7:-0.418133 8:-0.108808 \n"
"-0.00770387803898414 1:0.530864 2:-0.6875 3:0.460901 4:-0.0692446 5:0.571631 6:0.696723 7:0.430845 8:0.484826 \n"
"-0.02845129188915066 1:-0.0594837 2:-0.390625 3:0.757337 4:-0.0692446 5:0.571631 6:0.898488 7:-0.566627 8:-0.210955 \n"
"-0.5058970478438285 1:-0.0594837 2:-0.390625 3:0.757337 4:-0.0692446 5:0.571631 6:0.898488 7:-0.566627 8:-0.210955 \n"
"-0.1836550875275277 1:0.191919 2:-0.546875 3:0.678024 4:-0.0692446 5:0.571631 6:0.855987 7:-0.467581 8:-0.0214656 \n"
"-0.05111394478265403 1:0.586981 2:-0.6875 3:0.650942 4:-0.0692446 5:0.571631 6:0.694963 7:0.257476 8:0.535159 \n"
"-0.04295365002611577 1:0.542088 2:-0.90625 3:0.509948 4:-0.0692446 5:0.571631 6:0.661834 7:0.320487 8:0.487787 \n"
"-0.1627928932574247 1:0.542088 2:-0.90625 3:0.509948 4:-0.0692446 5:0.571631 6:0.661834 7:0.320487 8:0.487787 \n"
"-0.3609630789966557 1:0.14927 2:-0.578125 3:0.628341 4:-0.165875 5:0.577997 6:0.83655 7:0.155026 8:0.600296 \n"
"-0.1296873905946258 1:0.0953984 2:-0.234375 3:0.397333 4:-0.0692446 5:0.57911 6:0.806372 7:-0.36443 8:-0.168024 \n"
"-2 1:0.0953984 2:-0.234375 3:0.397333 4:-0.0692446 5:0.57911 6:0.806372 7:-0.36443 8:-0.168024 \n"
"-2 1:0.0976431 2:0.5625 3:-0.867233 4:-0.0692446 5:0.571631 6:0.60938 7:0.0381622 8:-0.310141 \n"
"-2 1:0.0976431 2:0.5625 3:-0.867233 4:-0.0692446 5:0.571631 6:0.60938 7:0.0381622 8:-0.310141 \n"
"-2 1:0.182941 2:0.40625 3:-0.838167 4:0.00397636 5:0.59246 6:0.737108 7:-0.14827 8:-0.233161 \n"
"-1.425390555760008 1:-0.445567 2:0.53125 3:-0.65535 4:-0.0692446 5:0.571631 6:0.946295 7:-0.622882 8:-0.207994 \n"
"-0.01725511113612892 1:0.223345 2:0.484375 3:-0.249507 4:-0.0692446 5:0.527049 6:0.83363 7:-0.0603338 8:0.509993 \n"
"-0.09038725518459235 1:0.223345 2:0.484375 3:-0.249507 4:-0.0692446 5:0.527049 6:0.83363 7:-0.0603338 8:0.509993 \n"
"-0.01289006730327061 1:0.277217 2:-0.078125 3:-0.264101 4:-0.0692446 5:0.571631 6:0.720174 7:0.395561 8:0.495189 \n"
"-0.2746389734249671 1:0.274972 2:0.171875 3:-0.208296 4:-0.0692446 5:0.571631 6:0.886399 7:-0.222041 8:0.523316 \n"
"-0.3544940105973001 1:0.441077 2:-0.8125 3:-0.071342 4:-0.0692446 5:0.571631 6:0.665479 7:0.154576 8:0.761658 \n"
"-2 1:-0.0841751 2:0.40625 3:-0.269464 4:-0.0692446 5:0.571631 6:0.813007 7:-0.150572 8:-0.0377498 \n"
"-0.3237870864724421 1:0.138047 2:-0.3125 3:-0.0831691 4:-0.0692446 5:0.571631 6:0.882013 7:-0.3843 8:0.416728 \n"
"-0.1782520550531114 1:0.400673 2:0.625 3:-0.160327 4:-0.0893647 5:0.569311 6:0.771195 7:0.15938 8:0.595855 \n"
"-0.286006174518829 1:0.450056 2:0.015625 3:-0.273822 4:-0.0692446 5:0.320031 6:0.803065 7:0.0131879 8:0.388601 \n"
"-0.4361705233437465 1:0.42312 2:-0.109375 3:0.632773 4:-0.0692446 5:0.571631 6:0.723163 7:0.363329 8:0.561806 \n"
"-0.005027077248546725 1:0.369248 2:-0.75 3:0.904918 4:-0.0692446 5:0.571631 6:0.811565 7:0.0559295 8:0.444856 \n"
"-0.3085667099696983 1:0.369248 2:-0.75 3:0.904918 4:-0.0692446 5:0.571631 6:0.811565 7:0.0559295 8:0.444856 \n"
"-0.01859011031401836 1:0.353535 2:-0.84375 3:0.725235 4:-0.0692446 5:0.571631 6:0.813196 7:0.219539 8:0.927461 \n"
"-0.6032677290155133 1:0.353535 2:-0.84375 3:0.725235 4:-0.0692446 5:0.571631 6:0.813196 7:0.219539 8:0.927461 \n"
"-0.06248986524206621 1:0.405163 2:-0.453125 3:0.327767 4:-0.0692446 5:0.571631 6:0.742877 7:0.314181 8:0.794226 \n"
"-0.2674542153532258 1:0.405163 2:-0.453125 3:0.327767 4:-0.0692446 5:0.571631 6:0.742877 7:0.314181 8:0.794226 \n"
"-0.01075258629666653 1:0.463524 2:-0.6875 3:0.80991 4:-0.0692446 5:0.571631 6:0.746603 7:-0.102175 8:0.0658771 \n"
"-0.3719374905575253 1:0.463524 2:-0.6875 3:0.80991 4:-0.0692446 5:0.571631 6:0.746603 7:-0.102175 8:0.0658771 \n"
"-0.2725244827935303 1:0.169473 2:-0.6875 3:0.527921 4:-0.0692446 5:0.571631 6:0.919801 7:-0.192563 8:0.407846 \n"
"-0.0007179520663093542 1:-0.0213244 2:-0.1875 3:0.533675 4:-0.0692446 5:0.571631 6:0.866248 7:-0.119291 8:0.242043 \n"
"-0.3927177032496836 1:-0.0213244 2:-0.1875 3:0.533675 4:-0.0692446 5:0.571631 6:0.866248 7:-0.119291 8:0.242043 \n"
"-0.009382112548887151 1:0.0774411 2:-0.28125 3:-0.0215116 4:-0.0692446 5:0.571631 6:0.889568 7:-0.0423163 8:0.416728 \n"
"-0.1617534782832682 1:0.0774411 2:-0.28125 3:-0.0215116 4:-0.0692446 5:0.571631 6:0.889568 7:-0.0423163 8:0.416728 \n"
"-0.1513949208942859 1:0.411897 2:-0.5 3:-0.208492 4:0.0136701 5:0.571631 6:0.746803 7:0.29236 8:0.695041 \n"
"-0.2826926113464677 1:0.25477 2:0.234375 3:-0.0980815 4:-0.0692446 5:0.571631 6:0.836148 7:0.223693 8:0.680237 \n"
"-0.07625151641163316 1:0.299663 2:-1 3:-0.325563 4:-0.0692446 5:0.571631 6:0.832586 7:-0.00803283 8:0.42413 \n"
"-0.3365085018587141 1:0.299663 2:-1 3:-0.325563 4:-0.0692446 5:0.571631 6:0.832586 7:-0.00803283 8:0.42413 \n"
"-0.02128244231923109 1:0.349046 2:-0.1875 3:-0.0717093 4:-0.271994 5:0.571631 6:0.752239 7:0.071745 8:0.284974 \n"
"-0.1104821601466699 1:0.144781 2:-0.15625 3:-0.249605 4:-0.0692446 5:0.571631 6:0.823762 7:0.170892 8:0.686158 \n"
"-0.05229957729267699 1:0.578002 2:-0.703125 3:-0.091617 4:-0.0692446 5:0.571631 6:0.699755 7:0.465078 8:0.57513 \n"
"-0.4796203065027332 1:-0.030303 2:-0.75 3:0.0177651 4:-0.0692446 5:0.571631 6:0.926267 7:-0.293111 8:0.148779 \n"
"-0.03041854358794695 1:0.261504 2:0.0625 3:-0.487175 4:-0.0692446 5:0.571631 6:0.895289 7:-0.031756 8:0.609178 \n"
"-0.08844234534040268 1:0.261504 2:0.0625 3:-0.487175 4:-0.0692446 5:0.571631 6:0.895289 7:-0.031756 8:0.609178 \n"
"-0.669341772094958 1:0.0864198 2:0.09375 3:-0.0873808 4:-0.0692446 5:0.571631 6:0.826152 7:-0.120092 8:-0.0895633 \n"
"-1.524820771192823 1:-0.535354 2:0.484375 3:-0.197228 4:-0.0692446 5:0.461885 6:0.859665 7:-0.885839 8:-0.465581 \n"
"-0.2559716751617809 1:0.0639731 2:-0.140625 3:-0.220246 4:-0.0692446 5:0.571631 6:0.921559 7:-0.393108 8:0.0451517 \n"
"-0.9855702150683682 1:0.295174 2:0.34375 3:-0.685297 4:-0.0692446 5:0.86503 6:0.583032 7:-0.16899 8:-0.455218 \n"
"-0.02214135971094719 1:0.373737 2:-0.140625 3:-0.232685 4:-0.0692446 5:0.571631 6:0.76168 7:0.391407 8:0.705403 \n"
"-0.2729886406699302 1:0.515152 2:-0.328125 3:0.188437 4:-0.0692446 5:0.571631 6:0.817438 7:0.0511248 8:0.512953 \n"
"-2 1:0.227834 2:0.5 3:-0.662426 4:-0.0692446 5:0.571631 6:0.852497 7:-0.392408 8:-0.0792006 \n"
"-0.008030125627761536 1:0.45679 2:0.0625 3:-0.657431 4:-0.0692446 5:0.571631 6:0.665652 7:-0.80471 8:0.737972 \n"
"-0.7853591970770178 1:0.45679 2:0.0625 3:-0.657431 4:-0.0692446 5:0.571631 6:0.665652 7:-0.80471 8:0.737972 \n"
"-0.5017944973748325 1:0.250281 2:0.296875 3:-0.485755 4:0.62328 5:0.558088 6:0.422014 7:-0.447762 8:-0.797187 \n"
"-0.2194539931107291 1:0.604938 2:-0.390625 3:-0.158368 4:0.172244 5:0.574749 6:-0.0791119 7:0.32329 8:-0.603257 \n"
"-1.743188153170977 1:-0.00561167 2:0.140625 3:-0.461146 4:-0.0615558 5:0.570475 6:0.482192 7:-0.148119 8:-0.712805 \n"
"-0.5900637675485306 1:0.551066 2:0.328125 3:-0.27632 4:0.0442953 5:0.557726 6:0.0178583 7:0.32279 8:-0.629904 \n"
"-2 1:0.551066 2:0.328125 3:-0.27632 4:0.0442953 5:0.557726 6:0.0178583 7:0.32279 8:-0.629904 \n"
"-1.279959960910333 1:0.126824 2:0.53125 3:-0.842183 4:-0.0692446 5:0.571631 6:0.207701 7:0.0283026 8:-0.650629 \n"
"-2 1:0.371493 2:0.484375 3:-0.65273 4:0.0545405 5:0.571574 6:0.181455 7:0.121043 8:-0.621021 \n"
"-0.004851118183435648 1:0.753086 2:-0.515625 3:-0.102856 4:-0.141898 5:0.553061 6:-0.0693771 7:0.405771 8:-0.505551 \n"
"-1.760452812493922 1:0.164983 2:0.109375 3:-0.246569 4:0.0116612 5:0.547886 6:0.301579 7:-0.245815 8:-0.788305 \n"
"-0.243956013338345 1:0.510662 2:-0.515625 3:-0.322331 4:0.127033 5:0.578885 6:0.293038 7:0.037912 8:-0.588453 \n"
"-0.6314285124245429 1:0.402918 2:0.53125 3:-0.954798 4:0.156421 5:0.571037 6:0.258631 7:-0.091314 8:-0.689119 \n"
"-0.2709244222205894 1:0.42312 2:0.359375 3:-0.843383 4:-0.0692446 5:0.571631 6:0.00646828 7:0.0781512 8:-0.681717 \n"
"-2 1:-0.0392817 2:0.140625 3:0.00779901 4:0.068701 5:0.556572 6:0.539092 7:-0.447011 8:-0.817913 \n"
"-1.618058925541082 1:0.122334 2:-0.015625 3:-0.145928 4:-0.787447 5:0.376007 6:0.304501 7:-0.19972 8:-0.724648 \n"
"-1.115543554960749 1:0.0909091 2:-0.265625 3:0.141203 4:-0.0692446 5:0.240372 6:0.397734 7:-0.0423663 8:-0.674315 \n"
"-2 1:0.387205 2:-0.015625 3:-0.457203 4:-0.0416405 5:0.601684 6:0.0620246 7:0.133856 8:-0.674315 \n"
"-2 1:0.272727 2:0.09375 3:-0.492097 4:0.0745385 5:0.56627 6:0.0921173 7:0.276545 8:-0.698001 \n"
"-2 1:-0.0123457 2:0.03125 3:0.060323 4:-0.354822 5:0.561625 6:0.280434 7:-0.240109 8:-0.758697 \n"
"-2 1:0.353535 2:0.34375 3:-0.608825 4:-0.00975478 5:0.578627 6:0.111351 7:0.0455694 8:-0.700962 \n"
"-2 1:-0.106622 2:-0.203125 3:-0.0822141 4:-0.0692446 5:0.56344 6:0.422073 7:-0.201071 8:-0.755736 \n"
"-0.7554011581596122 1:0.351291 2:-0.0625 3:0.0232501 4:0.105223 5:0.634958 6:0.235882 7:-0.317935 8:-0.800148 \n"
"-0.2540318377564468 1:0.441077 2:-0.34375 3:0.237827 4:-0.332141 5:0.469998 6:0.14534 7:-0.146418 8:-0.665433 \n"
"-2 1:-0.216611 2:0.171875 3:-0.386363 4:-0.0692446 5:0.571631 6:0.415849 7:-0.153625 8:-0.739452 \n"
"-0.006394757065403951 1:0.393939 2:-0.53125 3:-0.0701666 4:0.0772761 5:0.564945 6:0.11228 7:0.398013 8:-0.552924 \n"
"-0.03623575298513586 1:0.560045 2:0.40625 3:-0.82612 4:-0.48947 5:0.572442 6:0.325553 7:0.26128 8:-0.444856 \n"
"-2 1:0.634119 2:0.15625 3:-0.698006 4:-0.0692446 5:0.559522 6:0.166024 7:0.227146 8:-0.660992 \n"
"-2 1:0.164983 2:0.578125 3:-0.924703 4:-0.0692446 5:0.571631 6:0.443911 7:-0.457321 8:-0.822354 \n"
"-2 1:0.465769 2:0.484375 3:-0.614335 4:-0.080116 5:0.585854 6:0.196402 7:-0.0355597 8:-0.740933 \n"
"-0.1474178898532089 1:0.450056 2:-0.265625 3:0.073105 4:-0.248391 5:0.575805 6:0.0215027 7:0.185005 8:-0.646188 \n"
"-0.4715148187143938 1:0.169473 2:-0.078125 3:0.0232991 4:-0.208305 5:0.559041 6:0.431276 7:-0.225645 8:-0.780903 \n"
"-2 1:0.12009 2:0.203125 3:-0.429411 4:-0.0599447 5:0.639424 6:0.141759 7:-0.201371 8:-0.763138 \n"
"-0.09093489748575363 1:0.564534 2:-0.90625 3:0.278132 4:-0.0779851 5:0.574485 6:0.0448855 7:0.499062 8:-0.541081 \n"
"-2 1:0.420875 2:0.140625 3:-0.0626982 4:0.173879 5:0.552158 6:0.483184 7:-0.144166 8:-0.698001 \n"
"-0.2805289648421712 1:0.575758 2:-0.296875 3:0.311042 4:0.235279 5:0.54419 6:0.243276 7:0.318435 8:-0.504071 \n"
"-0.5791577007697744 1:0.459035 3:-0.247818 4:0.180401 5:0.542071 6:0.0961585 7:0.101023 8:-0.610659 \n"
"-0.2635032267938402 1:0.800224 2:-0.734375 3:0.184128 4:-0.0817271 5:0.571631 6:0.0306049 7:0.488601 8:-0.561806 \n"
"-0.05199664015436836 1:0.393939 2:-0.15625 3:-0.661569 4:-0.0772327 5:0.561321 6:0.199705 7:0.428593 8:-0.512953 \n"
"-0.05066503982693556 1:0.631874 2:0.5 3:-0.781456 4:-0.0710565 5:0.564273 6:0.282687 7:0.0668402 8:-0.628423 \n"
"-2 1:0.398429 2:0.5625 3:-0.876489 4:-0.0692446 5:0.571631 6:0.542945 7:-0.3844 8:-0.792746 \n"
"-1.358732323231663 1:0.694725 2:0.21875 3:-0.746587 4:0.20953 5:0.55914 6:-0.0498565 7:0.307525 8:-0.604737 \n"
"-1.136748637492735 1:0.670034 2:0.421875 3:-0.949092 4:-0.0692446 5:0.571631 6:0.0715913 7:0.294662 8:-0.551443 \n"
"-0.1920758554839926 1:0.470258 2:0.359375 3:-0.655742 4:-0.011354 5:0.281289 6:0.364538 7:-0.0413153 8:-0.672835 \n"
"-0.5107923880172026 1:0.178451 2:-0.703125 3:0.254111 4:0.405791 5:0.56435 6:0.296322 7:-0.0908135 8:-0.678756 \n"
"-0.2147682361089066 1:0.432099 2:-0.765625 3:0.135815 4:-0.0416011 5:0.364259 6:0.477133 7:-0.172093 8:-0.658031 \n"
"-0.02015106168924325 1:0.485971 2:-0.703125 3:-0.16444 4:-0.0692446 5:0.571631 6:0.219223 7:0.465779 8:-0.5396 \n"
"-0.7590859123721263 1:0.299663 2:-0.296875 3:0.207219 4:0.431528 5:-0.0977984 6:0.36464 7:0.000775756 8:-0.681717 \n"
"-0.451393502669127 1:0.643098 2:-0.203125 3:-0.140027 4:0.517909 5:0.58587 6:0.156119 7:0.287906 8:-0.585492 \n"
"-0.0950411771856124 1:0.573513 2:-0.40625 3:0.182977 4:-0.0692446 5:0.570723 6:0.127894 7:0.573234 8:-0.495189 \n"
"-0.06086013659375457 1:0.573513 2:-0.40625 3:0.182977 4:-0.0692446 5:0.570723 6:0.127894 7:0.573234 8:-0.495189 \n"
"-0.4049729914674081 1:0.580247 2:-0.9375 3:0.0754313 4:-0.0692446 5:0.574647 6:0.0842772 7:0.131003 8:-0.621021 \n"
"-0.2389430075902803 1:0.131313 2:-0.078125 3:0.184177 4:0.139846 5:0.536692 6:0.251766 7:0.082055 8:-0.621021 \n"
"-0.3492517277716465 1:0.2211 2:0.0625 3:-0.00816631 4:-0.101914 5:0.52987 6:0.477525 7:-0.432697 8:-0.777942 \n"
"-2 1:0.106622 2:0.125 3:-0.161453 4:-0.0913932 5:0.539496 6:0.315245 7:-0.0219464 8:-0.686158 \n"
"-0.0322194096157602 1:0.602694 2:-0.3125 3:-0.0503814 4:-0.0518226 5:0.568783 6:0.126197 7:-0.0961187 8:-0.748335 \n"
"-1.010989158720321 1:0.241302 2:-0.34375 3:0.200632 4:-0.587841 5:0.595039 6:0.44139 7:-0.202723 8:-0.740933 \n"
"-0.3436184305664127 1:0.340067 2:-0.5625 3:0.569352 4:-0.00541801 5:0.547532 6:0.237024 7:-0.135507 8:-0.76758 \n"
"-0.2798084025118575 1:0.340067 2:0.390625 3:-0.66796 4:-0.384446 5:0.569945 6:0.362087 7:-0.262981 8:-0.822354 \n"
"-0.152771044271931 1:0.710438 2:0.359375 3:-0.82972 4:-0.0692446 5:0.571631 6:-0.204077 7:0.496209 8:-0.551443 \n"
"-0.4320453018650187 1:0.173962 2:0.359375 3:-0.718427 4:-0.0554228 5:0.573463 6:0.0638794 7:0.0190436 8:-0.695041 \n"
"-0.3894987026234517 1:0.342312 2:0.453125 3:-0.827075 4:0.42987 5:0.642889 6:0.422085 7:-0.0856085 8:-0.695041 \n"
"-0.03884707665948138 1:0.474747 2:0.09375 3:-0.464231 4:-0.0692446 5:0.00913298 6:0.322919 7:0.259278 8:-0.361954 \n"
"-2 1:0.297419 2:0.25 3:-0.0982774 4:-0.0692446 5:0.571358 6:0.470425 7:-0.200521 8:-0.629904 \n"
"-2 1:0.205387 2:0.5 3:-0.257735 4:-0.30551 5:0.571631 6:0.536632 7:-0.197117 8:-0.612139 \n"
"-2 1:0.436588 2:0.3125 3:-0.162849 4:-0.0692446 5:0.574905 6:0.360816 7:-0.0568805 8:-0.600296 \n"
"-2 1:0.234568 2:0.265625 3:-0.400198 4:-0.131007 5:0.567451 6:0.646533 7:-0.0520257 8:-0.381199 \n"
"-0.1927804181744988 1:0.108866 2:0.109375 3:-0.448119 4:0.631693 5:0.568784 6:0.564662 7:-0.336853 8:-0.702443 \n"
"-0.07253390990357041 1:0.364759 2:0.578125 3:-0.971497 4:-0.0692446 5:0.54379 6:0.788196 7:-0.484648 8:-0.455218 \n"
"-0.1143173781353605 1:0.600449 2:-0.921875 3:-0.0430599 4:-0.0692446 5:0.539454 6:0.423676 7:0.410125 8:-0.356033 \n"
"-2 1:0.232323 2:0.3125 3:-0.547486 4:-0.202373 5:0.525866 6:0.384953 7:-0.23075 8:-0.623982 \n"
"-1.095643203845212 1:0.167228 2:-0.03125 3:0.259082 4:-0.324452 5:0.492534 6:0.385508 7:-0.289657 8:-0.672835 \n"
"-0.09663795092269756 1:0.636364 2:-0.328125 3:-0.0654407 4:-0.0405652 5:0.574565 6:0.0485144 7:0.654863 8:-0.42117 \n"
